FANN_FLO_2.1
num_layers=6
learning_rate=0.700000
connection_rate=1.000000
network_type=0
learning_momentum=0.000000
training_algorithm=2
train_error_function=1
train_stop_function=0
cascade_output_change_fraction=0.010000
quickprop_decay=-0.000100
quickprop_mu=1.750000
rprop_increase_factor=1.200000
rprop_decrease_factor=0.500000
rprop_delta_min=0.000000
rprop_delta_max=50.000000
rprop_delta_zero=0.100000
cascade_output_stagnation_epochs=12
cascade_candidate_change_fraction=0.010000
cascade_candidate_stagnation_epochs=12
cascade_max_out_epochs=150
cascade_min_out_epochs=50
cascade_max_cand_epochs=150
cascade_min_cand_epochs=50
cascade_num_candidate_groups=2
bit_fail_limit=3.49999994039535520000e-001
cascade_candidate_limit=1.00000000000000000000e+003
cascade_weight_multiplier=4.00000005960464480000e-001
cascade_activation_functions_count=10
cascade_activation_functions=3 5 7 8 10 11 14 15 16 17 
cascade_activation_steepnesses_count=4
cascade_activation_steepnesses=2.50000000000000000000e-001 5.00000000000000000000e-001 7.50000000000000000000e-001 1.00000000000000000000e+000 
layer_sizes=226 81 61 41 11 7 
scale_included=0
neurons (num_inputs, activation_function, activation_steepness)=(0, 0, 0.00000000000000000000e+000) (0, 0, 0.00000000000000000000e+000) (0, 0, 0.00000000000000000000e+000) (0, 0, 0.00000000000000000000e+000) (0, 0, 0.00000000000000000000e+000) (0, 0, 0.00000000000000000000e+000) (0, 0, 0.00000000000000000000e+000) (0, 0, 0.00000000000000000000e+000) (0, 0, 0.00000000000000000000e+000) (0, 0, 0.00000000000000000000e+000) (0, 0, 0.00000000000000000000e+000) (0, 0, 0.00000000000000000000e+000) (0, 0, 0.00000000000000000000e+000) (0, 0, 0.00000000000000000000e+000) (0, 0, 0.00000000000000000000e+000) (0, 0, 0.00000000000000000000e+000) (0, 0, 0.00000000000000000000e+000) (0, 0, 0.00000000000000000000e+000) (0, 0, 0.00000000000000000000e+000) (0, 0, 0.00000000000000000000e+000) (0, 0, 0.00000000000000000000e+000) (0, 0, 0.00000000000000000000e+000) (0, 0, 0.00000000000000000000e+000) (0, 0, 0.00000000000000000000e+000) (0, 0, 0.00000000000000000000e+000) (0, 0, 0.00000000000000000000e+000) (0, 0, 0.00000000000000000000e+000) (0, 0, 0.00000000000000000000e+000) (0, 0, 0.00000000000000000000e+000) (0, 0, 0.00000000000000000000e+000) (0, 0, 0.00000000000000000000e+000) (0, 0, 0.00000000000000000000e+000) (0, 0, 0.00000000000000000000e+000) (0, 0, 0.00000000000000000000e+000) (0, 0, 0.00000000000000000000e+000) (0, 0, 0.00000000000000000000e+000) (0, 0, 0.00000000000000000000e+000) (0, 0, 0.00000000000000000000e+000) (0, 0, 0.00000000000000000000e+000) (0, 0, 0.00000000000000000000e+000) (0, 0, 0.00000000000000000000e+000) (0, 0, 0.00000000000000000000e+000) (0, 0, 0.00000000000000000000e+000) (0, 0, 0.00000000000000000000e+000) (0, 0, 0.00000000000000000000e+000) (0, 0, 0.00000000000000000000e+000) (0, 0, 0.00000000000000000000e+000) (0, 0, 0.00000000000000000000e+000) (0, 0, 0.00000000000000000000e+000) (0, 0, 0.00000000000000000000e+000) (0, 0, 0.00000000000000000000e+000) (0, 0, 0.00000000000000000000e+000) (0, 0, 0.00000000000000000000e+000) (0, 0, 0.00000000000000000000e+000) (0, 0, 0.00000000000000000000e+000) (0, 0, 0.00000000000000000000e+000) (0, 0, 0.00000000000000000000e+000) (0, 0, 0.00000000000000000000e+000) (0, 0, 0.00000000000000000000e+000) (0, 0, 0.00000000000000000000e+000) (0, 0, 0.00000000000000000000e+000) (0, 0, 0.00000000000000000000e+000) (0, 0, 0.00000000000000000000e+000) (0, 0, 0.00000000000000000000e+000) (0, 0, 0.00000000000000000000e+000) (0, 0, 0.00000000000000000000e+000) (0, 0, 0.00000000000000000000e+000) (0, 0, 0.00000000000000000000e+000) (0, 0, 0.00000000000000000000e+000) (0, 0, 0.00000000000000000000e+000) (0, 0, 0.00000000000000000000e+000) (0, 0, 0.00000000000000000000e+000) (0, 0, 0.00000000000000000000e+000) (0, 0, 0.00000000000000000000e+000) (0, 0, 0.00000000000000000000e+000) (0, 0, 0.00000000000000000000e+000) (0, 0, 0.00000000000000000000e+000) (0, 0, 0.00000000000000000000e+000) (0, 0, 0.00000000000000000000e+000) (0, 0, 0.00000000000000000000e+000) (0, 0, 0.00000000000000000000e+000) (0, 0, 0.00000000000000000000e+000) (0, 0, 0.00000000000000000000e+000) (0, 0, 0.00000000000000000000e+000) (0, 0, 0.00000000000000000000e+000) (0, 0, 0.00000000000000000000e+000) (0, 0, 0.00000000000000000000e+000) (0, 0, 0.00000000000000000000e+000) (0, 0, 0.00000000000000000000e+000) (0, 0, 0.00000000000000000000e+000) (0, 0, 0.00000000000000000000e+000) (0, 0, 0.00000000000000000000e+000) (0, 0, 0.00000000000000000000e+000) (0, 0, 0.00000000000000000000e+000) (0, 0, 0.00000000000000000000e+000) (0, 0, 0.00000000000000000000e+000) (0, 0, 0.00000000000000000000e+000) (0, 0, 0.00000000000000000000e+000) (0, 0, 0.00000000000000000000e+000) (0, 0, 0.00000000000000000000e+000) (0, 0, 0.00000000000000000000e+000) (0, 0, 0.00000000000000000000e+000) (0, 0, 0.00000000000000000000e+000) (0, 0, 0.00000000000000000000e+000) (0, 0, 0.00000000000000000000e+000) (0, 0, 0.00000000000000000000e+000) (0, 0, 0.00000000000000000000e+000) (0, 0, 0.00000000000000000000e+000) (0, 0, 0.00000000000000000000e+000) (0, 0, 0.00000000000000000000e+000) (0, 0, 0.00000000000000000000e+000) (0, 0, 0.00000000000000000000e+000) (0, 0, 0.00000000000000000000e+000) (0, 0, 0.00000000000000000000e+000) (0, 0, 0.00000000000000000000e+000) (0, 0, 0.00000000000000000000e+000) (0, 0, 0.00000000000000000000e+000) (0, 0, 0.00000000000000000000e+000) (0, 0, 0.00000000000000000000e+000) (0, 0, 0.00000000000000000000e+000) (0, 0, 0.00000000000000000000e+000) (0, 0, 0.00000000000000000000e+000) (0, 0, 0.00000000000000000000e+000) (0, 0, 0.00000000000000000000e+000) (0, 0, 0.00000000000000000000e+000) (0, 0, 0.00000000000000000000e+000) (0, 0, 0.00000000000000000000e+000) (0, 0, 0.00000000000000000000e+000) (0, 0, 0.00000000000000000000e+000) (0, 0, 0.00000000000000000000e+000) (0, 0, 0.00000000000000000000e+000) (0, 0, 0.00000000000000000000e+000) (0, 0, 0.00000000000000000000e+000) (0, 0, 0.00000000000000000000e+000) (0, 0, 0.00000000000000000000e+000) (0, 0, 0.00000000000000000000e+000) (0, 0, 0.00000000000000000000e+000) (0, 0, 0.00000000000000000000e+000) (0, 0, 0.00000000000000000000e+000) (0, 0, 0.00000000000000000000e+000) (0, 0, 0.00000000000000000000e+000) (0, 0, 0.00000000000000000000e+000) (0, 0, 0.00000000000000000000e+000) (0, 0, 0.00000000000000000000e+000) (0, 0, 0.00000000000000000000e+000) (0, 0, 0.00000000000000000000e+000) (0, 0, 0.00000000000000000000e+000) (0, 0, 0.00000000000000000000e+000) (0, 0, 0.00000000000000000000e+000) (0, 0, 0.00000000000000000000e+000) (0, 0, 0.00000000000000000000e+000) (0, 0, 0.00000000000000000000e+000) (0, 0, 0.00000000000000000000e+000) (0, 0, 0.00000000000000000000e+000) (0, 0, 0.00000000000000000000e+000) (0, 0, 0.00000000000000000000e+000) (0, 0, 0.00000000000000000000e+000) (0, 0, 0.00000000000000000000e+000) (0, 0, 0.00000000000000000000e+000) (0, 0, 0.00000000000000000000e+000) (0, 0, 0.00000000000000000000e+000) (0, 0, 0.00000000000000000000e+000) (0, 0, 0.00000000000000000000e+000) (0, 0, 0.00000000000000000000e+000) (0, 0, 0.00000000000000000000e+000) (0, 0, 0.00000000000000000000e+000) (0, 0, 0.00000000000000000000e+000) (0, 0, 0.00000000000000000000e+000) (0, 0, 0.00000000000000000000e+000) (0, 0, 0.00000000000000000000e+000) (0, 0, 0.00000000000000000000e+000) (0, 0, 0.00000000000000000000e+000) (0, 0, 0.00000000000000000000e+000) (0, 0, 0.00000000000000000000e+000) (0, 0, 0.00000000000000000000e+000) (0, 0, 0.00000000000000000000e+000) (0, 0, 0.00000000000000000000e+000) (0, 0, 0.00000000000000000000e+000) (0, 0, 0.00000000000000000000e+000) (0, 0, 0.00000000000000000000e+000) (0, 0, 0.00000000000000000000e+000) (0, 0, 0.00000000000000000000e+000) (0, 0, 0.00000000000000000000e+000) (0, 0, 0.00000000000000000000e+000) (0, 0, 0.00000000000000000000e+000) (0, 0, 0.00000000000000000000e+000) (0, 0, 0.00000000000000000000e+000) (0, 0, 0.00000000000000000000e+000) (0, 0, 0.00000000000000000000e+000) (0, 0, 0.00000000000000000000e+000) (0, 0, 0.00000000000000000000e+000) (0, 0, 0.00000000000000000000e+000) (0, 0, 0.00000000000000000000e+000) (0, 0, 0.00000000000000000000e+000) (0, 0, 0.00000000000000000000e+000) (0, 0, 0.00000000000000000000e+000) (0, 0, 0.00000000000000000000e+000) (0, 0, 0.00000000000000000000e+000) (0, 0, 0.00000000000000000000e+000) (0, 0, 0.00000000000000000000e+000) (0, 0, 0.00000000000000000000e+000) (0, 0, 0.00000000000000000000e+000) (0, 0, 0.00000000000000000000e+000) (0, 0, 0.00000000000000000000e+000) (0, 0, 0.00000000000000000000e+000) (0, 0, 0.00000000000000000000e+000) (0, 0, 0.00000000000000000000e+000) (0, 0, 0.00000000000000000000e+000) (0, 0, 0.00000000000000000000e+000) (0, 0, 0.00000000000000000000e+000) (0, 0, 0.00000000000000000000e+000) (0, 0, 0.00000000000000000000e+000) (0, 0, 0.00000000000000000000e+000) (0, 0, 0.00000000000000000000e+000) (0, 0, 0.00000000000000000000e+000) (0, 0, 0.00000000000000000000e+000) (0, 0, 0.00000000000000000000e+000) (0, 0, 0.00000000000000000000e+000) (0, 0, 0.00000000000000000000e+000) (0, 0, 0.00000000000000000000e+000) (0, 0, 0.00000000000000000000e+000) (0, 0, 0.00000000000000000000e+000) (0, 0, 0.00000000000000000000e+000) (0, 0, 0.00000000000000000000e+000) (0, 0, 0.00000000000000000000e+000) (0, 0, 0.00000000000000000000e+000) (226, 6, 1.00000000000000000000e+000) (226, 6, 1.00000000000000000000e+000) (226, 6, 1.00000000000000000000e+000) (226, 6, 1.00000000000000000000e+000) (226, 6, 1.00000000000000000000e+000) (226, 6, 1.00000000000000000000e+000) (226, 6, 1.00000000000000000000e+000) (226, 6, 1.00000000000000000000e+000) (226, 6, 1.00000000000000000000e+000) (226, 6, 1.00000000000000000000e+000) (226, 6, 1.00000000000000000000e+000) (226, 6, 1.00000000000000000000e+000) (226, 6, 1.00000000000000000000e+000) (226, 6, 1.00000000000000000000e+000) (226, 6, 1.00000000000000000000e+000) (226, 6, 1.00000000000000000000e+000) (226, 6, 1.00000000000000000000e+000) (226, 6, 1.00000000000000000000e+000) (226, 6, 1.00000000000000000000e+000) (226, 6, 1.00000000000000000000e+000) (226, 6, 1.00000000000000000000e+000) (226, 6, 1.00000000000000000000e+000) (226, 6, 1.00000000000000000000e+000) (226, 6, 1.00000000000000000000e+000) (226, 6, 1.00000000000000000000e+000) (226, 6, 1.00000000000000000000e+000) (226, 6, 1.00000000000000000000e+000) (226, 6, 1.00000000000000000000e+000) (226, 6, 1.00000000000000000000e+000) (226, 6, 1.00000000000000000000e+000) (226, 6, 1.00000000000000000000e+000) (226, 6, 1.00000000000000000000e+000) (226, 6, 1.00000000000000000000e+000) (226, 6, 1.00000000000000000000e+000) (226, 6, 1.00000000000000000000e+000) (226, 6, 1.00000000000000000000e+000) (226, 6, 1.00000000000000000000e+000) (226, 6, 1.00000000000000000000e+000) (226, 6, 1.00000000000000000000e+000) (226, 6, 1.00000000000000000000e+000) (226, 6, 1.00000000000000000000e+000) (226, 6, 1.00000000000000000000e+000) (226, 6, 1.00000000000000000000e+000) (226, 6, 1.00000000000000000000e+000) (226, 6, 1.00000000000000000000e+000) (226, 6, 1.00000000000000000000e+000) (226, 6, 1.00000000000000000000e+000) (226, 6, 1.00000000000000000000e+000) (226, 6, 1.00000000000000000000e+000) (226, 6, 1.00000000000000000000e+000) (226, 6, 1.00000000000000000000e+000) (226, 6, 1.00000000000000000000e+000) (226, 6, 1.00000000000000000000e+000) (226, 6, 1.00000000000000000000e+000) (226, 6, 1.00000000000000000000e+000) (226, 6, 1.00000000000000000000e+000) (226, 6, 1.00000000000000000000e+000) (226, 6, 1.00000000000000000000e+000) (226, 6, 1.00000000000000000000e+000) (226, 6, 1.00000000000000000000e+000) (226, 6, 1.00000000000000000000e+000) (226, 6, 1.00000000000000000000e+000) (226, 6, 1.00000000000000000000e+000) (226, 6, 1.00000000000000000000e+000) (226, 6, 1.00000000000000000000e+000) (226, 6, 1.00000000000000000000e+000) (226, 6, 1.00000000000000000000e+000) (226, 6, 1.00000000000000000000e+000) (226, 6, 1.00000000000000000000e+000) (226, 6, 1.00000000000000000000e+000) (226, 6, 1.00000000000000000000e+000) (226, 6, 1.00000000000000000000e+000) (226, 6, 1.00000000000000000000e+000) (226, 6, 1.00000000000000000000e+000) (226, 6, 1.00000000000000000000e+000) (226, 6, 1.00000000000000000000e+000) (226, 6, 1.00000000000000000000e+000) (226, 6, 1.00000000000000000000e+000) (226, 6, 1.00000000000000000000e+000) (226, 6, 1.00000000000000000000e+000) (0, 6, 1.00000000000000000000e+000) (81, 6, 1.00000000000000000000e+000) (81, 6, 1.00000000000000000000e+000) (81, 6, 1.00000000000000000000e+000) (81, 6, 1.00000000000000000000e+000) (81, 6, 1.00000000000000000000e+000) (81, 6, 1.00000000000000000000e+000) (81, 6, 1.00000000000000000000e+000) (81, 6, 1.00000000000000000000e+000) (81, 6, 1.00000000000000000000e+000) (81, 6, 1.00000000000000000000e+000) (81, 6, 1.00000000000000000000e+000) (81, 6, 1.00000000000000000000e+000) (81, 6, 1.00000000000000000000e+000) (81, 6, 1.00000000000000000000e+000) (81, 6, 1.00000000000000000000e+000) (81, 6, 1.00000000000000000000e+000) (81, 6, 1.00000000000000000000e+000) (81, 6, 1.00000000000000000000e+000) (81, 6, 1.00000000000000000000e+000) (81, 6, 1.00000000000000000000e+000) (81, 6, 1.00000000000000000000e+000) (81, 6, 1.00000000000000000000e+000) (81, 6, 1.00000000000000000000e+000) (81, 6, 1.00000000000000000000e+000) (81, 6, 1.00000000000000000000e+000) (81, 6, 1.00000000000000000000e+000) (81, 6, 1.00000000000000000000e+000) (81, 6, 1.00000000000000000000e+000) (81, 6, 1.00000000000000000000e+000) (81, 6, 1.00000000000000000000e+000) (81, 6, 1.00000000000000000000e+000) (81, 6, 1.00000000000000000000e+000) (81, 6, 1.00000000000000000000e+000) (81, 6, 1.00000000000000000000e+000) (81, 6, 1.00000000000000000000e+000) (81, 6, 1.00000000000000000000e+000) (81, 6, 1.00000000000000000000e+000) (81, 6, 1.00000000000000000000e+000) (81, 6, 1.00000000000000000000e+000) (81, 6, 1.00000000000000000000e+000) (81, 6, 1.00000000000000000000e+000) (81, 6, 1.00000000000000000000e+000) (81, 6, 1.00000000000000000000e+000) (81, 6, 1.00000000000000000000e+000) (81, 6, 1.00000000000000000000e+000) (81, 6, 1.00000000000000000000e+000) (81, 6, 1.00000000000000000000e+000) (81, 6, 1.00000000000000000000e+000) (81, 6, 1.00000000000000000000e+000) (81, 6, 1.00000000000000000000e+000) (81, 6, 1.00000000000000000000e+000) (81, 6, 1.00000000000000000000e+000) (81, 6, 1.00000000000000000000e+000) (81, 6, 1.00000000000000000000e+000) (81, 6, 1.00000000000000000000e+000) (81, 6, 1.00000000000000000000e+000) (81, 6, 1.00000000000000000000e+000) (81, 6, 1.00000000000000000000e+000) (81, 6, 1.00000000000000000000e+000) (81, 6, 1.00000000000000000000e+000) (0, 6, 1.00000000000000000000e+000) (61, 6, 1.00000000000000000000e+000) (61, 6, 1.00000000000000000000e+000) (61, 6, 1.00000000000000000000e+000) (61, 6, 1.00000000000000000000e+000) (61, 6, 1.00000000000000000000e+000) (61, 6, 1.00000000000000000000e+000) (61, 6, 1.00000000000000000000e+000) (61, 6, 1.00000000000000000000e+000) (61, 6, 1.00000000000000000000e+000) (61, 6, 1.00000000000000000000e+000) (61, 6, 1.00000000000000000000e+000) (61, 6, 1.00000000000000000000e+000) (61, 6, 1.00000000000000000000e+000) (61, 6, 1.00000000000000000000e+000) (61, 6, 1.00000000000000000000e+000) (61, 6, 1.00000000000000000000e+000) (61, 6, 1.00000000000000000000e+000) (61, 6, 1.00000000000000000000e+000) (61, 6, 1.00000000000000000000e+000) (61, 6, 1.00000000000000000000e+000) (61, 6, 1.00000000000000000000e+000) (61, 6, 1.00000000000000000000e+000) (61, 6, 1.00000000000000000000e+000) (61, 6, 1.00000000000000000000e+000) (61, 6, 1.00000000000000000000e+000) (61, 6, 1.00000000000000000000e+000) (61, 6, 1.00000000000000000000e+000) (61, 6, 1.00000000000000000000e+000) (61, 6, 1.00000000000000000000e+000) (61, 6, 1.00000000000000000000e+000) (61, 6, 1.00000000000000000000e+000) (61, 6, 1.00000000000000000000e+000) (61, 6, 1.00000000000000000000e+000) (61, 6, 1.00000000000000000000e+000) (61, 6, 1.00000000000000000000e+000) (61, 6, 1.00000000000000000000e+000) (61, 6, 1.00000000000000000000e+000) (61, 6, 1.00000000000000000000e+000) (61, 6, 1.00000000000000000000e+000) (61, 6, 1.00000000000000000000e+000) (0, 6, 1.00000000000000000000e+000) (41, 6, 1.00000000000000000000e+000) (41, 6, 1.00000000000000000000e+000) (41, 6, 1.00000000000000000000e+000) (41, 6, 1.00000000000000000000e+000) (41, 6, 1.00000000000000000000e+000) (41, 6, 1.00000000000000000000e+000) (41, 6, 1.00000000000000000000e+000) (41, 6, 1.00000000000000000000e+000) (41, 6, 1.00000000000000000000e+000) (41, 6, 1.00000000000000000000e+000) (0, 6, 1.00000000000000000000e+000) (11, 4, 1.00000000000000000000e+000) (11, 4, 1.00000000000000000000e+000) (11, 4, 1.00000000000000000000e+000) (11, 4, 1.00000000000000000000e+000) (11, 4, 1.00000000000000000000e+000) (11, 4, 1.00000000000000000000e+000) (0, 4, 1.00000000000000000000e+000) 
connections (connected_to_neuron, weight)=(0, 1.49481860351562500000e+003) (1, 1.49562475585937500000e+003) (2, 1.49530432128906250000e+003) (3, 1.49527954101562500000e+003) (4, 1.49516027832031250000e+003) (5, 1.49482519531250000000e+003) (6, 1.49508801269531250000e+003) (7, 1.49528051757812500000e+003) (8, 1.49498779296875000000e+003) (9, 1.49503906250000000000e+003) (10, 1.49575061035156250000e+003) (11, 1.49535534667968750000e+003) (12, 1.49518041992187500000e+003) (13, 1.49485668945312500000e+003) (14, 1.49528100585937500000e+003) (15, -6.98770701885223390000e-001) (16, -1.02458143234252930000e+000) (17, -1.73255205154418950000e+000) (18, -1.35452067852020260000e+000) (19, 1.08131296932697300000e-001) (20, -1.57386696338653560000e+000) (21, -1.60146844387054440000e+000) (22, 1.49560827636718750000e+003) (23, 1.49549609375000000000e+003) (24, 1.49518347167968750000e+003) (25, 1.49487036132812500000e+003) (26, 1.49536035156250000000e+003) (27, 1.49506982421875000000e+003) (28, 1.49546301269531250000e+003) (29, 1.49522778320312500000e+003) (30, 1.40318036079406740000e+000) (31, 1.49567419433593750000e+003) (32, 1.49494030761718750000e+003) (33, 5.12199831008911130000e+000) (34, 5.27039229869842530000e-001) (35, -3.18763494491577150000e-001) (36, -1.19325004518032070000e-001) (37, 2.71253585815429690000e-001) (38, 2.76368439197540280000e-001) (39, 1.52872139587998390000e-002) (40, 4.96244817972183230000e-001) (41, 1.49552185058593750000e+003) (42, 1.49479626464843750000e+003) (43, 1.49509106445312500000e+003) (44, 1.49495935058593750000e+003) (45, 1.31731915473937990000e+000) (46, 1.49482958984375000000e+003) (47, 5.25376844406127930000e+000) (48, 1.49551220703125000000e+003) (49, 7.18883693218231200000e-001) (50, 1.49573193359375000000e+003) (51, 1.02357603609561920000e-002) (52, 1.49569531250000000000e+003) (53, 3.27870547771453860000e-001) (54, 2.36869212239980700000e-002) (55, -8.44008326530456540000e-001) (56, -5.81257641315460210000e-001) (57, -6.85363590717315670000e-001) (58, -5.66599190235137940000e-001) (59, 5.61630427837371830000e-001) (60, 1.19053936004638670000e+000) (61, 5.32830762863159180000e+000) (62, 1.49519030761718750000e+003) (63, 1.49486791992187500000e+003) (64, 3.88383030891418460000e-001) (65, 1.49563513183593750000e+003) (66, 2.44204640388488770000e-001) (67, 1.19699978828430180000e+000) (68, -5.70941090583801270000e-001) (69, 4.50511842966079710000e-001) (70, 4.24079984426498410000e-001) (71, 1.49491369628906250000e+003) (72, 1.49497851562500000000e+003) (73, 4.09411430358886720000e+000) (74, 2.13803529739379880000e+000) (75, 1.39782047271728520000e+000) (76, 1.49516491699218750000e+003) (77, 1.49493554687500000000e+003) (78, 1.49485180664062500000e+003) (79, 8.83681893348693850000e-001) (80, 1.49491259765625000000e+003) (81, 1.03651773929595950000e+000) (82, 1.49521325683593750000e+003) (83, -5.49608349800109860000e-001) (84, 1.04124629497528080000e+000) (85, 1.28863692283630370000e-001) (86, 1.49485864257812500000e+003) (87, 4.45321464538574220000e+000) (88, 1.49562695312500000000e+003) (89, 2.12892842292785640000e+000) (90, -7.10341393947601320000e-001) (91, -1.29286336898803710000e+000) (92, -8.82301867008209230000e-001) (93, -6.44773066043853760000e-001) (94, 4.80621546506881710000e-001) (95, -4.75327849388122560000e-001) (96, -1.14080035686492920000e+000) (97, 1.49556689453125000000e+003) (98, -5.45585155487060550000e-001) (99, 1.09018039703369140000e+000) (100, 7.61546194553375240000e-001) (101, 4.64180946350097660000e+000) (102, 1.49493676757812500000e+003) (103, 1.49554174804687500000e+003) (104, 1.23761260509490970000e+000) (105, 3.81571084260940550000e-001) (106, 1.49475231933593750000e+003) (107, 1.49571325683593750000e+003) (108, 1.49535913085937500000e+003) (109, 8.13034474849700930000e-001) (110, -6.21500005945563320000e-003) (111, -9.82918441295623780000e-001) (112, 1.69592559337615970000e-001) (113, 8.45828875899314880000e-002) (114, -6.13932572305202480000e-002) (115, 6.40634223818778990000e-002) (116, 1.49501452636718750000e+003) (117, 1.49539440917968750000e+003) (118, 1.49511645507812500000e+003) (119, 5.38936316967010500000e-001) (120, 1.74014061689376830000e-001) (121, 1.49477490234375000000e+003) (122, 1.49493872070312500000e+003) (123, 1.49556933593750000000e+003) (124, 9.83442401885986330000e+000) (125, 1.49476965332031250000e+003) (126, 7.38507270812988280000e-001) (127, 1.49570922851562500000e+003) (128, -1.71029436588287350000e+000) (129, -4.35172379016876220000e-001) (130, -2.12593451142311100000e-002) (131, -9.19049382209777830000e-001) (132, -9.76747453212738040000e-001) (133, -6.78432822227478030000e-001) (134, 6.13519363105297090000e-002) (135, 4.15534943342208860000e-001) (136, 1.49500793457031250000e+003) (137, 1.49513024902343750000e+003) (138, 1.49483081054687500000e+003) (139, 9.61760425567626950000e+000) (140, 1.49564697265625000000e+003) (141, -2.72362381219863890000e-001) (142, 1.49565930175781250000e+003) (143, 1.55374121665954590000e+000) (144, 1.21555662155151370000e+000) (145, 3.19648712873458860000e-001) (146, 1.49529846191406250000e+003) (147, 1.49502294921875000000e+003) (148, 1.49494079589843750000e+003) (149, 7.05087304115295410000e-001) (150, -1.20027631521224980000e-001) (151, 1.49477819824218750000e+003) (152, 1.49546520996093750000e+003) (153, 1.49561804199218750000e+003) (154, 9.40118885040283200000e+000) (155, 1.49539965820312500000e+003) (156, 3.37147295475006100000e-001) (157, 1.49502868652343750000e+003) (158, 1.02606928348541260000e+000) (159, 9.14029836654663090000e-001) (160, 7.20149204134941100000e-002) (161, 1.49487780761718750000e+003) (162, 1.49575219726562500000e+003) (163, 1.49569091796875000000e+003) (164, 4.39988493919372560000e-001) (165, -1.05165278911590580000e+000) (166, -9.23936724662780760000e-001) (167, -1.37806761264801030000e+000) (168, -1.49393165111541750000e+000) (169, 1.21330583095550540000e+000) (170, -1.07794439792633060000e+000) (171, -1.04349339008331300000e+000) (172, 1.49565454101562500000e+003) (173, 8.99009108543396000000e-001) (174, 6.98270320892333980000e-001) (175, 2.96943753957748410000e-001) (176, 1.49546643066406250000e+003) (177, 1.49480505371093750000e+003) (178, 1.49502246093750000000e+003) (179, 2.95119643211364750000e-001) (180, 1.49505712890625000000e+003) (181, 1.49557519531250000000e+003) (182, 1.49559570312500000000e+003) (183, 1.49572814941406250000e+003) (184, -3.92180323600769040000e-001) (185, 1.21612951159477230000e-001) (186, -2.87107646465301510000e-001) (187, 3.74985277652740480000e-001) (188, 1.28043249249458310000e-001) (189, -9.79257524013519290000e-002) (190, 2.83222407102584840000e-001) (191, 1.49497790527343750000e+003) (192, 1.49518542480468750000e+003) (193, 1.49564660644531250000e+003) (194, 1.53026506304740910000e-001) (195, 1.49527294921875000000e+003) (196, 1.49543627929687500000e+003) (197, 1.49536865234375000000e+003) (198, 1.49518762207031250000e+003) (199, 1.49474206542968750000e+003) (200, 1.49473498535156250000e+003) (201, 1.49485522460937500000e+003) (202, 1.49526489257812500000e+003) (203, -1.11915922164916990000e+000) (204, -7.33549177646636960000e-001) (205, -8.21125507354736330000e-001) (206, -1.10989618301391600000e+000) (207, -9.37051773071289060000e-001) (208, -1.01857721805572510000e+000) (209, 6.70580685138702390000e-001) (210, 1.49510791015625000000e+003) (211, 1.49510766601562500000e+003) (212, 1.49477404785156250000e+003) (213, 1.49496130371093750000e+003) (214, 1.49564819335937500000e+003) (215, 1.49495141601562500000e+003) (216, 1.49550634765625000000e+003) (217, 1.49537658691406250000e+003) (218, 1.49475097656250000000e+003) (219, 1.49554418945312500000e+003) (220, 1.49500366210937500000e+003) (221, 1.49483251953125000000e+003) (222, 1.49517248535156250000e+003) (223, 1.49548718261718750000e+003) (224, 1.49474011230468750000e+003) (225, 1.50115534663200380000e-001) (0, 1.49541796875000000000e+003) (1, 1.49560205078125000000e+003) (2, 1.49557263183593750000e+003) (3, 1.49569287109375000000e+003) (4, 1.49503344726562500000e+003) (5, 1.49493774414062500000e+003) (6, 1.49554003906250000000e+003) (7, 1.49568835449218750000e+003) (8, 1.49549121093750000000e+003) (9, 1.49488403320312500000e+003) (10, 1.49502551269531250000e+003) (11, 1.49554125976562500000e+003) (12, 1.49478686523437500000e+003) (13, 1.49558068847656250000e+003) (14, 1.49538952636718750000e+003) (15, 1.38500288128852840000e-001) (16, -1.26198723912239070000e-001) (17, -5.98927065730094910000e-002) (18, 1.28920227289199830000e-001) (19, 3.82620215415954590000e-001) (20, 1.52529627084732060000e-001) (21, 5.58505833148956300000e-001) (22, 1.49478186035156250000e+003) (23, 1.49509094238281250000e+003) (24, 1.49501733398437500000e+003) (25, 1.49487255859375000000e+003) (26, 1.49543872070312500000e+003) (27, 1.49572705078125000000e+003) (28, 1.49555004882812500000e+003) (29, 1.49502307128906250000e+003) (30, -1.29684376716613770000e+000) (31, 1.49552392578125000000e+003) (32, 1.49490148925781250000e+003) (33, 4.99550491571426390000e-001) (34, 6.57820940017700200000e-001) (35, -1.51770889759063720000e-001) (36, -1.79296314716339110000e-001) (37, 3.83916497230529790000e-001) (38, 5.93415573239326480000e-002) (39, 6.96829736232757570000e-001) (40, -1.97118490934371950000e-001) (41, 1.49573889160156250000e+003) (42, 1.49533349609375000000e+003) (43, 1.49572460937500000000e+003) (44, 1.49546728515625000000e+003) (45, -9.11077499389648440000e-001) (46, 1.49527600097656250000e+003) (47, 5.07285177707672120000e-001) (48, 1.49572155761718750000e+003) (49, 6.80211901664733890000e-001) (50, 1.49540954589843750000e+003) (51, 6.42402839660644530000e+000) (52, 1.49481188964843750000e+003) (53, 1.42589360475540160000e-001) (54, 3.61435174942016600000e-001) (55, 1.47394299507141110000e+000) (56, 2.28136420249938960000e-001) (57, 3.79087001085281370000e-001) (58, 7.70466923713684080000e-001) (59, 4.44512635469436650000e-001) (60, -1.75992584228515620000e+000) (61, 3.89206737279891970000e-001) (62, 1.49508325195312500000e+003) (63, 1.49544738769531250000e+003) (64, 8.08644652366638180000e-001) (65, 1.49563598632812500000e+003) (66, 1.03992595672607420000e+001) (67, -7.54148066043853760000e-001) (68, 6.34415090084075930000e-001) (69, -1.11524438858032230000e+000) (70, 1.62143647670745850000e+000) (71, 1.49519323730468750000e+003) (72, 1.49524023437500000000e+003) (73, 2.09287598729133610000e-001) (74, 7.75539898313581940000e-004) (75, -2.43122726678848270000e-001) (76, 1.49551013183593750000e+003) (77, 1.49571008300781250000e+003) (78, 1.49541760253906250000e+003) (79, 2.11111247539520260000e-001) (80, 1.49562548828125000000e+003) (81, 2.29235261678695680000e-001) (82, 1.49479760742187500000e+003) (83, 3.04257661104202270000e-001) (84, -1.02598381042480470000e+000) (85, 9.54593837261199950000e-001) (86, 1.49558947753906250000e+003) (87, 1.65249899029731750000e-001) (88, 1.49509655761718750000e+003) (89, -3.42044472694396970000e-001) (90, 5.31695745885372160000e-002) (91, -8.54043722152709960000e-001) (92, -5.12658357620239260000e-001) (93, 3.68142090737819670000e-002) (94, 2.77469784021377560000e-001) (95, -3.40332746505737300000e-001) (96, 2.99899011850357060000e-001) (97, 1.49481848144531250000e+003) (98, 7.34185934066772460000e-001) (99, -1.63502573966979980000e+000) (100, 9.07749176025390630000e-001) (101, -7.67075568437576290000e-002) (102, 1.49549328613281250000e+003) (103, 1.49520690917968750000e+003) (104, -7.48182237148284910000e-002) (105, 2.54032540321350100000e+000) (106, 1.49494104003906250000e+003) (107, 1.49568872070312500000e+003) (108, 1.49503063964843750000e+003) (109, 3.54235827922821040000e-001) (110, 1.68375790119171140000e-001) (111, 7.37594604492187500000e-001) (112, 5.16248226165771480000e-001) (113, 2.51558780670166020000e-001) (114, -8.18551555275917050000e-002) (115, 6.60014390945434570000e-001) (116, 1.49548901367187500000e+003) (117, 1.49552600097656250000e+003) (118, 1.49483264160156250000e+003) (119, -7.72509276866912840000e-002) (120, 2.07552814483642580000e+000) (121, 1.49549865722656250000e+003) (122, 1.49562036132812500000e+003) (123, 1.49569384765625000000e+003) (124, 2.59917044639587400000e+000) (125, 1.49551831054687500000e+003) (126, -2.04555988311767580000e-001) (127, 1.49504931640625000000e+003) (128, 8.13228264451026920000e-002) (129, 3.18289786577224730000e-001) (130, -6.51635587215423580000e-001) (131, -2.42677599191665650000e-001) (132, 1.99345126748085020000e-003) (133, -6.48591041564941410000e-001) (134, 7.20978379249572750000e-001) (135, 2.43472218513488770000e+000) (136, 1.49507849121093750000e+003) (137, 1.49498681640625000000e+003) (138, 1.49537683105468750000e+003) (139, 2.73312306404113770000e+000) (140, 1.49494213867187500000e+003) (141, 2.17325925827026370000e-001) (142, 1.49552868652343750000e+003) (143, 7.07785427570343020000e-001) (144, -1.28206968307495120000e+000) (145, -9.63262096047401430000e-002) (146, 1.49553735351562500000e+003) (147, 1.49574768066406250000e+003) (148, 1.49506176757812500000e+003) (149, 5.75397461652755740000e-002) (150, 2.56299901008605960000e+000) (151, 1.49531372070312500000e+003) (152, 1.49553515625000000000e+003) (153, 1.49544531250000000000e+003) (154, 1.91075468063354490000e+000) (155, 1.49539819335937500000e+003) (156, -3.94928425550460820000e-001) (157, 1.49508776855468750000e+003) (158, 2.05032855272293090000e-001) (159, -1.53659582138061520000e+000) (160, 5.90498983860015870000e-001) (161, 1.49498291015625000000e+003) (162, 1.49570825195312500000e+003) (163, 1.49542138671875000000e+003) (164, 8.39249044656753540000e-002) (165, 1.03314802050590520000e-001) (166, 3.93114984035491940000e-001) (167, 3.88779819011688230000e-001) (168, 5.34584522247314450000e-001) (169, 8.02294731140136720000e-001) (170, -1.07267484068870540000e-001) (171, -3.90824645757675170000e-001) (172, 1.49491247558593750000e+003) (173, -1.20415374636650090000e-001) (174, -8.84140253067016600000e-001) (175, 5.73470175266265870000e-001) (176, 1.49499389648437500000e+003) (177, 1.49531420898437500000e+003) (178, 1.49555017089843750000e+003) (179, 5.76666414737701420000e-001) (180, 1.49521435546875000000e+003) (181, 1.49487744140625000000e+003) (182, 1.49522351074218750000e+003) (183, 1.49528088378906250000e+003) (184, -2.62863099575042720000e-001) (185, -2.02701121568679810000e-001) (186, -9.10788029432296750000e-002) (187, -5.16297876834869380000e-001) (188, 6.35907351970672610000e-001) (189, 4.81476821005344390000e-002) (190, 6.09851598739624020000e-001) (191, 1.49530603027343750000e+003) (192, 1.49518334960937500000e+003) (193, 1.49537841796875000000e+003) (194, -2.11800977587699890000e-001) (195, 1.49566503906250000000e+003) (196, 1.49477478027343750000e+003) (197, 1.49555798339843750000e+003) (198, 1.49564770507812500000e+003) (199, 1.49517773437500000000e+003) (200, 1.49474462890625000000e+003) (201, 1.49511328125000000000e+003) (202, 1.49522753906250000000e+003) (203, 4.48386996984481810000e-001) (204, 4.28956836462020870000e-001) (205, -2.17074185609817500000e-001) (206, 2.10671067237854000000e-001) (207, 5.31690657138824460000e-001) (208, -4.11107167601585390000e-002) (209, 8.26363086700439450000e-001) (210, 1.49499645996093750000e+003) (211, 1.49541162109375000000e+003) (212, 1.49571826171875000000e+003) (213, 1.49557055664062500000e+003) (214, 1.49529577636718750000e+003) (215, 1.49501196289062500000e+003) (216, 1.49517724609375000000e+003) (217, 1.49497509765625000000e+003) (218, 1.49539611816406250000e+003) (219, 1.49515551757812500000e+003) (220, 1.49498730468750000000e+003) (221, 1.49520703125000000000e+003) (222, 1.49557983398437500000e+003) (223, 1.49543286132812500000e+003) (224, 1.49557568359375000000e+003) (225, -7.06801056861877440000e-001) (0, 1.49496447753906250000e+003) (1, 1.49510510253906250000e+003) (2, 1.49552246093750000000e+003) (3, 1.49523339843750000000e+003) (4, 1.49554479980468750000e+003) (5, 1.49490051269531250000e+003) (6, 1.49549731445312500000e+003) (7, 1.49553442382812500000e+003) (8, 1.49494824218750000000e+003) (9, 1.49486145019531250000e+003) (10, 1.49564978027343750000e+003) (11, 1.49497399902343750000e+003) (12, 1.49488867187500000000e+003) (13, 1.49517004394531250000e+003) (14, 1.49530151367187500000e+003) (15, 2.73267209529876710000e-001) (16, 5.71723103523254390000e-001) (17, 1.18559509515762330000e-001) (18, 8.52817445993423460000e-002) (19, -4.02272135019302370000e-001) (20, -5.14781884849071500000e-002) (21, 1.95219904184341430000e-001) (22, 1.49514892578125000000e+003) (23, 1.49478637695312500000e+003) (24, 1.49558654785156250000e+003) (25, 1.49521728515625000000e+003) (26, 1.49541064453125000000e+003) (27, 1.49481127929687500000e+003) (28, 1.49524670410156250000e+003) (29, 1.49564440917968750000e+003) (30, -9.01721835136413570000e-001) (31, 1.49550585937500000000e+003) (32, 1.49479711914062500000e+003) (33, -1.40746816992759700000e-001) (34, 1.05750441551208500000e+000) (35, 1.55118775367736820000e+000) (36, 1.07380962371826170000e+000) (37, 1.70974826812744140000e+000) (38, 1.55870413780212400000e+000) (39, 6.85965776443481450000e-001) (40, 1.00860798358917240000e+000) (41, 1.49474951171875000000e+003) (42, 1.49565673828125000000e+003) (43, 1.49557287597656250000e+003) (44, 1.49540112304687500000e+003) (45, -1.95185631513595580000e-001) (46, 1.49559655761718750000e+003) (47, -7.71541520953178410000e-002) (48, 1.49548437500000000000e+003) (49, 8.31667244434356690000e-001) (50, 1.49574938964843750000e+003) (51, 7.91576057672500610000e-002) (52, 1.49478930664062500000e+003) (53, 4.51766729354858400000e-001) (54, 9.47158336639404300000e-001) (55, 8.60649943351745610000e-001) (56, 1.01011323928833010000e+000) (57, 6.08659565448760990000e-001) (58, 1.18495404720306400000e+000) (59, 8.50961744785308840000e-001) (60, -4.17338788509368900000e-001) (61, -2.29227527976036070000e-001) (62, 1.49502978515625000000e+003) (63, 1.49560961914062500000e+003) (64, 2.06064462661743160000e-001) (65, 1.49478479003906250000e+003) (66, 3.72089147567749020000e-001) (67, -1.28610596060752870000e-001) (68, 1.12193331122398380000e-001) (69, -7.08502456545829770000e-002) (70, 5.76355397701263430000e-001) (71, 1.49488439941406250000e+003) (72, 1.49575109863281250000e+003) (73, 2.28944227099418640000e-001) (74, 7.25140750408172610000e-001) (75, 4.73449915647506710000e-001) (76, 1.49539868164062500000e+003) (77, 1.49510192871093750000e+003) (78, 1.49562280273437500000e+003) (79, 2.74553596973419190000e-001) (80, 1.49544250488281250000e+003) (81, 2.88435965776443480000e-001) (82, 1.49574609375000000000e+003) (83, 3.00756692886352540000e-001) (84, -1.63790836930274960000e-001) (85, 4.02297377586364750000e-001) (86, 1.49574096679687500000e+003) (87, 6.07155039906501770000e-002) (88, 1.49531884765625000000e+003) (89, 7.65092790126800540000e-001) (90, 2.01004400849342350000e-001) (91, -1.07319879531860350000e+000) (92, -9.71899569034576420000e-001) (93, -8.45400691032409670000e-001) (94, 9.74561035633087160000e-001) (95, -7.71838605403900150000e-001) (96, 3.23389768600463870000e-002) (97, 1.49511279296875000000e+003) (98, -1.72367200255393980000e-001) (99, 1.41572177410125730000e-001) (100, 4.45586502552032470000e-001) (101, 6.07131719589233400000e-001) (102, 1.49506945800781250000e+003) (103, 1.49483959960937500000e+003) (104, 5.61022102832794190000e-001) (105, 9.14258301258087160000e-001) (106, 1.49494726562500000000e+003) (107, 1.49492224121093750000e+003) (108, 1.49562951660156250000e+003) (109, 1.29135310649871830000e+000) (110, 5.25065839290618900000e-001) (111, 4.86336410045623780000e-001) (112, 7.91318893432617190000e-001) (113, -1.09654396772384640000e-001) (114, -4.43347781896591190000e-001) (115, 7.84326076507568360000e-001) (116, 1.49529138183593750000e+003) (117, 1.49499719238281250000e+003) (118, 1.49511425781250000000e+003) (119, 3.12951505184173580000e-001) (120, 2.39596441388130190000e-001) (121, 1.49570568847656250000e+003) (122, 1.49512707519531250000e+003) (123, 1.49510278320312500000e+003) (124, 9.47103798389434810000e-001) (125, 1.49523974609375000000e+003) (126, -1.79525598883628850000e-001) (127, 1.49495837402343750000e+003) (128, 3.26753139495849610000e-001) (129, -2.59081274271011350000e-001) (130, 1.22165048122406010000e+000) (131, 5.30557155609130860000e-001) (132, 8.26331302523612980000e-002) (133, -1.68025836348533630000e-001) (134, 1.05499517917633060000e+000) (135, 6.11421346664428710000e-001) (136, 1.49514135742187500000e+003) (137, 1.49529675292968750000e+003) (138, 1.49519555664062500000e+003) (139, 1.05663621425628660000e+000) (140, 1.49482910156250000000e+003) (141, -4.15713310241699220000e-001) (142, 1.49550463867187500000e+003) (143, 4.51200634241104130000e-001) (144, -4.05561298131942750000e-001) (145, 5.98768055438995360000e-001) (146, 1.49519921875000000000e+003) (147, 1.49566333007812500000e+003) (148, 1.49521105957031250000e+003) (149, 1.46299023181200030000e-002) (150, 2.43339017033576970000e-001) (151, 1.49559497070312500000e+003) (152, 1.49549316406250000000e+003) (153, 1.49571777343750000000e+003) (154, 7.79124557971954350000e-001) (155, 1.49478735351562500000e+003) (156, -2.68893642351031300000e-003) (157, 1.49478588867187500000e+003) (158, 4.71597641706466670000e-001) (159, -1.45658431574702260000e-003) (160, 9.97321188449859620000e-001) (161, 1.49496997070312500000e+003) (162, 1.49496118164062500000e+003) (163, 1.49542578125000000000e+003) (164, 2.35909685492515560000e-001) (165, 3.06623816490173340000e-001) (166, 7.01652765274047850000e-001) (167, 4.82961624860763550000e-001) (168, 3.73210519552230830000e-001) (169, 3.91912966966629030000e-001) (170, 7.97926485538482670000e-002) (171, 3.46247434616088870000e-001) (172, 1.49483117675781250000e+003) (173, 6.59069478511810300000e-001) (174, -1.59798756241798400000e-001) (175, 7.37680077552795410000e-001) (176, 1.49498754882812500000e+003) (177, 1.49535900878906250000e+003) (178, 1.49480578613281250000e+003) (179, 2.22405210137367250000e-001) (180, 1.49479980468750000000e+003) (181, 1.49554370117187500000e+003) (182, 1.49565258789062500000e+003) (183, 1.49484204101562500000e+003) (184, 9.99532163143157960000e-001) (185, 1.08189988136291500000e+000) (186, 1.40114152431488040000e+000) (187, 1.02741432189941410000e+000) (188, 1.12116265296936040000e+000) (189, 1.02242350578308110000e+000) (190, 3.10557425022125240000e-001) (191, 1.49513562011718750000e+003) (192, 1.49573522949218750000e+003) (193, 1.49503454589843750000e+003) (194, -1.52725592255592350000e-001) (195, 1.49563647460937500000e+003) (196, 1.49554125976562500000e+003) (197, 1.49496667480468750000e+003) (198, 1.49535559082031250000e+003) (199, 1.49511877441406250000e+003) (200, 1.49561999511718750000e+003) (201, 1.49568945312500000000e+003) (202, 1.49558886718750000000e+003) (203, 4.12267893552780150000e-001) (204, 9.89529192447662350000e-001) (205, 7.87741839885711670000e-001) (206, 5.37238717079162600000e-001) (207, 3.18984240293502810000e-001) (208, 6.98793292045593260000e-001) (209, 1.07233572006225590000e+000) (210, 1.49508178710937500000e+003) (211, 1.49559704589843750000e+003) (212, 1.49478125000000000000e+003) (213, 1.49567297363281250000e+003) (214, 1.49525122070312500000e+003) (215, 1.49546484375000000000e+003) (216, 1.49567260742187500000e+003) (217, 1.49482238769531250000e+003) (218, 1.49569519042968750000e+003) (219, 1.49547570800781250000e+003) (220, 1.49531066894531250000e+003) (221, 1.49499829101562500000e+003) (222, 1.49541687011718750000e+003) (223, 1.49482995605468750000e+003) (224, 1.49571179199218750000e+003) (225, -5.18292844295501710000e-001) (0, 1.49494519042968750000e+003) (1, 1.49563195800781250000e+003) (2, 1.49532995605468750000e+003) (3, 1.49552368164062500000e+003) (4, 1.49514489746093750000e+003) (5, 1.49483544921875000000e+003) (6, 1.49495324707031250000e+003) (7, 1.49561315917968750000e+003) (8, 1.49535729980468750000e+003) (9, 1.49556787109375000000e+003) (10, 1.49553906250000000000e+003) (11, 1.49548876953125000000e+003) (12, 1.49563220214843750000e+003) (13, 1.49494409179687500000e+003) (14, 1.49504467773437500000e+003) (15, -3.80614213645458220000e-002) (16, 4.41728621721267700000e-001) (17, 3.08773607015609740000e-001) (18, 2.98575073480606080000e-001) (19, 1.37165534496307370000e+000) (20, 2.68759191036224370000e-001) (21, 6.07212841510772710000e-001) (22, 1.49551196289062500000e+003) (23, 1.49564819335937500000e+003) (24, 1.49571630859375000000e+003) (25, 1.49572534179687500000e+003) (26, 1.49574597167968750000e+003) (27, 1.49501025390625000000e+003) (28, 1.49521191406250000000e+003) (29, 1.49481799316406250000e+003) (30, 2.63378098607063290000e-002) (31, 1.49477832031250000000e+003) (32, 1.49566381835937500000e+003) (33, 2.24446487426757810000e+000) (34, 1.00634276866912840000e-001) (35, 8.53634536266326900000e-001) (36, 2.77857989072799680000e-001) (37, 9.38185513019561770000e-001) (38, 4.99431103467941280000e-001) (39, 4.15991395711898800000e-001) (40, 3.07717621326446530000e-001) (41, 1.49534497070312500000e+003) (42, 1.49496191406250000000e+003) (43, 1.49560888671875000000e+003) (44, 1.49571472167968750000e+003) (45, 4.29787546396255490000e-001) (46, 1.49556518554687500000e+003) (47, 1.70007562637329100000e+000) (48, 1.49548376464843750000e+003) (49, 3.74610334634780880000e-001) (50, 1.49488989257812500000e+003) (51, 9.09436643123626710000e-001) (52, 1.49492407226562500000e+003) (53, 6.27168193459510800000e-002) (54, -3.04733328521251680000e-002) (55, 1.07756014913320540000e-002) (56, -4.49498742818832400000e-001) (57, -4.06365483999252320000e-001) (58, 1.19216881692409520000e-001) (59, -3.23125123977661130000e-001) (60, 3.33790451288223270000e-001) (61, 2.29502081871032710000e+000) (62, 1.49552758789062500000e+003) (63, 1.49543994140625000000e+003) (64, 5.39657711982727050000e-001) (65, 1.49564184570312500000e+003) (66, 7.39911496639251710000e-001) (67, 7.45980143547058110000e-001) (68, 2.23567470908164980000e-001) (69, 7.91265368461608890000e-001) (70, 2.86838531494140630000e-001) (71, 1.49519177246093750000e+003) (72, 1.49550659179687500000e+003) (73, 1.13017487525939940000e+000) (74, 6.36190295219421390000e-001) (75, 2.08070826530456540000e+000) (76, 1.49502026367187500000e+003) (77, 1.49476416015625000000e+003) (78, 1.49514855957031250000e+003) (79, 4.26101952791213990000e-001) (80, 1.49499340820312500000e+003) (81, 1.15804028511047360000e+000) (82, 1.49560229492187500000e+003) (83, 1.57604485750198360000e-001) (84, 7.76887655258178710000e-001) (85, 9.70184624195098880000e-001) (86, 1.49484741210937500000e+003) (87, 9.83902215957641600000e-001) (88, 1.49509472656250000000e+003) (89, 5.52574753761291500000e-001) (90, -1.10837090760469440000e-002) (91, -1.98525637388229370000e-001) (92, -4.50338602066040040000e-001) (93, -5.18890142440795900000e-001) (94, 5.32704055309295650000e-001) (95, -2.25289240479469300000e-002) (96, 3.93021076917648320000e-001) (97, 1.49562072753906250000e+003) (98, -4.76091122254729270000e-003) (99, 4.93949085474014280000e-001) (100, 7.60163605213165280000e-001) (101, 4.07451629638671880000e-001) (102, 1.49502819824218750000e+003) (103, 1.49558972167968750000e+003) (104, -2.81002447009086610000e-002) (105, 9.84525740146636960000e-001) (106, 1.49562036132812500000e+003) (107, 1.49538281250000000000e+003) (108, 1.49564782714843750000e+003) (109, 7.01504886150360110000e-001) (110, 2.38622399047017100000e-003) (111, -9.86723005771636960000e-002) (112, 1.62287741899490360000e-001) (113, 4.07894253730773930000e-001) (114, -8.03110674023628230000e-002) (115, 1.69290542602539060000e+000) (116, 1.49555603027343750000e+003) (117, 1.49537500000000000000e+003) (118, 1.49480920410156250000e+003) (119, -4.76741462945938110000e-001) (120, 8.88154327869415280000e-001) (121, 1.49543640136718750000e+003) (122, 1.49489160156250000000e+003) (123, 1.49486389160156250000e+003) (124, 2.28296089172363280000e+000) (125, 1.49482653808593750000e+003) (126, -1.06055542826652530000e-001) (127, 1.49573730468750000000e+003) (128, 1.05057500302791600000e-001) (129, 2.49436736106872560000e-001) (130, 1.86584442853927610000e-001) (131, -1.13056266307830810000e+000) (132, -1.10302340984344480000e+000) (133, -7.81536161899566650000e-001) (134, -6.07326686382293700000e-001) (135, 1.67271673679351810000e-001) (136, 1.49480175781250000000e+003) (137, 1.49505419921875000000e+003) (138, 1.49474279785156250000e+003) (139, 2.32375502586364750000e+000) (140, 1.49487402343750000000e+003) (141, 1.02343574166297910000e-001) (142, 1.49505371093750000000e+003) (143, -8.98428976535797120000e-001) (144, 1.16477477550506590000e+000) (145, 5.97624301910400390000e-001) (146, 1.49544750976562500000e+003) (147, 1.49533496093750000000e+003) (148, 1.49538745117187500000e+003) (149, 4.50986176729202270000e-001) (150, 1.31592571735382080000e-001) (151, 1.49525439453125000000e+003) (152, 1.49491894531250000000e+003) (153, 1.49543017578125000000e+003) (154, 1.36132001876831050000e+000) (155, 1.49527148437500000000e+003) (156, -6.45797550678253170000e-001) (157, 1.49506982421875000000e+003) (158, -2.61629611253738400000e-001) (159, 3.79176765680313110000e-001) (160, 7.70001053810119630000e-001) (161, 1.49535803222656250000e+003) (162, 1.49481164550781250000e+003) (163, 1.49530273437500000000e+003) (164, -1.27023681998252870000e-001) (165, 8.96919429302215580000e-001) (166, 7.91940152645111080000e-001) (167, 3.18566709756851200000e-001) (168, 3.72553378343582150000e-001) (169, 1.90954506397247310000e+000) (170, 5.20572245121002200000e-001) (171, 3.22379857301712040000e-001) (172, 1.49537304687500000000e+003) (173, -3.55755388736724850000e-001) (174, 5.51303923130035400000e-001) (175, 2.19717562198638920000e-001) (176, 1.49565014648437500000e+003) (177, 1.49575048828125000000e+003) (178, 1.49535705566406250000e+003) (179, 3.86426657438278200000e-001) (180, 1.49522497558593750000e+003) (181, 1.49519592285156250000e+003) (182, 1.49544702148437500000e+003) (183, 1.49562634277343750000e+003) (184, 1.09113287925720210000e+000) (185, 7.29692876338958740000e-001) (186, 2.20047771930694580000e-001) (187, 3.14485430717468260000e-001) (188, 7.81894862651824950000e-001) (189, 1.17178000509738920000e-001) (190, 7.45285034179687500000e-001) (191, 1.49535510253906250000e+003) (192, 1.49566516113281250000e+003) (193, 1.49501708984375000000e+003) (194, -8.27052816748619080000e-002) (195, 1.49509033203125000000e+003) (196, 1.49526025390625000000e+003) (197, 1.49532922363281250000e+003) (198, 1.49500854492187500000e+003) (199, 1.49502148437500000000e+003) (200, 1.49505712890625000000e+003) (201, 1.49538159179687500000e+003) (202, 1.49574963378906250000e+003) (203, 2.56382316350936890000e-001) (204, -2.33988687396049500000e-001) (205, -1.85647144913673400000e-001) (206, -2.04547062516212460000e-001) (207, 1.48065939545631410000e-001) (208, -2.43158012628555300000e-001) (209, -3.06423604488372800000e-001) (210, 1.49548852539062500000e+003) (211, 1.49559277343750000000e+003) (212, 1.49490795898437500000e+003) (213, 1.49490893554687500000e+003) (214, 1.49473620605468750000e+003) (215, 1.49482470703125000000e+003) (216, 1.49508715820312500000e+003) (217, 1.49551025390625000000e+003) (218, 1.49500305175781250000e+003) (219, 1.49485656738281250000e+003) (220, 1.49486853027343750000e+003) (221, 1.49554736328125000000e+003) (222, 1.49562365722656250000e+003) (223, 1.49519116210937500000e+003) (224, 1.49555590820312500000e+003) (225, -1.50037825107574460000e-001) (0, 1.49525573730468750000e+003) (1, 1.49520019531250000000e+003) (2, 1.49511914062500000000e+003) (3, 1.49558520507812500000e+003) (4, 1.49558825683593750000e+003) (5, 1.49487622070312500000e+003) (6, 1.49526147460937500000e+003) (7, 1.49509448242187500000e+003) (8, 1.49571240234375000000e+003) (9, 1.49498876953125000000e+003) (10, 1.49494824218750000000e+003) (11, 1.49561230468750000000e+003) (12, 1.49545080566406250000e+003) (13, 1.49488671875000000000e+003) (14, 1.49508312988281250000e+003) (15, -3.65570783615112300000e-002) (16, -1.69720780849456790000e+000) (17, -1.59665739536285400000e+000) (18, -8.89122784137725830000e-001) (19, -6.74175858497619630000e-001) (20, -1.11127626895904540000e+000) (21, -1.17748868465423580000e+000) (22, 1.49524841308593750000e+003) (23, 1.49503417968750000000e+003) (24, 1.49546545410156250000e+003) (25, 1.49510437011718750000e+003) (26, 1.49504772949218750000e+003) (27, 1.49519531250000000000e+003) (28, 1.49543615722656250000e+003) (29, 1.49541308593750000000e+003) (30, -2.55632251501083370000e-001) (31, 1.49563183593750000000e+003) (32, 1.49485168457031250000e+003) (33, -3.25717031955718990000e-002) (34, 5.80856561660766600000e-001) (35, -5.05647778511047360000e-001) (36, -1.32104003429412840000e+000) (37, -9.78004932403564450000e-002) (38, -1.61549106240272520000e-001) (39, -2.03175401687622070000e+000) (40, -5.84709644317626950000e-001) (41, 1.49486645507812500000e+003) (42, 1.49569982910156250000e+003) (43, 1.49515722656250000000e+003) (44, 1.49481860351562500000e+003) (45, 5.39322197437286380000e-001) (46, 1.49519934082031250000e+003) (47, -6.24647200107574460000e-001) (48, 1.49525659179687500000e+003) (49, 9.00585055351257320000e-001) (50, 1.49562792968750000000e+003) (51, -6.45614504814147950000e-001) (52, 1.49543725585937500000e+003) (53, -5.63954770565032960000e-001) (54, -6.17890834808349610000e-001) (55, 9.53212752938270570000e-002) (56, -5.06863176822662350000e-001) (57, -2.78784275054931640000e-001) (58, -7.65917375683784480000e-002) (59, 1.82966724038124080000e-001) (60, -2.47429803013801570000e-001) (61, 4.81431856751441960000e-002) (62, 1.49522827148437500000e+003) (63, 1.49540234375000000000e+003) (64, 5.70396065711975100000e-001) (65, 1.49558984375000000000e+003) (66, 2.75254137814044950000e-002) (67, 1.09945110976696010000e-001) (68, 1.72612869739532470000e+000) (69, 4.87820535898208620000e-001) (70, 3.22860538959503170000e-001) (71, 1.49556567382812500000e+003) (72, 1.49510205078125000000e+003) (73, -2.74222522974014280000e-001) (74, -1.44499212503433230000e-001) (75, 5.16138732433319090000e-001) (76, 1.49534973144531250000e+003) (77, 1.49531103515625000000e+003) (78, 1.49539477539062500000e+003) (79, 9.32365655899047850000e-001) (80, 1.49490380859375000000e+003) (81, -7.06815868616104130000e-002) (82, 1.49573742675781250000e+003) (83, 1.43296015262603760000e+000) (84, 4.90066081285476680000e-001) (85, 7.80758082866668700000e-001) (86, 1.49494311523437500000e+003) (87, 4.25483316183090210000e-001) (88, 1.49568652343750000000e+003) (89, -1.95772528648376460000e-001) (90, -3.04899811744689940000e-001) (91, 5.37826895713806150000e-001) (92, 2.78871893882751460000e-001) (93, 4.39740180969238280000e-001) (94, 5.70510804653167720000e-001) (95, 1.43106728792190550000e-001) (96, 3.15245062112808230000e-001) (97, 1.49523144531250000000e+003) (98, 1.65960419178009030000e+000) (99, -6.96362033486366270000e-002) (100, 5.86611926555633540000e-001) (101, -2.74659126996994020000e-001) (102, 1.49497534179687500000e+003) (103, 1.49502722167968750000e+003) (104, -3.80371481180191040000e-001) (105, -1.50180816650390630000e+000) (106, 1.49474353027343750000e+003) (107, 1.49553125000000000000e+003) (108, 1.49572021484375000000e+003) (109, 2.72998332977294920000e-001) (110, 7.04924941062927250000e-001) (111, 1.12614202499389650000e+000) (112, -6.35156081989407540000e-003) (113, 4.86202120780944820000e-001) (114, -2.34834864735603330000e-001) (115, -2.36406192183494570000e-001) (116, 1.49520812988281250000e+003) (117, 1.49520227050781250000e+003) (118, 1.49553710937500000000e+003) (119, -1.25221475958824160000e-001) (120, -1.71619558334350590000e+000) (121, 1.49492565917968750000e+003) (122, 1.49534643554687500000e+003) (123, 1.49569873046875000000e+003) (124, -6.29743814468383790000e-001) (125, 1.49564111328125000000e+003) (126, -2.57235258817672730000e-001) (127, 1.49542602539062500000e+003) (128, -1.63866832852363590000e-001) (129, -9.28730815649032590000e-002) (130, 1.51444301009178160000e-001) (131, 7.18527436256408690000e-002) (132, -1.85480326414108280000e-001) (133, -1.68264359235763550000e-001) (134, -3.67326468229293820000e-001) (135, -8.96727085113525390000e-001) (136, 1.49555773925781250000e+003) (137, 1.49562231445312500000e+003) (138, 1.49541357421875000000e+003) (139, -6.03389739990234380000e-001) (140, 1.49514868164062500000e+003) (141, 4.34268087148666380000e-001) (142, 1.49514196777343750000e+003) (143, -2.51280993223190310000e-001) (144, -1.52222350239753720000e-001) (145, 5.36403954029083250000e-001) (146, 1.49529150390625000000e+003) (147, 1.49535888671875000000e+003) (148, 1.49485974121093750000e+003) (149, 4.07436609268188480000e-001) (150, -1.56621193885803220000e+000) (151, 1.49569042968750000000e+003) (152, 1.49481250000000000000e+003) (153, 1.49522485351562500000e+003) (154, -5.50369977951049800000e-001) (155, 1.49556896972656250000e+003) (156, -1.96886181831359860000e-001) (157, 1.49570776367187500000e+003) (158, -1.60991370677948000000e-001) (159, 2.88278847932815550000e-001) (160, -1.92088350653648380000e-001) (161, 1.49518139648437500000e+003) (162, 1.49543896484375000000e+003) (163, 1.49481030273437500000e+003) (164, 1.31858363747596740000e-001) (165, -1.43454134464263920000e+000) (166, -7.62405455112457280000e-001) (167, -1.26285064220428470000e+000) (168, -1.03458464145660400000e+000) (169, -1.18281853199005130000e+000) (170, -9.67997491359710690000e-001) (171, 1.68785586953163150000e-001) (172, 1.49544091796875000000e+003) (173, 6.52162060141563420000e-002) (174, 5.74274122714996340000e-001) (175, -1.36978968977928160000e-001) (176, 1.49567456054687500000e+003) (177, 1.49558752441406250000e+003) (178, 1.49553320312500000000e+003) (179, 3.16242516040802000000e-001) (180, 1.49488928222656250000e+003) (181, 1.49556640625000000000e+003) (182, 1.49510424804687500000e+003) (183, 1.49572729492187500000e+003) (184, -6.45931959152221680000e-001) (185, -4.07748222351074220000e-001) (186, -5.14567494392395020000e-001) (187, -4.12894248962402340000e-001) (188, 2.90937334299087520000e-001) (189, -2.00206303596496580000e+000) (190, 4.18696403503417970000e-001) (191, 1.49543212890625000000e+003) (192, 1.49489270019531250000e+003) (193, 1.49529882812500000000e+003) (194, -3.75136137008666990000e-001) (195, 1.49502978515625000000e+003) (196, 1.49528198242187500000e+003) (197, 1.49567651367187500000e+003) (198, 1.49497290039062500000e+003) (199, 1.49559582519531250000e+003) (200, 1.49475817871093750000e+003) (201, 1.49476440429687500000e+003) (202, 1.49488623046875000000e+003) (203, -5.19369721412658690000e-001) (204, -9.49516475200653080000e-001) (205, -4.78294789791107180000e-001) (206, -3.70758056640625000000e-001) (207, -9.14117991924285890000e-001) (208, -9.19825375080108640000e-001) (209, -3.99356693029403690000e-001) (210, 1.49539160156250000000e+003) (211, 1.49545117187500000000e+003) (212, 1.49509863281250000000e+003) (213, 1.49554760742187500000e+003) (214, 1.49481860351562500000e+003) (215, 1.49519873046875000000e+003) (216, 1.49473754882812500000e+003) (217, 1.49553247070312500000e+003) (218, 1.49516687011718750000e+003) (219, 1.49506799316406250000e+003) (220, 1.49509606933593750000e+003) (221, 1.49562915039062500000e+003) (222, 1.49529748535156250000e+003) (223, 1.49488525390625000000e+003) (224, 1.49571398925781250000e+003) (225, -6.14570438861846920000e-001) (0, 1.49537121582031250000e+003) (1, 1.49563159179687500000e+003) (2, 1.49487792968750000000e+003) (3, 1.49525500488281250000e+003) (4, 1.49546899414062500000e+003) (5, 1.49502258300781250000e+003) (6, 1.49483483886718750000e+003) (7, 1.49513671875000000000e+003) (8, 1.49574743652343750000e+003) (9, 1.49483520507812500000e+003) (10, 1.49526831054687500000e+003) (11, 1.49491088867187500000e+003) (12, 1.49522216796875000000e+003) (13, 1.49497436523437500000e+003) (14, 1.49487512207031250000e+003) (15, 4.49944794178009030000e-001) (16, 1.65651690959930420000e+000) (17, 1.44671428203582760000e+000) (18, 1.50481784343719480000e+000) (19, 1.79779827594757080000e-002) (20, 2.32494091987609860000e+000) (21, 1.46053063869476320000e+000) (22, 1.49522045898437500000e+003) (23, 1.49526989746093750000e+003) (24, 1.49515869140625000000e+003) (25, 1.49532409667968750000e+003) (26, 1.49499023437500000000e+003) (27, 1.49499731445312500000e+003) (28, 1.49488354492187500000e+003) (29, 1.49502343750000000000e+003) (30, -6.65374696254730220000e-002) (31, 1.49513305664062500000e+003) (32, 1.49540185546875000000e+003) (33, 1.18905651569366460000e+000) (34, 3.97591680288314820000e-001) (35, 1.66322290897369380000e-001) (36, 1.10642063617706300000e+000) (37, 9.38228666782379150000e-001) (38, 4.08841341733932500000e-001) (39, -2.21084862947463990000e-001) (40, 8.90729188919067380000e-001) (41, 1.49485253906250000000e+003) (42, 1.49499755859375000000e+003) (43, 1.49537353515625000000e+003) (44, 1.49483508300781250000e+003) (45, 1.41081959009170530000e-001) (46, 1.49482849121093750000e+003) (47, 6.12699747085571290000e-001) (48, 1.49564831542968750000e+003) (49, 7.81853258609771730000e-001) (50, 1.49491137695312500000e+003) (51, 1.27185368537902830000e+000) (52, 1.49479577636718750000e+003) (53, -4.42884713411331180000e-001) (54, 7.41096884012222290000e-002) (55, 3.77974987030029300000e-001) (56, 1.03207623958587650000e+000) (57, 8.75637114048004150000e-001) (58, 1.03594362735748290000e+000) (59, 6.25433027744293210000e-001) (60, -7.46151506900787350000e-002) (61, 1.23016262054443360000e+000) (62, 1.49485156250000000000e+003) (63, 1.49510583496093750000e+003) (64, 1.21226251125335690000e-001) (65, 1.49527673339843750000e+003) (66, 1.02094292640686040000e+000) (67, 7.76908159255981450000e-001) (68, 5.85796773433685300000e-001) (69, 9.32973623275756840000e-001) (70, 2.15378195047378540000e-001) (71, 1.49479370117187500000e+003) (72, 1.49475744628906250000e+003) (73, 5.45848131179809570000e-001) (74, -1.99212640523910520000e-001) (75, 1.95413604378700260000e-001) (76, 1.49481335449218750000e+003) (77, 1.49559472656250000000e+003) (78, 1.49499230957031250000e+003) (79, 1.71826556324958800000e-002) (80, 1.49505517578125000000e+003) (81, 1.00468111038208010000e+000) (82, 1.49478881835937500000e+003) (83, -1.92752689123153690000e-001) (84, 7.53735423088073730000e-001) (85, 8.19474279880523680000e-001) (86, 1.49488183593750000000e+003) (87, 1.55123278498649600000e-001) (88, 1.49572644042968750000e+003) (89, 3.71280729770660400000e-001) (90, 3.25441658496856690000e-001) (91, 5.71596503257751460000e-001) (92, -4.12503182888031010000e-002) (93, 4.39421176910400390000e-001) (94, 5.64880192279815670000e-001) (95, 1.54728877544403080000e+000) (96, 5.29848575592041020000e-001) (97, 1.49489941406250000000e+003) (98, 8.38237106800079350000e-002) (99, 5.28899967670440670000e-001) (100, 1.07730674743652340000e+000) (101, -1.73755690455436710000e-001) (102, 1.49492602539062500000e+003) (103, 1.49537255859375000000e+003) (104, 5.46104371547698970000e-001) (105, 1.04258847236633300000e+000) (106, 1.49557849121093750000e+003) (107, 1.49557250976562500000e+003) (108, 1.49547167968750000000e+003) (109, 1.31775274872779850000e-001) (110, 8.53559911251068120000e-001) (111, 1.03958606719970700000e+000) (112, 3.71859252452850340000e-001) (113, -3.47609192132949830000e-001) (114, 4.14691835641860960000e-001) (115, -2.30510234832763670000e-001) (116, 1.49551501464843750000e+003) (117, 1.49538037109375000000e+003) (118, 1.49485314941406250000e+003) (119, 1.89686551690101620000e-001) (120, 1.40458905696868900000e+000) (121, 1.49501586914062500000e+003) (122, 1.49486437988281250000e+003) (123, 1.49550878906250000000e+003) (124, 1.37473806738853450000e-001) (125, 1.49515490722656250000e+003) (126, 4.57018375396728520000e-001) (127, 1.49508422851562500000e+003) (128, -3.12138736248016360000e-001) (129, -1.36505767703056340000e-001) (130, 1.76821842789649960000e-001) (131, 1.14237345755100250000e-001) (132, 6.57971322536468510000e-001) (133, -3.20930719375610350000e-001) (134, 4.29024130105972290000e-001) (135, 1.59293425083160400000e+000) (136, 1.49540502929687500000e+003) (137, 1.49565502929687500000e+003) (138, 1.49477197265625000000e+003) (139, 9.74594473838806150000e-001) (140, 1.49485693359375000000e+003) (141, -7.77645558118820190000e-002) (142, 1.49504602050781250000e+003) (143, 5.65615534782409670000e-001) (144, 4.42009866237640380000e-001) (145, 2.50400573015213010000e-001) (146, 1.49515478515625000000e+003) (147, 1.49521215820312500000e+003) (148, 1.49557421875000000000e+003) (149, -1.05351015925407410000e-001) (150, 1.30132520198822020000e+000) (151, 1.49539416503906250000e+003) (152, 1.49476843261718750000e+003) (153, 1.49507812500000000000e+003) (154, 4.78547155857086180000e-001) (155, 1.49506420898437500000e+003) (156, 6.29395246505737300000e-001) (157, 1.49494946289062500000e+003) (158, -2.56878197193145750000e-001) (159, 4.46419641375541690000e-002) (160, 5.36426961421966550000e-001) (161, 1.49536889648437500000e+003) (162, 1.49475927734375000000e+003) (163, 1.49483459472656250000e+003) (164, 2.24931314587593080000e-001) (165, 1.95311605930328370000e+000) (166, 1.52228319644927980000e+000) (167, 1.62093126773834230000e+000) (168, 2.25330185890197750000e+000) (169, 5.99669516086578370000e-001) (170, 1.77203774452209470000e+000) (171, 2.46223658323287960000e-001) (172, 1.49488098144531250000e+003) (173, 4.78787600994110110000e-001) (174, 8.58839392662048340000e-001) (175, 2.34463423490524290000e-001) (176, 1.49558593750000000000e+003) (177, 1.49481542968750000000e+003) (178, 1.49508691406250000000e+003) (179, 2.83627331256866460000e-001) (180, 1.49508618164062500000e+003) (181, 1.49564257812500000000e+003) (182, 1.49525537109375000000e+003) (183, 1.49516918945312500000e+003) (184, 3.81115108728408810000e-001) (185, 2.90076851844787600000e-001) (186, 5.88297843933105470000e-001) (187, 5.80032944679260250000e-001) (188, 2.67870843410491940000e-001) (189, 2.31330186128616330000e-001) (190, 1.11169135570526120000e+000) (191, 1.49524645996093750000e+003) (192, 1.49521276855468750000e+003) (193, 1.49570922851562500000e+003) (194, -2.33970910310745240000e-001) (195, 1.49521325683593750000e+003) (196, 1.49525146484375000000e+003) (197, 1.49552258300781250000e+003) (198, 1.49529406738281250000e+003) (199, 1.49564208984375000000e+003) (200, 1.49493762207031250000e+003) (201, 1.49549670410156250000e+003) (202, 1.49548999023437500000e+003) (203, 1.72375619411468510000e-001) (204, 4.82853502035140990000e-001) (205, 6.23169183731079100000e-001) (206, 8.84681642055511470000e-001) (207, 1.56033068895339970000e-001) (208, 4.63298588991165160000e-001) (209, 1.85382559895515440000e-001) (210, 1.49572644042968750000e+003) (211, 1.49574707031250000000e+003) (212, 1.49529968261718750000e+003) (213, 1.49509985351562500000e+003) (214, 1.49564868164062500000e+003) (215, 1.49541076660156250000e+003) (216, 1.49476977539062500000e+003) (217, 1.49571887207031250000e+003) (218, 1.49506799316406250000e+003) (219, 1.49516149902343750000e+003) (220, 1.49495495605468750000e+003) (221, 1.49500097656250000000e+003) (222, 1.49508471679687500000e+003) (223, 1.49508984375000000000e+003) (224, 1.49511718750000000000e+003) (225, 8.33003669977188110000e-002) (0, 1.49547778320312500000e+003) (1, 1.49568164062500000000e+003) (2, 1.49484082031250000000e+003) (3, 1.49544787597656250000e+003) (4, 1.49542993164062500000e+003) (5, 1.49525976562500000000e+003) (6, 1.49570507812500000000e+003) (7, 1.49524340820312500000e+003) (8, 1.49554809570312500000e+003) (9, 1.49478039550781250000e+003) (10, 1.49519689941406250000e+003) (11, 1.49526293945312500000e+003) (12, 1.49546276855468750000e+003) (13, 1.49545385742187500000e+003) (14, 1.49499938964843750000e+003) (15, 1.09093654155731200000e+000) (16, 4.02597934007644650000e-001) (17, 9.25185918807983400000e-001) (18, 5.11943161487579350000e-001) (19, 7.79876768589019780000e-001) (20, 1.51938796043396000000e-001) (21, 6.98828175663948060000e-002) (22, 1.49550366210937500000e+003) (23, 1.49507250976562500000e+003) (24, 1.49574365234375000000e+003) (25, 1.49489770507812500000e+003) (26, 1.49551867675781250000e+003) (27, 1.49515832519531250000e+003) (28, 1.49476708984375000000e+003) (29, 1.49482812500000000000e+003) (30, 8.09630632400512700000e-001) (31, 1.49551049804687500000e+003) (32, 1.49563476562500000000e+003) (33, -2.15752387046813960000e+000) (34, -1.40152192115783690000e+000) (35, 1.55544042587280270000e-001) (36, -4.66834127902984620000e-001) (37, -2.75927111506462100000e-002) (38, -2.58322477340698240000e-001) (39, -3.55744242668151860000e+000) (40, -1.27114057540893550000e-001) (41, 1.49510693359375000000e+003) (42, 1.49512817382812500000e+003) (43, 1.49492370605468750000e+003) (44, 1.49564196777343750000e+003) (45, 8.02363753318786620000e-001) (46, 1.49543090820312500000e+003) (47, -1.63506007194519040000e+000) (48, 1.49478918457031250000e+003) (49, -6.48848593235015870000e-001) (50, 1.49557666015625000000e+003) (51, 4.92749214172363280000e-001) (52, 1.49543298339843750000e+003) (53, -2.70762830972671510000e-001) (54, 3.33625644445419310000e-001) (55, 6.41625881195068360000e-001) (56, 1.66532516479492190000e-001) (57, 2.73039966821670530000e-001) (58, 1.89518213272094730000e-001) (59, 4.63176183402538300000e-002) (60, 8.95522713661193850000e-001) (61, -2.26309561729431150000e+000) (62, 1.49479833984375000000e+003) (63, 1.49542297363281250000e+003) (64, -4.20426636934280400000e-001) (65, 1.49540319824218750000e+003) (66, 4.57360506057739260000e-001) (67, -1.76758274435997010000e-001) (68, 9.45547103881835940000e-001) (69, 2.63056755065917970000e-001) (70, -4.96326684951782230000e-001) (71, 1.49570117187500000000e+003) (72, 1.49546765136718750000e+003) (73, -9.41999793052673340000e-001) (74, 2.41074249148368840000e-001) (75, 3.46294403076171880000e-001) (76, 1.49557324218750000000e+003) (77, 1.49534765625000000000e+003) (78, 1.49505664062500000000e+003) (79, -1.20337402820587160000e+000) (80, 1.49495544433593750000e+003) (81, -3.31951737403869630000e-001) (82, 1.49497595214843750000e+003) (83, 1.75990080833435060000e+000) (84, -4.31440651416778560000e-001) (85, -8.32689851522445680000e-002) (86, 1.49505651855468750000e+003) (87, -1.11378419399261470000e+000) (88, 1.49521972656250000000e+003) (89, 1.08930222690105440000e-001) (90, 9.74074661731719970000e-001) (91, 1.38971805572509770000e-001) (92, 1.87656506896018980000e-001) (93, 8.60664844512939450000e-001) (94, -4.83112245798110960000e-001) (95, 2.66093134880065920000e-001) (96, 9.27386105060577390000e-001) (97, 1.49546325683593750000e+003) (98, 1.04874849319458010000e+000) (99, -2.08882018923759460000e-001) (100, 3.79313439130783080000e-001) (101, -8.06082010269165040000e-001) (102, 1.49548791503906250000e+003) (103, 1.49496362304687500000e+003) (104, 3.41001093387603760000e-001) (105, 2.06120029091835020000e-001) (106, 1.49553527832031250000e+003) (107, 1.49517211914062500000e+003) (108, 1.49473498535156250000e+003) (109, -1.00696074962615970000e+000) (110, -6.98078632354736330000e-001) (111, -5.47792375087738040000e-001) (112, -2.72516518831253050000e-001) (113, 6.46015882492065430000e-001) (114, -7.17287182807922360000e-001) (115, -7.79865860939025880000e-001) (116, 1.49512902832031250000e+003) (117, 1.49478808593750000000e+003) (118, 1.49481616210937500000e+003) (119, 7.52934217453002930000e-001) (120, 4.71094459295272830000e-001) (121, 1.49571765136718750000e+003) (122, 1.49518225097656250000e+003) (123, 1.49533837890625000000e+003) (124, -1.70208454132080080000e+000) (125, 1.49520385742187500000e+003) (126, 1.16516649723052980000e+000) (127, 1.49555456542968750000e+003) (128, 3.19819390773773190000e-001) (129, -4.23412382602691650000e-001) (130, 9.10731613636016850000e-001) (131, 2.14856360107660290000e-002) (132, 4.77772131562232970000e-002) (133, -7.16421455144882200000e-002) (134, 7.09688007831573490000e-001) (135, 6.52120932936668400000e-002) (136, 1.49484619140625000000e+003) (137, 1.49475683593750000000e+003) (138, 1.49533105468750000000e+003) (139, -1.87867188453674320000e+000) (140, 1.49570324707031250000e+003) (141, 1.12586939334869380000e+000) (142, 1.49485729980468750000e+003) (143, 9.88311231136322020000e-001) (144, -6.41836106777191160000e-001) (145, -3.25700908899307250000e-001) (146, 1.49509094238281250000e+003) (147, 1.49515820312500000000e+003) (148, 1.49553198242187500000e+003) (149, 3.01374077796936040000e-001) (150, 4.69316691160202030000e-001) (151, 1.49487036132812500000e+003) (152, 1.49474792480468750000e+003) (153, 1.49560009765625000000e+003) (154, -2.16005253791809080000e+000) (155, 1.49478405761718750000e+003) (156, 1.04219150543212890000e+000) (157, 1.49481201171875000000e+003) (158, 3.68571758270263670000e-001) (159, -2.70104348659515380000e-001) (160, -5.34599065780639650000e-001) (161, 1.49498144531250000000e+003) (162, 1.49532446289062500000e+003) (163, 1.49496704101562500000e+003) (164, 2.74084359407424930000e-001) (165, 9.22347843647003170000e-001) (166, 9.15642380714416500000e-001) (167, 5.79559087753295900000e-001) (168, 3.02452862262725830000e-001) (169, 5.75609058141708370000e-002) (170, 1.04816114902496340000e+000) (171, 6.61632120609283450000e-001) (172, 1.49495422363281250000e+003) (173, 1.12236469984054570000e-001) (174, 2.92092919349670410000e-001) (175, 4.24750372767448430000e-002) (176, 1.49532617187500000000e+003) (177, 1.49569775390625000000e+003) (178, 1.49482299804687500000e+003) (179, 6.85545802116394040000e-002) (180, 1.49484277343750000000e+003) (181, 1.49504687500000000000e+003) (182, 1.49523242187500000000e+003) (183, 1.49554687500000000000e+003) (184, -4.89769548177719120000e-001) (185, -1.09617546200752260000e-001) (186, -1.92966349422931670000e-002) (187, -1.18849232792854310000e-001) (188, 5.43254137039184570000e-001) (189, -3.62290644645690920000e+000) (190, -4.53431993722915650000e-001) (191, 1.49492810058593750000e+003) (192, 1.49546899414062500000e+003) (193, 1.49569348144531250000e+003) (194, 4.75403875112533570000e-001) (195, 1.49481018066406250000e+003) (196, 1.49509045410156250000e+003) (197, 1.49546630859375000000e+003) (198, 1.49569982910156250000e+003) (199, 1.49478857421875000000e+003) (200, 1.49522656250000000000e+003) (201, 1.49476684570312500000e+003) (202, 1.49481774902343750000e+003) (203, 1.27110734581947330000e-001) (204, -2.01206743717193600000e-001) (205, -2.31225229799747470000e-002) (206, -2.94989526271820070000e-001) (207, -4.34805989265441890000e-001) (208, -2.21479043364524840000e-001) (209, 8.64131689071655270000e-001) (210, 1.49569458007812500000e+003) (211, 1.49542077636718750000e+003) (212, 1.49481518554687500000e+003) (213, 1.49482470703125000000e+003) (214, 1.49548840332031250000e+003) (215, 1.49487695312500000000e+003) (216, 1.49497717285156250000e+003) (217, 1.49521936035156250000e+003) (218, 1.49509008789062500000e+003) (219, 1.49569775390625000000e+003) (220, 1.49484570312500000000e+003) (221, 1.49521850585937500000e+003) (222, 1.49488281250000000000e+003) (223, 1.49500292968750000000e+003) (224, 1.49547631835937500000e+003) (225, 4.17561054229736330000e-001) (0, 1.49508032226562500000e+003) (1, 1.49509252929687500000e+003) (2, 1.49494360351562500000e+003) (3, 1.49561120605468750000e+003) (4, 1.49482775878906250000e+003) (5, 1.49553918457031250000e+003) (6, 1.49481750488281250000e+003) (7, 1.49559057617187500000e+003) (8, 1.49555310058593750000e+003) (9, 1.49501586914062500000e+003) (10, 1.49480859375000000000e+003) (11, 1.49532604980468750000e+003) (12, 1.49493066406250000000e+003) (13, 1.49573583984375000000e+003) (14, 1.49490405273437500000e+003) (15, 4.58570420742034910000e-002) (16, -2.14167553931474690000e-002) (17, 5.76179206371307370000e-001) (18, 4.76337559521198270000e-002) (19, -9.01299193501472470000e-002) (20, 1.63404136896133420000e-001) (21, 3.46634566783905030000e-001) (22, 1.49531384277343750000e+003) (23, 1.49485278320312500000e+003) (24, 1.49523339843750000000e+003) (25, 1.49521411132812500000e+003) (26, 1.49500439453125000000e+003) (27, 1.49480358886718750000e+003) (28, 1.49513061523437500000e+003) (29, 1.49560546875000000000e+003) (30, 6.22147917747497560000e-001) (31, 1.49505261230468750000e+003) (32, 1.49520593261718750000e+003) (33, 1.05017483234405520000e+000) (34, 3.85673075914382930000e-001) (35, -5.84995031356811520000e-001) (36, -3.26167605817317960000e-002) (37, 6.15661777555942540000e-002) (38, 3.26859988272190090000e-002) (39, -1.51210734620690350000e-002) (40, 6.20720069855451580000e-003) (41, 1.49494360351562500000e+003) (42, 1.49567797851562500000e+003) (43, 1.49511914062500000000e+003) (44, 1.49570922851562500000e+003) (45, 4.04953628778457640000e-001) (46, 1.49502783203125000000e+003) (47, 1.00891280174255370000e+000) (48, 1.49540771484375000000e+003) (49, 3.43915015459060670000e-001) (50, 1.49574377441406250000e+003) (51, -5.90155005455017090000e-001) (52, 1.49520568847656250000e+003) (53, 1.81802678108215330000e+000) (54, 1.33681678771972660000e+000) (55, -1.88754379749298100000e-001) (56, 1.19374930858612060000e+000) (57, 1.21218156814575200000e+000) (58, 1.17525482177734370000e+000) (59, 4.17196005582809450000e-002) (60, -2.25483447313308720000e-001) (61, 1.18556237220764160000e+000) (62, 1.49485180664062500000e+003) (63, 1.49540087890625000000e+003) (64, -1.22971430420875550000e-001) (65, 1.49524353027343750000e+003) (66, 2.54765944555401800000e-003) (67, -4.56226170063018800000e-002) (68, -2.87645608186721800000e-001) (69, -1.62796646356582640000e-001) (70, -2.99631327390670780000e-001) (71, 1.49507214355468750000e+003) (72, 1.49534362792968750000e+003) (73, 5.10199666023254390000e-001) (74, 4.70287859439849850000e-001) (75, -1.01348616182804110000e-001) (76, 1.49491015625000000000e+003) (77, 1.49529919433593750000e+003) (78, 1.49531250000000000000e+003) (79, 1.83670341968536380000e-001) (80, 1.49556506347656250000e+003) (81, -4.47368659079074860000e-002) (82, 1.49525732421875000000e+003) (83, 3.22799980640411380000e-001) (84, -5.55299401283264160000e-001) (85, 6.54370784759521480000e-001) (86, 1.49573486328125000000e+003) (87, 5.06082892417907710000e-001) (88, 1.49503430175781250000e+003) (89, 6.90788090229034420000e-001) (90, -1.11549593508243560000e-001) (91, 1.37884247303009030000e+000) (92, 7.19244778156280520000e-001) (93, 7.99585402011871340000e-001) (94, -2.24932104349136350000e-001) (95, 7.07730591297149660000e-001) (96, 8.08656573295593260000e-001) (97, 1.49541198730468750000e+003) (98, -1.51135116815567020000e-001) (99, -6.89657688140869140000e-001) (100, 7.76441097259521480000e-001) (101, 6.36044025421142580000e-001) (102, 1.49545593261718750000e+003) (103, 1.49570263671875000000e+003) (104, 3.20665299892425540000e-001) (105, -1.12908422946929930000e+000) (106, 1.49560668945312500000e+003) (107, 1.49482409667968750000e+003) (108, 1.49547094726562500000e+003) (109, -1.92617401480674740000e-001) (110, 1.98361612856388090000e-002) (111, 4.19844806194305420000e-001) (112, 3.13035756349563600000e-001) (113, 3.60686928033828740000e-001) (114, 2.28039957582950590000e-002) (115, -2.60459572076797490000e-001) (116, 1.49568981933593750000e+003) (117, 1.49487597656250000000e+003) (118, 1.49553430175781250000e+003) (119, 2.12723016738891600000e-001) (120, -9.06619071960449220000e-001) (121, 1.49544128417968750000e+003) (122, 1.49475292968750000000e+003) (123, 1.49508166503906250000e+003) (124, -7.36711844801902770000e-002) (125, 1.49517358398437500000e+003) (126, 5.05884110927581790000e-001) (127, 1.49560351562500000000e+003) (128, 6.76635384559631350000e-001) (129, 1.05964601039886470000e+000) (130, 4.47469025850296020000e-001) (131, 8.48075687885284420000e-001) (132, 1.54828000068664550000e+000) (133, 8.96573126316070560000e-001) (134, -5.88571906089782710000e-001) (135, -9.13886070251464840000e-001) (136, 1.49493786621093750000e+003) (137, 1.49474731445312500000e+003) (138, 1.49512353515625000000e+003) (139, -5.03318965435028080000e-001) (140, 1.49550659179687500000e+003) (141, 1.33520746231079100000e+000) (142, 1.49534765625000000000e+003) (143, 7.53481328487396240000e-001) (144, 1.54437720775604250000e-002) (145, 7.33060836791992190000e-002) (146, 1.49565881347656250000e+003) (147, 1.49480700683593750000e+003) (148, 1.49568249511718750000e+003) (149, -9.29670855402946470000e-002) (150, -1.00654637813568120000e+000) (151, 1.49539331054687500000e+003) (152, 1.49480505371093750000e+003) (153, 1.49553833007812500000e+003) (154, -2.10025697946548460000e-001) (155, 1.49492700195312500000e+003) (156, 1.23181843757629390000e+000) (157, 1.49532312011718750000e+003) (158, 5.10151386260986330000e-001) (159, 3.78992259502410890000e-002) (160, 4.60569322109222410000e-001) (161, 1.49558312988281250000e+003) (162, 1.49515795898437500000e+003) (163, 1.49484326171875000000e+003) (164, -4.84034985303878780000e-001) (165, -2.12319225072860720000e-001) (166, -3.29555332660675050000e-001) (167, -1.07776753604412080000e-001) (168, 4.68330681324005130000e-001) (169, 1.24300166964530940000e-001) (170, 5.79110920429229740000e-001) (171, 2.04916507005691530000e-001) (172, 1.49546337890625000000e+003) (173, -4.30635772645473480000e-002) (174, -8.84127914905548100000e-002) (175, -2.79305707663297650000e-002) (176, 1.49533166503906250000e+003) (177, 1.49511328125000000000e+003) (178, 1.49529565429687500000e+003) (179, -1.33823558688163760000e-001) (180, 1.49559326171875000000e+003) (181, 1.49528747558593750000e+003) (182, 1.49562670898437500000e+003) (183, 1.49487768554687500000e+003) (184, -4.69661265611648560000e-001) (185, -4.35066260397434230000e-002) (186, -2.38993868231773380000e-001) (187, 2.81482527498155830000e-004) (188, -6.75316751003265380000e-001) (189, 2.39124670624732970000e-001) (190, 3.79185348749160770000e-001) (191, 1.49550610351562500000e+003) (192, 1.49543835449218750000e+003) (193, 1.49479968261718750000e+003) (194, -4.71123129129409790000e-001) (195, 1.49557641601562500000e+003) (196, 1.49494396972656250000e+003) (197, 1.49550634765625000000e+003) (198, 1.49495849609375000000e+003) (199, 1.49513574218750000000e+003) (200, 1.49570312500000000000e+003) (201, 1.49498303222656250000e+003) (202, 1.49515698242187500000e+003) (203, 1.43121600151062010000e+000) (204, 1.32321131229400630000e+000) (205, 1.06313335895538330000e+000) (206, 1.60905075073242190000e+000) (207, 1.01301407814025880000e+000) (208, 1.21442711353302000000e+000) (209, -3.86535078287124630000e-001) (210, 1.49547912597656250000e+003) (211, 1.49503356933593750000e+003) (212, 1.49533337402343750000e+003) (213, 1.49518896484375000000e+003) (214, 1.49480444335937500000e+003) (215, 1.49560473632812500000e+003) (216, 1.49501879882812500000e+003) (217, 1.49570593261718750000e+003) (218, 1.49548486328125000000e+003) (219, 1.49525378417968750000e+003) (220, 1.49548132324218750000e+003) (221, 1.49491015625000000000e+003) (222, 1.49554882812500000000e+003) (223, 1.49550317382812500000e+003) (224, 1.49562329101562500000e+003) (225, -3.92261832952499390000e-001) (0, 1.49494140625000000000e+003) (1, 1.49532641601562500000e+003) (2, 1.49545385742187500000e+003) (3, 1.49560668945312500000e+003) (4, 1.49521337890625000000e+003) (5, 1.49476428222656250000e+003) (6, 1.49559094238281250000e+003) (7, 1.49505554199218750000e+003) (8, 1.49530065917968750000e+003) (9, 1.49493945312500000000e+003) (10, 1.49529699707031250000e+003) (11, 1.49572351074218750000e+003) (12, 1.49556079101562500000e+003) (13, 1.49476220703125000000e+003) (14, 1.49533898925781250000e+003) (15, -2.92263686656951900000e-001) (16, 1.94811925292015080000e-001) (17, 3.83468955755233760000e-001) (18, 1.44037619233131410000e-001) (19, 1.16566926240921020000e-001) (20, -3.06784268468618390000e-002) (21, 5.82703314721584320000e-002) (22, 1.49535595703125000000e+003) (23, 1.49503857421875000000e+003) (24, 1.49500317382812500000e+003) (25, 1.49522497558593750000e+003) (26, 1.49508801269531250000e+003) (27, 1.49486315917968750000e+003) (28, 1.49510729980468750000e+003) (29, 1.49501464843750000000e+003) (30, -7.59923040866851810000e-001) (31, 1.49507128906250000000e+003) (32, 1.49502734375000000000e+003) (33, 1.47936582565307620000e-001) (34, -3.54730755090713500000e-001) (35, 9.53077077865600590000e-001) (36, 4.32295531034469600000e-001) (37, 1.12938380241394040000e+000) (38, 9.01398301124572750000e-001) (39, 1.16931724548339840000e+000) (40, 4.64639842510223390000e-001) (41, 1.49506750488281250000e+003) (42, 1.49545983886718750000e+003) (43, 1.49501489257812500000e+003) (44, 1.49510473632812500000e+003) (45, -3.71131926774978640000e-001) (46, 1.49520971679687500000e+003) (47, 3.90892177820205690000e-001) (48, 1.49533508300781250000e+003) (49, -1.29687208682298660000e-002) (50, 1.49538476562500000000e+003) (51, 9.05304372310638430000e-001) (52, 1.49475036621093750000e+003) (53, -3.25408190488815310000e-001) (54, 8.59119594097137450000e-001) (55, 5.42159020900726320000e-001) (56, -3.44612076878547670000e-002) (57, 2.65069574117660520000e-001) (58, 3.06362628936767580000e-001) (59, -3.00565838813781740000e-001) (60, -3.49393755197525020000e-001) (61, -3.40001791715621950000e-001) (62, 1.49568481445312500000e+003) (63, 1.49527636718750000000e+003) (64, -2.43698552250862120000e-001) (65, 1.49507250976562500000e+003) (66, 2.70843982696533200000e-001) (67, -2.22374044824391600000e-004) (68, -8.88096213340759280000e-001) (69, -6.81995034217834470000e-001) (70, 1.28822100162506100000e+000) (71, 1.49508520507812500000e+003) (72, 1.49514990234375000000e+003) (73, -3.94637131690979000000e+000) (74, 4.69342976808547970000e-001) (75, -1.50062227249145510000e+000) (76, 1.49556103515625000000e+003) (77, 1.49564233398437500000e+003) (78, 1.49507055664062500000e+003) (79, -2.32595518231391910000e-001) (80, 1.49503405761718750000e+003) (81, -1.37135767936706540000e+000) (82, 1.49491198730468750000e+003) (83, -1.35884988307952880000e+000) (84, 7.61573314666748050000e-002) (85, 7.70802795886993410000e-001) (86, 1.49517309570312500000e+003) (87, -3.65875339508056640000e+000) (88, 1.49574487304687500000e+003) (89, 7.18349158763885500000e-001) (90, -1.71160116791725160000e-001) (91, 1.48879814147949220000e+000) (92, 1.16989922523498540000e+000) (93, 1.52681648731231690000e+000) (94, 3.18343132734298710000e-001) (95, -2.06969648599624630000e-001) (96, 2.09210380911827090000e-001) (97, 1.49540417480468750000e+003) (98, -1.71448886394500730000e+000) (99, -2.10024982690811160000e-001) (100, 1.18972158432006840000e+000) (101, -4.11073255538940430000e+000) (102, 1.49548535156250000000e+003) (103, 1.49561364746093750000e+003) (104, 5.42316436767578130000e-001) (105, 3.02462637424468990000e-001) (106, 1.49506030273437500000e+003) (107, 1.49523681640625000000e+003) (108, 1.49497448730468750000e+003) (109, -1.06067717075347900000e-001) (110, -1.57205373048782350000e-001) (111, -1.07350683212280270000e+000) (112, -3.70686240494251250000e-002) (113, -7.50753104686737060000e-001) (114, -1.24651014804840090000e+000) (115, -2.18678846955299380000e-001) (116, 1.49532434082031250000e+003) (117, 1.49563256835937500000e+003) (118, 1.49509082031250000000e+003) (119, 4.45352494716644290000e-001) (120, -4.33702290058135990000e-001) (121, 1.49542602539062500000e+003) (122, 1.49553198242187500000e+003) (123, 1.49567443847656250000e+003) (124, 1.26850038766860960000e-001) (125, 1.49556530761718750000e+003) (126, 3.36262971162796020000e-001) (127, 1.49515380859375000000e+003) (128, -1.65211632847785950000e-002) (129, -5.94324469566345210000e-002) (130, 3.88646006584167480000e-001) (131, 2.61412322521209720000e-001) (132, 2.81310290098190310000e-001) (133, -5.41370272636413570000e-001) (134, -3.45630705356597900000e-001) (135, 3.89664709568023680000e-001) (136, 1.49556738281250000000e+003) (137, 1.49566821289062500000e+003) (138, 1.49548632812500000000e+003) (139, -5.21073825657367710000e-002) (140, 1.49499926757812500000e+003) (141, -4.98768061399459840000e-001) (142, 1.49570202636718750000e+003) (143, 1.77211791276931760000e-001) (144, -2.39341855049133300000e-001) (145, -1.50469392538070680000e-001) (146, 1.49520947265625000000e+003) (147, 1.49506420898437500000e+003) (148, 1.49527917480468750000e+003) (149, 4.38372455537319180000e-002) (150, 6.54639974236488340000e-002) (151, 1.49539965820312500000e+003) (152, 1.49490991210937500000e+003) (153, 1.49566430664062500000e+003) (154, 3.56925010681152340000e-001) (155, 1.49523730468750000000e+003) (156, 4.17164951562881470000e-001) (157, 1.49502978515625000000e+003) (158, 1.11342377960681920000e-001) (159, -6.06270194053649900000e-001) (160, 8.55312347412109380000e-002) (161, 1.49506225585937500000e+003) (162, 1.49532446289062500000e+003) (163, 1.49513574218750000000e+003) (164, -1.88951030373573300000e-001) (165, 7.86980807781219480000e-001) (166, 7.46186792850494380000e-001) (167, 5.11964082717895510000e-001) (168, -2.04988911747932430000e-001) (169, -3.06010663509368900000e-001) (170, -2.15249732136726380000e-001) (171, -6.06889307498931880000e-001) (172, 1.49476635742187500000e+003) (173, 2.93244794011116030000e-003) (174, -1.79554134607315060000e-001) (175, -3.58837336301803590000e-001) (176, 1.49506604003906250000e+003) (177, 1.49525573730468750000e+003) (178, 1.49487634277343750000e+003) (179, 3.24530392885208130000e-001) (180, 1.49538671875000000000e+003) (181, 1.49564453125000000000e+003) (182, 1.49538415527343750000e+003) (183, 1.49504125976562500000e+003) (184, 1.11410164833068850000e+000) (185, 2.35906034708023070000e-001) (186, 6.49367094039916990000e-001) (187, 8.26234936714172360000e-001) (188, 1.39039623737335210000e+000) (189, 1.39196932315826420000e+000) (190, 5.50256036221981050000e-002) (191, 1.49545910644531250000e+003) (192, 1.49479968261718750000e+003) (193, 1.49517150878906250000e+003) (194, -1.19806975126266480000e-001) (195, 1.49504321289062500000e+003) (196, 1.49509777832031250000e+003) (197, 1.49551452636718750000e+003) (198, 1.49490844726562500000e+003) (199, 1.49530468750000000000e+003) (200, 1.49531762695312500000e+003) (201, 1.49524572753906250000e+003) (202, 1.49557446289062500000e+003) (203, 4.15957808494567870000e-001) (204, -3.53141605854034420000e-001) (205, -1.53319209814071660000e-001) (206, -4.92802143096923830000e-001) (207, 4.84992712736129760000e-002) (208, -5.41704773902893070000e-001) (209, -8.28396379947662350000e-002) (210, 1.49566882324218750000e+003) (211, 1.49537280273437500000e+003) (212, 1.49507348632812500000e+003) (213, 1.49551318359375000000e+003) (214, 1.49485595703125000000e+003) (215, 1.49544848632812500000e+003) (216, 1.49547790527343750000e+003) (217, 1.49542517089843750000e+003) (218, 1.49494726562500000000e+003) (219, 1.49527880859375000000e+003) (220, 1.49486999511718750000e+003) (221, 1.49483764648437500000e+003) (222, 1.49568212890625000000e+003) (223, 1.49539245605468750000e+003) (224, 1.49497705078125000000e+003) (225, -4.75864261388778690000e-001) (0, 1.49509887695312500000e+003) (1, 1.49548937988281250000e+003) (2, 1.49532702636718750000e+003) (3, 1.49524951171875000000e+003) (4, 1.49540893554687500000e+003) (5, 1.49483056640625000000e+003) (6, 1.49527099609375000000e+003) (7, 1.49495434570312500000e+003) (8, 1.49488378906250000000e+003) (9, 1.49575256347656250000e+003) (10, 1.49480993652343750000e+003) (11, 1.49554113769531250000e+003) (12, 1.49555468750000000000e+003) (13, 1.49551843261718750000e+003) (14, 1.49566357421875000000e+003) (15, 1.02870047092437740000e+000) (16, 8.07565629482269290000e-001) (17, 2.51605808734893800000e-001) (18, 4.28348839282989500000e-001) (19, -4.47864038869738580000e-003) (20, 4.44542206823825840000e-002) (21, 2.48144045472145080000e-001) (22, 1.49499584960937500000e+003) (23, 1.49513989257812500000e+003) (24, 1.49507373046875000000e+003) (25, 1.49544262695312500000e+003) (26, 1.49563793945312500000e+003) (27, 1.49541320800781250000e+003) (28, 1.49497802734375000000e+003) (29, 1.49509228515625000000e+003) (30, 3.00905406475067140000e-001) (31, 1.49565625000000000000e+003) (32, 1.49545959472656250000e+003) (33, -1.22553920745849610000e+000) (34, 6.55493915081024170000e-001) (35, 2.99910038709640500000e-001) (36, 4.41186549142003060000e-003) (37, 2.61704415082931520000e-001) (38, 5.14983415603637700000e-001) (39, -4.07210379838943480000e-001) (40, -2.35870927572250370000e-001) (41, 1.49538647460937500000e+003) (42, 1.49504089355468750000e+003) (43, 1.49491027832031250000e+003) (44, 1.49568029785156250000e+003) (45, 2.47916758060455320000e-001) (46, 1.49486230468750000000e+003) (47, -1.19887351989746090000e+000) (48, 1.49545385742187500000e+003) (49, -2.42376044392585750000e-001) (50, 1.49564855957031250000e+003) (51, 6.96853160858154300000e-001) (52, 1.49566772460937500000e+003) (53, 6.31881713867187500000e-001) (54, -1.54104501008987430000e-001) (55, 7.42434084415435790000e-001) (56, 7.54145622253417970000e-001) (57, 7.26793646812438960000e-001) (58, 6.47419869899749760000e-001) (59, -6.74735158681869510000e-002) (60, 3.77628147602081300000e-001) (61, -4.14678841829299930000e-001) (62, 1.49516223144531250000e+003) (63, 1.49521789550781250000e+003) (64, -3.08370113372802730000e-001) (65, 1.49545153808593750000e+003) (66, 8.75696837902069090000e-002) (67, 2.68268764019012450000e-001) (68, 6.83709740638732910000e-001) (69, 2.76596009731292720000e-001) (70, -4.39994186162948610000e-002) (71, 1.49523474121093750000e+003) (72, 1.49535058593750000000e+003) (73, -3.38239490985870360000e-001) (74, -4.13361907005310060000e-001) (75, -1.41178488731384280000e+000) (76, 1.49517993164062500000e+003) (77, 1.49507958984375000000e+003) (78, 1.49569799804687500000e+003) (79, -1.02029487490653990000e-001) (80, 1.49564245605468750000e+003) (81, 7.86245703697204590000e-001) (82, 1.49503833007812500000e+003) (83, 1.03267215192317960000e-001) (84, -1.75912678241729740000e-001) (85, 3.17481279373168950000e-001) (86, 1.49555957031250000000e+003) (87, -1.21450737118721010000e-001) (88, 1.49521362304687500000e+003) (89, -4.02383685111999510000e-001) (90, 5.80620408058166500000e-001) (91, 8.17407727241516110000e-001) (92, 2.20653757452964780000e-001) (93, 8.56642305850982670000e-001) (94, 1.46915569901466370000e-001) (95, 3.88163685798645020000e-001) (96, 5.55014908313751220000e-001) (97, 1.49511572265625000000e+003) (98, 5.29764950275421140000e-001) (99, 8.02584230899810790000e-001) (100, 9.00044679641723630000e-001) (101, -8.60765516757965090000e-001) (102, 1.49553894042968750000e+003) (103, 1.49551953125000000000e+003) (104, -5.22894501686096190000e-001) (105, 4.00227874517440800000e-001) (106, 1.49528088378906250000e+003) (107, 1.49484741210937500000e+003) (108, 1.49482348632812500000e+003) (109, -1.93540602922439580000e-001) (110, 6.81826233863830570000e-001) (111, 9.40057039260864260000e-001) (112, 5.53580760955810550000e-001) (113, 1.35939013957977290000e+000) (114, 3.62132042646408080000e-001) (115, 8.87526124715805050000e-002) (116, 1.49486169433593750000e+003) (117, 1.49559619140625000000e+003) (118, 1.49485937500000000000e+003) (119, -5.31034588813781740000e-001) (120, -1.08045153319835660000e-001) (121, 1.49490527343750000000e+003) (122, 1.49530908203125000000e+003) (123, 1.49562902832031250000e+003) (124, -4.35424268245697020000e-001) (125, 1.49518347167968750000e+003) (126, 4.27416115999221800000e-001) (127, 1.49533630371093750000e+003) (128, 6.95845365524291990000e-001) (129, 4.30162012577056880000e-001) (130, 1.05887341499328610000e+000) (131, -1.07117198407649990000e-001) (132, 2.42439389228820800000e-001) (133, 6.60079717636108400000e-001) (134, 2.72976160049438480000e-001) (135, 5.99301636219024660000e-001) (136, 1.49549780273437500000e+003) (137, 1.49546166992187500000e+003) (138, 1.49543603515625000000e+003) (139, 8.60412716865539550000e-002) (140, 1.49515710449218750000e+003) (141, 4.81964170932769780000e-001) (142, 1.49527490234375000000e+003) (143, 1.32667982578277590000e+000) (144, 6.87499940395355220000e-001) (145, 1.05719876289367680000e+000) (146, 1.49490307617187500000e+003) (147, 1.49531323242187500000e+003) (148, 1.49530517578125000000e+003) (149, 1.82762837409973140000e+000) (150, 5.09136915206909180000e-001) (151, 1.49543322753906250000e+003) (152, 1.49508056640625000000e+003) (153, 1.49538049316406250000e+003) (154, -1.55105412006378170000e-001) (155, 1.49531799316406250000e+003) (156, 4.01717096567153930000e-001) (157, 1.49560791015625000000e+003) (158, 7.49761998653411870000e-001) (159, 5.87573111057281490000e-001) (160, 8.77430021762847900000e-001) (161, 1.49486767578125000000e+003) (162, 1.49551953125000000000e+003) (163, 1.49568286132812500000e+003) (164, 1.48349857330322270000e+000) (165, 6.67312502861022950000e-001) (166, 1.69705852866172790000e-001) (167, 3.99631299078464510000e-002) (168, 8.39034438133239750000e-001) (169, -2.27469801902771000000e-001) (170, 3.52125048637390140000e-001) (171, 8.19209635257720950000e-001) (172, 1.49548144531250000000e+003) (173, 1.30865323543548580000e+000) (174, 7.64690577983856200000e-001) (175, 3.84065032005310060000e-001) (176, 1.49527612304687500000e+003) (177, 1.49476098632812500000e+003) (178, 1.49509301757812500000e+003) (179, 1.42346143722534180000e+000) (180, 1.49521020507812500000e+003) (181, 1.49490051269531250000e+003) (182, 1.49503393554687500000e+003) (183, 1.49545117187500000000e+003) (184, -2.83089816570281980000e-001) (185, 3.43012005090713500000e-001) (186, 2.90054470300674440000e-001) (187, -3.13155144453048710000e-001) (188, 7.36097812652587890000e-001) (189, -7.03547196462750430000e-003) (190, 7.47242271900177000000e-001) (191, 1.49539916992187500000e+003) (192, 1.49570800781250000000e+003) (193, 1.49503967285156250000e+003) (194, 2.13467550277709960000e+000) (195, 1.49482702636718750000e+003) (196, 1.49540625000000000000e+003) (197, 1.49542333984375000000e+003) (198, 1.49528332519531250000e+003) (199, 1.49526245117187500000e+003) (200, 1.49519213867187500000e+003) (201, 1.49556970214843750000e+003) (202, 1.49514440917968750000e+003) (203, 5.84544599056243900000e-001) (204, 1.82622998952865600000e-001) (205, 1.01615679264068600000e+000) (206, 3.20443361997604370000e-001) (207, 5.49270808696746830000e-001) (208, 3.89431506395339970000e-001) (209, 3.62798035144805910000e-001) (210, 1.49480700683593750000e+003) (211, 1.49557690429687500000e+003) (212, 1.49551416015625000000e+003) (213, 1.49499694824218750000e+003) (214, 1.49537646484375000000e+003) (215, 1.49484399414062500000e+003) (216, 1.49569067382812500000e+003) (217, 1.49475524902343750000e+003) (218, 1.49520068359375000000e+003) (219, 1.49512121582031250000e+003) (220, 1.49526757812500000000e+003) (221, 1.49480175781250000000e+003) (222, 1.49565808105468750000e+003) (223, 1.49504321289062500000e+003) (224, 1.49565393066406250000e+003) (225, 6.79495185613632200000e-002) (0, 1.49531494140625000000e+003) (1, 1.49529956054687500000e+003) (2, 1.49488183593750000000e+003) (3, 1.49548266601562500000e+003) (4, 1.49512744140625000000e+003) (5, 1.49491357421875000000e+003) (6, 1.49480761718750000000e+003) (7, 1.49528369140625000000e+003) (8, 1.49503540039062500000e+003) (9, 1.49494189453125000000e+003) (10, 1.49525268554687500000e+003) (11, 1.49504418945312500000e+003) (12, 1.49565490722656250000e+003) (13, 1.49506005859375000000e+003) (14, 1.49517358398437500000e+003) (15, 3.84434908628463750000e-001) (16, -1.60494357347488400000e-001) (17, 6.80930495262146000000e-001) (18, -2.23933085799217220000e-002) (19, 8.49301338195800780000e-001) (20, 3.37143510580062870000e-001) (21, 6.34678542613983150000e-001) (22, 1.49491113281250000000e+003) (23, 1.49557543945312500000e+003) (24, 1.49507580566406250000e+003) (25, 1.49514794921875000000e+003) (26, 1.49567248535156250000e+003) (27, 1.49482910156250000000e+003) (28, 1.49499450683593750000e+003) (29, 1.49547241210937500000e+003) (30, 9.93059754371643070000e-001) (31, 1.49534033203125000000e+003) (32, 1.49570861816406250000e+003) (33, -6.61630749702453610000e-001) (34, 1.30597043037414550000e+000) (35, 9.35227751731872560000e-001) (36, -3.57864387333393100000e-002) (37, 4.74828481674194340000e-001) (38, 1.60197615623474120000e-002) (39, 6.47045135498046880000e-001) (40, 6.05288386344909670000e-001) (41, 1.49515441894531250000e+003) (42, 1.49524902343750000000e+003) (43, 1.49482922363281250000e+003) (44, 1.49501281738281250000e+003) (45, 8.09860587120056150000e-001) (46, 1.49495666503906250000e+003) (47, -5.43708443641662600000e-001) (48, 1.49514343261718750000e+003) (49, 8.67644965648651120000e-001) (50, 1.49484082031250000000e+003) (51, 2.00303345918655400000e-001) (52, 1.49547998046875000000e+003) (53, -4.18132036924362180000e-001) (54, 2.76572376489639280000e-001) (55, -8.42105925083160400000e-001) (56, -2.13249832391738890000e-001) (57, -1.47685119882225990000e-002) (58, -2.57100343704223630000e-001) (59, -4.91805106401443480000e-001) (60, 2.51936167478561400000e-001) (61, -5.51817297935485840000e-001) (62, 1.49533374023437500000e+003) (63, 1.49548937988281250000e+003) (64, 5.68675518035888670000e-001) (65, 1.49507250976562500000e+003) (66, 3.89214247465133670000e-001) (67, 1.86616539955139160000e-001) (68, -5.60092747211456300000e-001) (69, 9.76237773895263670000e-001) (70, 9.26978170871734620000e-001) (71, 1.49503320312500000000e+003) (72, 1.49520874023437500000e+003) (73, -9.43491980433464050000e-002) (74, 2.12693616747856140000e-001) (75, -4.59842383861541750000e-001) (76, 1.49560510253906250000e+003) (77, 1.49538000488281250000e+003) (78, 1.49513928222656250000e+003) (79, 7.81628131866455080000e-001) (80, 1.49573632812500000000e+003) (81, 9.34086322784423830000e-001) (82, 1.49564245605468750000e+003) (83, -7.02092230319976810000e-001) (84, 3.13053131103515630000e-001) (85, 7.95502185821533200000e-001) (86, 1.49557055664062500000e+003) (87, -5.11022567749023440000e-001) (88, 1.49476391601562500000e+003) (89, 1.81380733847618100000e-001) (90, 6.67997539043426510000e-001) (91, 8.56925785541534420000e-001) (92, 7.75656476616859440000e-002) (93, 2.23744407296180730000e-001) (94, 7.15450167655944820000e-001) (95, 4.51208710670471190000e-001) (96, -1.07810860499739650000e-002) (97, 1.49538745117187500000e+003) (98, -2.91126370429992680000e-001) (99, 3.73027890920639040000e-001) (100, 1.66777193546295170000e+000) (101, -3.27636510133743290000e-001) (102, 1.49524133300781250000e+003) (103, 1.49574377441406250000e+003) (104, -5.07980644702911380000e-001) (105, 7.55866944789886470000e-001) (106, 1.49567126464843750000e+003) (107, 1.49509729003906250000e+003) (108, 1.49487426757812500000e+003) (109, 1.29923379421234130000e+000) (110, 9.83255982398986820000e-001) (111, 2.71202921867370610000e-001) (112, 5.90893141925334930000e-002) (113, -1.11066803336143490000e-001) (114, 2.14024305343627930000e-001) (115, 3.77565175294876100000e-001) (116, 1.49542871093750000000e+003) (117, 1.49475903320312500000e+003) (118, 1.49553881835937500000e+003) (119, -5.45094549655914310000e-001) (120, 7.35220432281494140000e-001) (121, 1.49574829101562500000e+003) (122, 1.49545153808593750000e+003) (123, 1.49476013183593750000e+003) (124, 8.14534723758697510000e-001) (125, 1.49484777832031250000e+003) (126, 6.83471560478210450000e-001) (127, 1.49550097656250000000e+003) (128, -1.62641763687133790000e+000) (129, -1.30090224742889400000e+000) (130, -7.08058238029479980000e-001) (131, -2.44223666191101070000e+000) (132, -2.21936583518981930000e+000) (133, -2.17149209976196290000e+000) (134, -1.53108108043670650000e+000) (135, 7.69745647907257080000e-001) 