FANN_FLO_2.1
num_layers=6
learning_rate=0.700000
connection_rate=1.000000
network_type=0
learning_momentum=0.000000
training_algorithm=2
train_error_function=1
train_stop_function=0
cascade_output_change_fraction=0.010000
quickprop_decay=-0.000100
quickprop_mu=1.750000
rprop_increase_factor=1.200000
rprop_decrease_factor=0.500000
rprop_delta_min=0.000000
rprop_delta_max=50.000000
rprop_delta_zero=0.100000
cascade_output_stagnation_epochs=12
cascade_candidate_change_fraction=0.010000
cascade_candidate_stagnation_epochs=12
cascade_max_out_epochs=150
cascade_min_out_epochs=50
cascade_max_cand_epochs=150
cascade_min_cand_epochs=50
cascade_num_candidate_groups=2
bit_fail_limit=3.49999994039535520000e-001
cascade_candidate_limit=1.00000000000000000000e+003
cascade_weight_multiplier=4.00000005960464480000e-001
cascade_activation_functions_count=10
cascade_activation_functions=3 5 7 8 10 11 14 15 16 17 
cascade_activation_steepnesses_count=4
cascade_activation_steepnesses=2.50000000000000000000e-001 5.00000000000000000000e-001 7.50000000000000000000e-001 1.00000000000000000000e+000 
layer_sizes=101 81 61 41 11 7 
scale_included=0
neurons (num_inputs, activation_function, activation_steepness)=(0, 0, 0.00000000000000000000e+000) (0, 0, 0.00000000000000000000e+000) (0, 0, 0.00000000000000000000e+000) (0, 0, 0.00000000000000000000e+000) (0, 0, 0.00000000000000000000e+000) (0, 0, 0.00000000000000000000e+000) (0, 0, 0.00000000000000000000e+000) (0, 0, 0.00000000000000000000e+000) (0, 0, 0.00000000000000000000e+000) (0, 0, 0.00000000000000000000e+000) (0, 0, 0.00000000000000000000e+000) (0, 0, 0.00000000000000000000e+000) (0, 0, 0.00000000000000000000e+000) (0, 0, 0.00000000000000000000e+000) (0, 0, 0.00000000000000000000e+000) (0, 0, 0.00000000000000000000e+000) (0, 0, 0.00000000000000000000e+000) (0, 0, 0.00000000000000000000e+000) (0, 0, 0.00000000000000000000e+000) (0, 0, 0.00000000000000000000e+000) (0, 0, 0.00000000000000000000e+000) (0, 0, 0.00000000000000000000e+000) (0, 0, 0.00000000000000000000e+000) (0, 0, 0.00000000000000000000e+000) (0, 0, 0.00000000000000000000e+000) (0, 0, 0.00000000000000000000e+000) (0, 0, 0.00000000000000000000e+000) (0, 0, 0.00000000000000000000e+000) (0, 0, 0.00000000000000000000e+000) (0, 0, 0.00000000000000000000e+000) (0, 0, 0.00000000000000000000e+000) (0, 0, 0.00000000000000000000e+000) (0, 0, 0.00000000000000000000e+000) (0, 0, 0.00000000000000000000e+000) (0, 0, 0.00000000000000000000e+000) (0, 0, 0.00000000000000000000e+000) (0, 0, 0.00000000000000000000e+000) (0, 0, 0.00000000000000000000e+000) (0, 0, 0.00000000000000000000e+000) (0, 0, 0.00000000000000000000e+000) (0, 0, 0.00000000000000000000e+000) (0, 0, 0.00000000000000000000e+000) (0, 0, 0.00000000000000000000e+000) (0, 0, 0.00000000000000000000e+000) (0, 0, 0.00000000000000000000e+000) (0, 0, 0.00000000000000000000e+000) (0, 0, 0.00000000000000000000e+000) (0, 0, 0.00000000000000000000e+000) (0, 0, 0.00000000000000000000e+000) (0, 0, 0.00000000000000000000e+000) (0, 0, 0.00000000000000000000e+000) (0, 0, 0.00000000000000000000e+000) (0, 0, 0.00000000000000000000e+000) (0, 0, 0.00000000000000000000e+000) (0, 0, 0.00000000000000000000e+000) (0, 0, 0.00000000000000000000e+000) (0, 0, 0.00000000000000000000e+000) (0, 0, 0.00000000000000000000e+000) (0, 0, 0.00000000000000000000e+000) (0, 0, 0.00000000000000000000e+000) (0, 0, 0.00000000000000000000e+000) (0, 0, 0.00000000000000000000e+000) (0, 0, 0.00000000000000000000e+000) (0, 0, 0.00000000000000000000e+000) (0, 0, 0.00000000000000000000e+000) (0, 0, 0.00000000000000000000e+000) (0, 0, 0.00000000000000000000e+000) (0, 0, 0.00000000000000000000e+000) (0, 0, 0.00000000000000000000e+000) (0, 0, 0.00000000000000000000e+000) (0, 0, 0.00000000000000000000e+000) (0, 0, 0.00000000000000000000e+000) (0, 0, 0.00000000000000000000e+000) (0, 0, 0.00000000000000000000e+000) (0, 0, 0.00000000000000000000e+000) (0, 0, 0.00000000000000000000e+000) (0, 0, 0.00000000000000000000e+000) (0, 0, 0.00000000000000000000e+000) (0, 0, 0.00000000000000000000e+000) (0, 0, 0.00000000000000000000e+000) (0, 0, 0.00000000000000000000e+000) (0, 0, 0.00000000000000000000e+000) (0, 0, 0.00000000000000000000e+000) (0, 0, 0.00000000000000000000e+000) (0, 0, 0.00000000000000000000e+000) (0, 0, 0.00000000000000000000e+000) (0, 0, 0.00000000000000000000e+000) (0, 0, 0.00000000000000000000e+000) (0, 0, 0.00000000000000000000e+000) (0, 0, 0.00000000000000000000e+000) (0, 0, 0.00000000000000000000e+000) (0, 0, 0.00000000000000000000e+000) (0, 0, 0.00000000000000000000e+000) (0, 0, 0.00000000000000000000e+000) (0, 0, 0.00000000000000000000e+000) (0, 0, 0.00000000000000000000e+000) (0, 0, 0.00000000000000000000e+000) (0, 0, 0.00000000000000000000e+000) (0, 0, 0.00000000000000000000e+000) (0, 0, 0.00000000000000000000e+000) (0, 0, 0.00000000000000000000e+000) (101, 6, 1.00000000000000000000e+000) (101, 6, 1.00000000000000000000e+000) (101, 6, 1.00000000000000000000e+000) (101, 6, 1.00000000000000000000e+000) (101, 6, 1.00000000000000000000e+000) (101, 6, 1.00000000000000000000e+000) (101, 6, 1.00000000000000000000e+000) (101, 6, 1.00000000000000000000e+000) (101, 6, 1.00000000000000000000e+000) (101, 6, 1.00000000000000000000e+000) (101, 6, 1.00000000000000000000e+000) (101, 6, 1.00000000000000000000e+000) (101, 6, 1.00000000000000000000e+000) (101, 6, 1.00000000000000000000e+000) (101, 6, 1.00000000000000000000e+000) (101, 6, 1.00000000000000000000e+000) (101, 6, 1.00000000000000000000e+000) (101, 6, 1.00000000000000000000e+000) (101, 6, 1.00000000000000000000e+000) (101, 6, 1.00000000000000000000e+000) (101, 6, 1.00000000000000000000e+000) (101, 6, 1.00000000000000000000e+000) (101, 6, 1.00000000000000000000e+000) (101, 6, 1.00000000000000000000e+000) (101, 6, 1.00000000000000000000e+000) (101, 6, 1.00000000000000000000e+000) (101, 6, 1.00000000000000000000e+000) (101, 6, 1.00000000000000000000e+000) (101, 6, 1.00000000000000000000e+000) (101, 6, 1.00000000000000000000e+000) (101, 6, 1.00000000000000000000e+000) (101, 6, 1.00000000000000000000e+000) (101, 6, 1.00000000000000000000e+000) (101, 6, 1.00000000000000000000e+000) (101, 6, 1.00000000000000000000e+000) (101, 6, 1.00000000000000000000e+000) (101, 6, 1.00000000000000000000e+000) (101, 6, 1.00000000000000000000e+000) (101, 6, 1.00000000000000000000e+000) (101, 6, 1.00000000000000000000e+000) (101, 6, 1.00000000000000000000e+000) (101, 6, 1.00000000000000000000e+000) (101, 6, 1.00000000000000000000e+000) (101, 6, 1.00000000000000000000e+000) (101, 6, 1.00000000000000000000e+000) (101, 6, 1.00000000000000000000e+000) (101, 6, 1.00000000000000000000e+000) (101, 6, 1.00000000000000000000e+000) (101, 6, 1.00000000000000000000e+000) (101, 6, 1.00000000000000000000e+000) (101, 6, 1.00000000000000000000e+000) (101, 6, 1.00000000000000000000e+000) (101, 6, 1.00000000000000000000e+000) (101, 6, 1.00000000000000000000e+000) (101, 6, 1.00000000000000000000e+000) (101, 6, 1.00000000000000000000e+000) (101, 6, 1.00000000000000000000e+000) (101, 6, 1.00000000000000000000e+000) (101, 6, 1.00000000000000000000e+000) (101, 6, 1.00000000000000000000e+000) (101, 6, 1.00000000000000000000e+000) (101, 6, 1.00000000000000000000e+000) (101, 6, 1.00000000000000000000e+000) (101, 6, 1.00000000000000000000e+000) (101, 6, 1.00000000000000000000e+000) (101, 6, 1.00000000000000000000e+000) (101, 6, 1.00000000000000000000e+000) (101, 6, 1.00000000000000000000e+000) (101, 6, 1.00000000000000000000e+000) (101, 6, 1.00000000000000000000e+000) (101, 6, 1.00000000000000000000e+000) (101, 6, 1.00000000000000000000e+000) (101, 6, 1.00000000000000000000e+000) (101, 6, 1.00000000000000000000e+000) (101, 6, 1.00000000000000000000e+000) (101, 6, 1.00000000000000000000e+000) (101, 6, 1.00000000000000000000e+000) (101, 6, 1.00000000000000000000e+000) (101, 6, 1.00000000000000000000e+000) (101, 6, 1.00000000000000000000e+000) (0, 6, 1.00000000000000000000e+000) (81, 6, 1.00000000000000000000e+000) (81, 6, 1.00000000000000000000e+000) (81, 6, 1.00000000000000000000e+000) (81, 6, 1.00000000000000000000e+000) (81, 6, 1.00000000000000000000e+000) (81, 6, 1.00000000000000000000e+000) (81, 6, 1.00000000000000000000e+000) (81, 6, 1.00000000000000000000e+000) (81, 6, 1.00000000000000000000e+000) (81, 6, 1.00000000000000000000e+000) (81, 6, 1.00000000000000000000e+000) (81, 6, 1.00000000000000000000e+000) (81, 6, 1.00000000000000000000e+000) (81, 6, 1.00000000000000000000e+000) (81, 6, 1.00000000000000000000e+000) (81, 6, 1.00000000000000000000e+000) (81, 6, 1.00000000000000000000e+000) (81, 6, 1.00000000000000000000e+000) (81, 6, 1.00000000000000000000e+000) (81, 6, 1.00000000000000000000e+000) (81, 6, 1.00000000000000000000e+000) (81, 6, 1.00000000000000000000e+000) (81, 6, 1.00000000000000000000e+000) (81, 6, 1.00000000000000000000e+000) (81, 6, 1.00000000000000000000e+000) (81, 6, 1.00000000000000000000e+000) (81, 6, 1.00000000000000000000e+000) (81, 6, 1.00000000000000000000e+000) (81, 6, 1.00000000000000000000e+000) (81, 6, 1.00000000000000000000e+000) (81, 6, 1.00000000000000000000e+000) (81, 6, 1.00000000000000000000e+000) (81, 6, 1.00000000000000000000e+000) (81, 6, 1.00000000000000000000e+000) (81, 6, 1.00000000000000000000e+000) (81, 6, 1.00000000000000000000e+000) (81, 6, 1.00000000000000000000e+000) (81, 6, 1.00000000000000000000e+000) (81, 6, 1.00000000000000000000e+000) (81, 6, 1.00000000000000000000e+000) (81, 6, 1.00000000000000000000e+000) (81, 6, 1.00000000000000000000e+000) (81, 6, 1.00000000000000000000e+000) (81, 6, 1.00000000000000000000e+000) (81, 6, 1.00000000000000000000e+000) (81, 6, 1.00000000000000000000e+000) (81, 6, 1.00000000000000000000e+000) (81, 6, 1.00000000000000000000e+000) (81, 6, 1.00000000000000000000e+000) (81, 6, 1.00000000000000000000e+000) (81, 6, 1.00000000000000000000e+000) (81, 6, 1.00000000000000000000e+000) (81, 6, 1.00000000000000000000e+000) (81, 6, 1.00000000000000000000e+000) (81, 6, 1.00000000000000000000e+000) (81, 6, 1.00000000000000000000e+000) (81, 6, 1.00000000000000000000e+000) (81, 6, 1.00000000000000000000e+000) (81, 6, 1.00000000000000000000e+000) (81, 6, 1.00000000000000000000e+000) (0, 6, 1.00000000000000000000e+000) (61, 6, 1.00000000000000000000e+000) (61, 6, 1.00000000000000000000e+000) (61, 6, 1.00000000000000000000e+000) (61, 6, 1.00000000000000000000e+000) (61, 6, 1.00000000000000000000e+000) (61, 6, 1.00000000000000000000e+000) (61, 6, 1.00000000000000000000e+000) (61, 6, 1.00000000000000000000e+000) (61, 6, 1.00000000000000000000e+000) (61, 6, 1.00000000000000000000e+000) (61, 6, 1.00000000000000000000e+000) (61, 6, 1.00000000000000000000e+000) (61, 6, 1.00000000000000000000e+000) (61, 6, 1.00000000000000000000e+000) (61, 6, 1.00000000000000000000e+000) (61, 6, 1.00000000000000000000e+000) (61, 6, 1.00000000000000000000e+000) (61, 6, 1.00000000000000000000e+000) (61, 6, 1.00000000000000000000e+000) (61, 6, 1.00000000000000000000e+000) (61, 6, 1.00000000000000000000e+000) (61, 6, 1.00000000000000000000e+000) (61, 6, 1.00000000000000000000e+000) (61, 6, 1.00000000000000000000e+000) (61, 6, 1.00000000000000000000e+000) (61, 6, 1.00000000000000000000e+000) (61, 6, 1.00000000000000000000e+000) (61, 6, 1.00000000000000000000e+000) (61, 6, 1.00000000000000000000e+000) (61, 6, 1.00000000000000000000e+000) (61, 6, 1.00000000000000000000e+000) (61, 6, 1.00000000000000000000e+000) (61, 6, 1.00000000000000000000e+000) (61, 6, 1.00000000000000000000e+000) (61, 6, 1.00000000000000000000e+000) (61, 6, 1.00000000000000000000e+000) (61, 6, 1.00000000000000000000e+000) (61, 6, 1.00000000000000000000e+000) (61, 6, 1.00000000000000000000e+000) (61, 6, 1.00000000000000000000e+000) (0, 6, 1.00000000000000000000e+000) (41, 6, 1.00000000000000000000e+000) (41, 6, 1.00000000000000000000e+000) (41, 6, 1.00000000000000000000e+000) (41, 6, 1.00000000000000000000e+000) (41, 6, 1.00000000000000000000e+000) (41, 6, 1.00000000000000000000e+000) (41, 6, 1.00000000000000000000e+000) (41, 6, 1.00000000000000000000e+000) (41, 6, 1.00000000000000000000e+000) (41, 6, 1.00000000000000000000e+000) (0, 6, 1.00000000000000000000e+000) (11, 4, 1.00000000000000000000e+000) (11, 4, 1.00000000000000000000e+000) (11, 4, 1.00000000000000000000e+000) (11, 4, 1.00000000000000000000e+000) (11, 4, 1.00000000000000000000e+000) (11, 4, 1.00000000000000000000e+000) (0, 4, 1.00000000000000000000e+000) 
connections (connected_to_neuron, weight)=(0, 6.02864563465118410000e-001) (1, -6.56040161848068240000e-002) (2, 5.82234442234039310000e-001) (3, 7.21542716026306150000e-001) (4, 1.90218091011047360000e+000) (5, 8.92454147338867190000e-001) (6, 9.29638147354125980000e-001) (7, -6.68818876147270200000e-002) (8, 6.62336349487304690000e-001) (9, 5.45488769531250000000e+002) (10, -6.32710337638854980000e-001) (11, 2.35081046819686890000e-001) (12, -1.31834900379180910000e+000) (13, -7.75513887405395510000e-001) (14, -7.55329370498657230000e-001) (15, 6.41938075423240660000e-002) (16, 1.58608913421630860000e-001) (17, 9.95690822601318360000e-001) (18, 8.86473655700683590000e-001) (19, 5.45232910156250000000e+002) (20, -5.96721529960632320000e-001) (21, 5.45237976074218750000e+002) (22, -1.05559073388576510000e-001) (23, -6.78514242172241210000e-001) (24, 7.13956952095031740000e-001) (25, -2.35858964920043950000e+000) (26, 6.37475013732910160000e-001) (27, 5.44934448242187500000e+002) (28, 1.01886045932769780000e+000) (29, 5.44878173828125000000e+002) (30, 1.77023380994796750000e-001) (31, 5.45327148437500000000e+002) (32, 6.19813442230224610000e-001) (33, -9.85409617424011230000e-001) (34, 7.98143267631530760000e-001) (35, 1.28182008862495420000e-001) (36, 1.29429614543914790000e+000) (37, 4.39077645540237430000e-001) (38, 4.43679034709930420000e-001) (39, 5.44838562011718750000e+002) (40, -4.37351465225219730000e-001) (41, 2.65907011926174160000e-002) (42, 7.47233748435974120000e-001) (43, 1.01847924292087550000e-001) (44, 8.77823591232299800000e-001) (45, 7.05634281039237980000e-002) (46, 1.27618718147277830000e+000) (47, 5.45752685546875000000e+002) (48, 1.69664990901947020000e+000) (49, 5.45249206542968750000e+002) (50, -4.04176652431488040000e-001) (51, 6.32013082504272460000e-001) (52, 1.36255908012390140000e+000) (53, -1.03080964088439940000e+000) (54, 3.00673782825469970000e-001) (55, -8.65853190422058110000e-001) (56, -1.12669610977172850000e+000) (57, 5.45587158203125000000e+002) (58, 6.95792794227600100000e-001) (59, 5.45479736328125000000e+002) (60, -9.41531136631965640000e-002) (61, 3.31489741802215580000e-002) (62, 1.60845637321472170000e+000) (63, -2.96368628740310670000e-001) (64, 1.75039738416671750000e-001) (65, 1.78720280528068540000e-001) (66, -4.45790141820907590000e-001) (67, 7.63175785541534420000e-001) (68, 1.10017545521259310000e-001) (69, 5.45600463867187500000e+002) (70, -4.58713293075561520000e-001) (71, 8.04818987846374510000e-001) (72, 6.30726397037506100000e-001) (73, 2.75361612439155580000e-002) (74, 1.85566887259483340000e-001) (75, -3.92811596393585210000e-001) (76, -1.44604516029357910000e+000) (77, 5.45046875000000000000e+002) (78, -6.48850440979003910000e-001) (79, 5.45764221191406250000e+002) (80, 7.51627147197723390000e-001) (81, 6.87758982181549070000e-001) (82, 2.24908873438835140000e-001) (83, 3.75113725662231450000e-001) (84, 2.10901331901550290000e+000) (85, 1.91618263721466060000e+000) (86, 1.84771287441253660000e+000) (87, 5.44775573730468750000e+002) (88, -7.83384203910827640000e-001) (89, 5.45244384765625000000e+002) (90, 5.45539733886718750000e+002) (91, 5.45449218750000000000e+002) (92, 5.45105895996093750000e+002) (93, 5.45290893554687500000e+002) (94, 5.45363220214843750000e+002) (95, 5.45313110351562500000e+002) (96, 5.45643066406250000000e+002) (97, 5.45748168945312500000e+002) (98, -5.94947338104248050000e-001) (99, 5.44791625976562500000e+002) (100, -6.39583587646484380000e-001) (0, 3.51682275533676150000e-001) (1, 2.19973421096801760000e+000) (2, 1.27351963520050050000e+000) (3, 2.11740064620971680000e+000) (4, 1.99864923954010010000e+000) (5, 1.20699512958526610000e+000) (6, 7.29343950748443600000e-001) (7, 1.50280487537384030000e+000) (8, 1.43600535392761230000e+000) (9, 5.45425720214843750000e+002) (10, 4.15030598640441890000e-001) (11, -1.73792019486427310000e-001) (12, -3.72923821210861210000e-001) (13, -6.22674915939569470000e-003) (14, 9.11706164479255680000e-002) (15, -8.05025994777679440000e-002) (16, -3.18398699164390560000e-002) (17, 6.97437375783920290000e-002) (18, 1.33717215061187740000e+000) (19, 5.45618896484375000000e+002) (20, -3.41729462146759030000e-001) (21, 5.45120910644531250000e+002) (22, -1.72664448618888850000e-001) (23, 2.31836631894111630000e-001) (24, -2.48790942132472990000e-002) (25, -5.97017168998718260000e-001) (26, 1.22343325614929200000e+000) (27, 5.45425903320312500000e+002) (28, 6.19573593139648440000e-001) (29, 5.45050170898437500000e+002) (30, 1.89515203237533570000e-001) (31, 5.45666259765625000000e+002) (32, -1.52344331145286560000e-001) (33, -2.55902498960495000000e-001) (34, 8.44423115253448490000e-001) (35, 5.73104083538055420000e-001) (36, 5.69107830524444580000e-001) (37, 1.35128605365753170000e+000) (38, 4.36167836189270020000e-001) (39, 5.45391174316406250000e+002) (40, 3.08057337999343870000e-001) (41, 1.02460443973541260000e+000) (42, 1.20705902576446530000e+000) (43, -1.18076413869857790000e-001) (44, 1.78522324562072750000e+000) (45, -4.39777970314025880000e-001) (46, -3.20765316486358640000e-001) (47, 5.45615539550781250000e+002) (48, 7.57229626178741460000e-001) (49, 5.44886352539062500000e+002) (50, 1.51163446903228760000e+000) (51, 4.41220402717590330000e-001) (52, 6.43411755561828610000e-001) (53, -3.01026046276092530000e-001) (54, 7.18814730644226070000e-001) (55, -2.61738538742065430000e+000) (56, -2.66060918569564820000e-001) (57, 5.45337890625000000000e+002) (58, 3.41227322816848750000e-001) (59, 5.44868041992187500000e+002) (60, 1.56178820133209230000e+000) (61, 2.24453896284103390000e-001) (62, 6.85553789138793950000e-001) (63, 7.17210710048675540000e-001) (64, 1.00339603424072270000e+000) (65, -1.15620128810405730000e-001) (66, -1.76713660359382630000e-001) (67, 1.08104133605957030000e+000) (68, 8.99401962757110600000e-001) (69, 5.45137329101562500000e+002) (70, 2.55120187997817990000e-001) (71, -5.46284496784210210000e-001) (72, 6.75665676593780520000e-001) (73, 2.99972277134656910000e-002) (74, 8.52431416511535640000e-001) (75, 1.85670986771583560000e-001) (76, 8.55059176683425900000e-003) (77, 5.45303100585937500000e+002) (78, -3.96517515182495120000e-001) (79, 5.45463989257812500000e+002) (80, 1.09110486507415770000e+000) (81, 2.03033375740051270000e+000) (82, 1.71280550956726070000e+000) (83, 2.21911787986755370000e+000) (84, 1.72746670246124270000e+000) (85, 1.19975423812866210000e+000) (86, 3.92727226018905640000e-001) (87, 5.45482177734375000000e+002) (88, -5.95882356166839600000e-001) (89, 5.45016418457031250000e+002) (90, 5.45037109375000000000e+002) (91, 5.45349975585937500000e+002) (92, 5.45248901367187500000e+002) (93, 5.45028137207031250000e+002) (94, 5.44970947265625000000e+002) (95, 5.45249877929687500000e+002) (96, 5.45520141601562500000e+002) (97, 5.44976928710937500000e+002) (98, -8.56553494930267330000e-001) (99, 5.45229919433593750000e+002) (100, -1.58003723621368410000e+000) (0, -6.95914566516876220000e-001) (1, -5.94012252986431120000e-002) (2, -7.34798717498779300000e+000) (3, -2.45503306388854980000e+000) (4, 3.68447214365005490000e-001) (5, -5.42625427246093750000e-001) (6, 6.36596407275646920000e-004) (7, 4.40226346254348750000e-001) (8, 2.55698442459106450000e-001) (9, 5.44812744140625000000e+002) (10, 5.85439324378967290000e-001) (11, 2.01932504773139950000e-001) (12, -7.46717214584350590000e-001) (13, -8.25211852788925170000e-002) (14, 3.54711800813674930000e-001) (15, -7.63042330741882320000e-001) (16, -7.02345252037048340000e-001) (17, -3.89360673725605010000e-002) (18, 4.39841091632843020000e-001) (19, 5.44837768554687500000e+002) (20, 4.52347874641418460000e-001) (21, 5.45051269531250000000e+002) (22, -2.98277109861373900000e-001) (23, 3.94965112209320070000e-001) (24, -1.81045055389404300000e-001) (25, -1.14320039749145510000e+000) (26, 1.30743123590946200000e-002) (27, 5.45036132812500000000e+002) (28, 6.96281909942626950000e-001) (29, 5.45699401855468750000e+002) (30, 3.34542810916900630000e-001) (31, 5.45326599121093750000e+002) (32, -1.73536038398742680000e+000) (33, 4.76034343242645260000e-001) (34, -5.81866025924682620000e-001) (35, -6.78565353155136110000e-002) (36, -4.79748100042343140000e-002) (37, 5.97673773765563960000e-001) (38, 9.75412309169769290000e-001) (39, 5.45172058105468750000e+002) (40, -7.88648054003715520000e-002) (41, -1.83711111545562740000e-001) (42, -1.20876230299472810000e-001) (43, 1.27984985709190370000e-001) (44, -4.40741926431655880000e-001) (45, -4.52592998743057250000e-001) (46, 3.07083666324615480000e-001) (47, 5.45147277832031250000e+002) (48, 9.89301621913909910000e-001) (49, 5.45646484375000000000e+002) (50, 9.56305742263793950000e-001) (51, 6.85771465301513670000e-001) (52, 1.87749058008193970000e-001) (53, -1.94736063480377200000e-001) (54, 8.38841032236814500000e-003) (55, 1.01095104217529300000e+000) (56, 5.19683897495269780000e-001) (57, 5.45174926757812500000e+002) (58, 2.71890950202941890000e+000) (59, 5.45663696289062500000e+002) (60, 6.62594199180603030000e-001) (61, 3.21011602878570560000e-001) (62, 4.34864282608032230000e-001) (63, -4.05372649431228640000e-001) (64, -2.37016543745994570000e-001) (65, 4.18406426906585690000e-002) (66, 1.66028097271919250000e-001) (67, 9.49353754520416260000e-001) (68, 2.86947083473205570000e+000) (69, 5.45699218750000000000e+002) (70, -1.16940513253211980000e-002) (71, 1.42611950635910030000e-001) (72, -4.68510061502456670000e-001) (73, 2.16218471527099610000e-001) (74, 4.76788878440856930000e-001) (75, -7.26566910743713380000e-001) (76, 4.96065199375152590000e-001) (77, 5.44798583984375000000e+002) (78, -2.67484486103057860000e-001) (79, 5.44931762695312500000e+002) (80, -1.59798681735992430000e-001) (81, -3.33019226789474490000e-001) (82, -2.42452406883239750000e+000) (83, -2.33065819740295410000e+000) (84, -8.25194939970970150000e-002) (85, -3.34621220827102660000e-001) (86, -4.32886064052581790000e-001) (87, 5.45762329101562500000e+002) (88, -1.84867143630981450000e-001) (89, 5.44931518554687500000e+002) (90, 5.45408630371093750000e+002) (91, 5.45168457031250000000e+002) (92, 5.44919860839843750000e+002) (93, 5.45485717773437500000e+002) (94, 5.45713562011718750000e+002) (95, 5.45072204589843750000e+002) (96, 5.45692199707031250000e+002) (97, 5.45502075195312500000e+002) (98, -3.98428887128829960000e-001) (99, 5.45524230957031250000e+002) (100, -4.01596799492836000000e-002) (0, 3.90939682722091670000e-001) (1, -8.21415856480598450000e-002) (2, 1.37634143233299260000e-001) (3, 7.45826184749603270000e-001) (4, -4.77705523371696470000e-002) (5, 5.03844738006591800000e-001) (6, 7.93698906898498540000e-001) (7, 5.49333631992340090000e-001) (8, 4.09495770931243900000e-001) (9, 5.45573730468750000000e+002) (10, 7.71468639373779300000e-001) (11, 4.97029989957809450000e-001) (12, 6.06335341930389400000e-001) (13, 1.12883913516998290000e+000) (14, 1.58945631980896000000e+000) (15, 7.56160557270050050000e-001) (16, 6.64461135864257810000e-001) (17, -9.24355745315551760000e-001) (18, -1.74466475844383240000e-001) (19, 5.44963928222656250000e+002) (20, 1.13459432125091550000e+000) (21, 5.44810058593750000000e+002) (22, -1.57112792134284970000e-001) (23, 1.02537918090820310000e+000) (24, 3.30066919326782230000e-001) (25, 8.21144402027130130000e-001) (26, -3.26919883489608760000e-001) (27, 5.45547729492187500000e+002) (28, 2.05740272998809810000e-001) (29, 5.45202270507812500000e+002) (30, 7.34197974205017090000e-001) (31, 5.45363708496093750000e+002) (32, 5.83902299404144290000e-002) (33, 7.13734030723571780000e-001) (34, 1.06034886837005620000e+000) (35, 1.53214186429977420000e-001) (36, 7.68314480781555180000e-001) (37, 3.06192487478256230000e-001) (38, -3.19511502981185910000e-001) (39, 5.45124694824218750000e+002) (40, 6.07675969600677490000e-001) (41, 3.21336686611175540000e-002) (42, -2.68494244664907460000e-003) (43, 8.54795336723327640000e-001) (44, 2.23853513598442080000e-001) (45, 3.98463070392608640000e-001) (46, 5.26037096977233890000e-001) (47, 5.45516296386718750000e+002) (48, 2.57799744606018070000e-001) (49, 5.45455200195312500000e+002) (50, -5.42284697294235230000e-002) (51, 7.48049139976501460000e-001) (52, 1.87073677778244020000e-001) (53, -4.65449959039688110000e-001) (54, 8.59558045864105220000e-001) (55, 1.38757556676864620000e-001) (56, 6.18572831153869630000e-001) (57, 5.45690429687500000000e+002) (58, -5.63455633819103240000e-002) (59, 5.45679443359375000000e+002) (60, 1.25427573919296260000e-001) (61, -2.59842369705438610000e-002) (62, -6.03848457336425780000e-001) (63, -9.05818194150924680000e-002) (64, 9.66415643692016600000e-001) (65, 6.58116042613983150000e-001) (66, 4.30405527353286740000e-001) (67, 9.84059333801269530000e-001) (68, 4.73844945430755620000e-001) (69, 5.45157897949218750000e+002) (70, 7.40548968315124510000e-001) (71, 4.72888380289077760000e-001) (72, -5.40675818920135500000e-001) (73, 1.02407765388488770000e+000) (74, 1.89129626750946040000e+000) (75, 7.81628727912902830000e-001) (76, 1.05242386460304260000e-001) (77, 5.44851806640625000000e+002) (78, 3.24578016996383670000e-001) (79, 5.44950012207031250000e+002) (80, 4.34940367937088010000e-001) (81, 2.49513715505599980000e-001) (82, 6.26258492469787600000e-001) (83, 1.24401152133941650000e-001) (84, -4.71296235918998720000e-002) (85, 3.52031797170639040000e-001) (86, -4.09685373306274410000e-002) (87, 5.44998779296875000000e+002) (88, -1.04372255504131320000e-001) (89, 5.45291625976562500000e+002) (90, 5.44860473632812500000e+002) (91, 5.45558410644531250000e+002) (92, 5.44912475585937500000e+002) (93, 5.45098388671875000000e+002) (94, 5.45696044921875000000e+002) (95, 5.44862854003906250000e+002) (96, 5.45382690429687500000e+002) (97, 5.45487548828125000000e+002) (98, 1.68925300240516660000e-001) (99, 5.45669311523437500000e+002) (100, -5.96192359924316410000e-001) (0, -2.58765786886215210000e-001) (1, -7.03133106231689450000e-001) (2, 1.22238412499427800000e-001) (3, 4.80941325426101680000e-001) (4, 4.76505339145660400000e-001) (5, -4.75490182638168330000e-001) (6, 1.17613151669502260000e-001) (7, 1.94802597165107730000e-001) (8, 7.32909068465232850000e-002) (9, 5.45283447265625000000e+002) (10, 5.00522255897521970000e-001) (11, -6.03436470031738280000e-001) (12, 7.38116145133972170000e-001) (13, -2.88919150829315190000e-001) (14, 2.71044611930847170000e-001) (15, -3.90380412340164180000e-001) (16, -2.66222041100263600000e-002) (17, 8.11564996838569640000e-002) (18, 4.02094006538391110000e-001) (19, 5.45714477539062500000e+002) (20, -4.76753935217857360000e-002) (21, 5.45332519531250000000e+002) (22, 3.52638334035873410000e-001) (23, 6.23021781444549560000e-001) (24, 8.38238596916198730000e-001) (25, -5.59087656438350680000e-002) (26, -1.06255400180816650000e+000) (27, 5.44897216796875000000e+002) (28, -5.76534941792488100000e-002) (29, 5.45046875000000000000e+002) (30, 4.67225313186645510000e-001) (31, 5.44885437011718750000e+002) (32, 4.02772814035415650000e-001) (33, 5.01131653785705570000e-001) (34, -2.41958573460578920000e-001) (35, 2.31726840138435360000e-002) (36, 4.10846322774887080000e-001) (37, 7.85558700561523440000e-001) (38, 4.56662699580192570000e-002) (39, 5.44938842773437500000e+002) (40, -5.16813024878501890000e-002) (41, 1.50631099939346310000e-001) (42, 3.44868190586566930000e-002) (43, -7.09190189838409420000e-001) (44, -1.37677222490310670000e-001) (45, 8.40398013591766360000e-001) (46, -1.62083804607391360000e-001) (47, 5.45054321289062500000e+002) (48, 1.59079635143280030000e+000) (49, 5.45507690429687500000e+002) (50, -4.58857506513595580000e-001) (51, -3.27088564634323120000e-001) (52, 3.10630984604358670000e-002) (53, -7.47386038303375240000e-001) (54, -4.16915025562047960000e-003) (55, 2.12074533104896550000e-001) (56, -6.10142588615417480000e-001) (57, 5.44955627441406250000e+002) (58, 1.68137955665588380000e+000) (59, 5.45176452636718750000e+002) (60, -2.37187698483467100000e-001) (61, 1.47913470864295960000e-001) (62, 8.14999163150787350000e-001) (63, -1.55396103858947750000e-001) (64, -4.75905567407608030000e-001) (65, 3.02174687385559080000e-001) (66, 1.70789733529090880000e-001) (67, 5.00894606113433840000e-001) (68, 7.75034666061401370000e-001) (69, 5.44887084960937500000e+002) (70, -1.45881354808807370000e-001) (71, -6.18920385837554930000e-001) (72, 2.14800566434860230000e-001) (73, 1.38324275612831120000e-001) (74, 1.91516757011413570000e-001) (75, 4.29903328418731690000e-001) (76, -8.21172714233398440000e-001) (77, 5.44780273437500000000e+002) (78, 1.04242134094238280000e+000) (79, 5.44982910156250000000e+002) (80, -7.47772514820098880000e-001) (81, 4.14812080562114720000e-002) (82, 7.53053486347198490000e-001) (83, 5.04015445709228520000e-001) (84, -1.13257311284542080000e-001) (85, 2.82039403915405270000e-001) (86, -4.34336930513381960000e-001) (87, 5.45305786132812500000e+002) (88, 1.58306166529655460000e-001) (89, 5.45414916992187500000e+002) (90, 5.45341918945312500000e+002) (91, 5.45678039550781250000e+002) (92, 5.44834899902343750000e+002) (93, 5.44794311523437500000e+002) (94, 5.45722045898437500000e+002) (95, 5.44956726074218750000e+002) (96, 5.45218750000000000000e+002) (97, 5.45301269531250000000e+002) (98, 3.18990230560302730000e-001) (99, 5.45079345703125000000e+002) (100, -4.59048867225646970000e-001) (0, 9.94073092937469480000e-001) (1, 9.55591320991516110000e-001) (2, 6.01503789424896240000e-001) (3, 9.55922007560729980000e-001) (4, 4.27782744169235230000e-001) (5, 5.93057096004486080000e-001) (6, 1.07266545295715330000e+000) (7, 2.54575788974761960000e-001) (8, 8.78325179219245910000e-002) (9, 5.45077758789062500000e+002) (10, 9.33068275451660160000e-001) (11, 5.64684271812438960000e-001) (12, -4.02475409209728240000e-002) (13, 1.04940676689147950000e+000) (14, 1.50307863950729370000e-001) (15, 7.66753494739532470000e-001) (16, 6.40517234802246090000e-001) (17, -1.58776843547821040000e+000) (18, 4.22852814197540280000e-001) (19, 5.45267944335937500000e+002) (20, 9.66269075870513920000e-001) (21, 5.45600952148437500000e+002) (22, 1.09985642135143280000e-001) (23, -1.57418847084045410000e-001) (24, -3.27125579118728640000e-001) (25, -4.06542444229125980000e+000) (26, 7.54766702651977540000e-001) (27, 5.45127563476562500000e+002) (28, -2.21806466579437260000e-001) (29, 5.45592407226562500000e+002) (30, 2.89466649293899540000e-001) (31, 5.45634582519531250000e+002) (32, -2.59560465812683110000e+000) (33, -5.65153956413269040000e-001) (34, 1.01800668239593510000e+000) (35, -5.97139634191989900000e-002) (36, 1.16963541507720950000e+000) (37, 1.00333139300346370000e-001) (38, 3.72635006904602050000e-001) (39, 5.45154052734375000000e+002) (40, 9.22428667545318600000e-001) (41, 4.37862902879714970000e-001) (42, 6.42962893471121790000e-003) (43, -3.89144383370876310000e-003) (44, 3.44809621572494510000e-001) (45, 4.45257782936096190000e-001) (46, 9.89456921815872190000e-002) (47, 5.45294189453125000000e+002) (48, 2.79064148664474490000e-001) (49, 5.45161621093750000000e+002) (50, 1.16487368941307070000e-001) (51, -1.72293156385421750000e-001) (52, 1.50699779391288760000e-001) (53, -8.58869589865207670000e-003) (54, 6.24449491500854490000e-001) (55, -2.63959956169128420000e+000) (56, -3.51644456386566160000e-001) (57, 5.45382934570312500000e+002) (58, -1.99154317378997800000e-001) (59, 5.45718750000000000000e+002) (60, -1.75557851791381840000e-001) (61, -2.17447519302368160000e-001) (62, -3.00459176301956180000e-001) (63, 2.24313408136367800000e-001) (64, 8.42966079711914060000e-001) (65, 3.26357334852218630000e-001) (66, 1.69854581356048580000e-001) (67, 6.47446513175964360000e-001) (68, 1.47281885147094730000e-001) (69, 5.45054748535156250000e+002) (70, 6.77882850170135500000e-001) (71, 5.41293658316135410000e-002) (72, 4.09000456333160400000e-001) (73, 1.07953441143035890000e+000) (74, 6.67177736759185790000e-001) (75, 6.26531898975372310000e-001) (76, -6.18949174880981450000e-001) (77, 5.44935668945312500000e+002) (78, -5.26030659675598140000e-001) (79, 5.45524658203125000000e+002) (80, 1.12428045272827150000e+000) (81, 1.53709188103675840000e-001) (82, 1.03453350067138670000e+000) (83, 1.35856163501739500000e+000) (84, 9.61911618709564210000e-001) (85, -1.97935938835144040000e-001) (86, -1.68142151832580570000e+000) (87, 5.45616455078125000000e+002) (88, -8.55699062347412110000e-001) (89, 5.45429199218750000000e+002) (90, 5.45315246582031250000e+002) (91, 5.45620483398437500000e+002) (92, 5.45161132812500000000e+002) (93, 5.45706787109375000000e+002) (94, 5.45481445312500000000e+002) (95, 5.45704406738281250000e+002) (96, 5.45026306152343750000e+002) (97, 5.45418090820312500000e+002) (98, -5.92784762382507320000e-001) (99, 5.45531494140625000000e+002) (100, -7.48472332954406740000e-001) (0, 9.06293630599975590000e-001) (1, 8.56290757656097410000e-002) (2, -6.58215284347534180000e-002) (3, 4.85345363616943360000e-001) (4, -9.48293626308441160000e-001) (5, -1.05709806084632870000e-001) (6, 6.84127807617187500000e-002) (7, -1.41079342365264890000e+000) (8, -4.84900772571563720000e-001) (9, 5.45571044921875000000e+002) (10, 3.37112903594970700000e-001) (11, 2.89171248674392700000e-001) (12, -1.16480156779289250000e-001) (13, -1.07348281890153880000e-002) (14, -3.94136458635330200000e-001) (15, 1.14731705188751220000e+000) (16, 4.94018234312534330000e-002) (17, -2.35746636986732480000e-001) (18, -4.99994933605194090000e-001) (19, 5.45478637695312500000e+002) (20, 4.86708730459213260000e-001) (21, 5.44760375976562500000e+002) (22, -2.42418244481086730000e-001) (23, 3.18929433822631840000e-001) (24, 2.33963906764984130000e-001) (25, 3.38410109281539920000e-001) (26, -6.37943744659423830000e-001) (27, 5.45669616699218750000e+002) (28, -4.20838624238967900000e-001) (29, 5.44798828125000000000e+002) (30, 2.03091993927955630000e-001) (31, 5.45677124023437500000e+002) (32, -3.13915014266967770000e-001) (33, -1.96580052375793460000e-001) (34, -4.52301919460296630000e-001) (35, -6.88013613224029540000e-001) (36, -2.03787907958030700000e-001) (37, -1.50988292694091800000e+000) (38, -3.95617574453353880000e-001) (39, 5.45179687500000000000e+002) (40, 9.73664283752441410000e-001) (41, 1.24662108719348910000e-001) (42, -5.68589210510253910000e-001) (43, -2.91258245706558230000e-001) (44, -2.45535343885421750000e-001) (45, 3.12454134225845340000e-001) (46, -4.82322096824646000000e-001) (47, 5.45392272949218750000e+002) (48, -3.35927128791809080000e-001) (49, 5.44817260742187500000e+002) (50, 1.18189704418182370000e+000) (51, 3.33086669445037840000e-001) (52, -5.39980649948120120000e-001) (53, 4.19250905513763430000e-001) (54, 3.27651053667068480000e-002) (55, -4.80601578950881960000e-001) (56, 2.34450306743383410000e-002) (57, 5.44937377929687500000e+002) (58, -7.47151613235473630000e-001) (59, 5.45124877929687500000e+002) (60, 1.03300654888153080000e+000) (61, 5.06269156932830810000e-001) (62, -1.13237130641937260000e+000) (63, 1.58816501498222350000e-001) (64, 5.11226892471313480000e-001) (65, -9.60396751761436460000e-002) (66, -1.04564189910888670000e-001) (67, -6.15443944931030270000e-001) (68, -5.77027082443237300000e-001) (69, 5.45271911621093750000e+002) (70, 1.54162645339965820000e-001) (71, -9.35691833496093750000e-001) (72, -3.02629871293902400000e-003) (73, 4.46326464414596560000e-001) (74, 3.72739791870117190000e-001) (75, 2.55685001611709590000e-001) (76, 4.06984657049179080000e-001) (77, 5.45463256835937500000e+002) (78, 1.25837934017181400000e+000) (79, 5.44895996093750000000e+002) (80, 1.36969447135925290000e+000) (81, 4.88108545541763310000e-001) (82, -2.24049076437950130000e-001) (83, 6.30839169025421140000e-001) (84, -3.08793962001800540000e-001) (85, 4.71628755331039430000e-001) (86, -1.74150437116622920000e-001) (87, 5.45130493164062500000e+002) (88, 1.23354291915893550000e+000) (89, 5.45215087890625000000e+002) (90, 5.44921203613281250000e+002) (91, 5.44755126953125000000e+002) (92, 5.45742553710937500000e+002) (93, 5.45600708007812500000e+002) (94, 5.45177795410156250000e+002) (95, 5.45580078125000000000e+002) (96, 5.45130432128906250000e+002) (97, 5.45009155273437500000e+002) (98, 8.71282458305358890000e-001) (99, 5.45137756347656250000e+002) (100, -1.37743079662323000000e+000) (0, 4.36567008495330810000e-001) (1, 2.28422544896602630000e-002) (2, 1.46750882267951970000e-001) (3, 1.85455664992332460000e-001) (4, -3.31275105476379390000e-001) (5, -3.32178175449371340000e-001) (6, 4.55314993858337400000e-001) (7, -2.65813291072845460000e-001) (8, 7.73708045482635500000e-001) (9, 5.44806579589843750000e+002) (10, 4.87651020288467410000e-001) (11, -1.33871018886566160000e+000) (12, 1.30160856246948240000e+000) (13, -4.46325615048408510000e-002) (14, 1.70288622379302980000e-001) (15, 5.00739288330078120000e+000) (16, 7.48497545719146730000e-001) (17, 2.41027727723121640000e-001) (18, 3.07839483022689820000e-001) (19, 5.45491760253906250000e+002) (20, -2.43334323167800900000e-002) (21, 5.45312011718750000000e+002) (22, 2.64642387628555300000e-001) (23, 1.11310362815856930000e+000) (24, -1.96736216545104980000e+000) (25, -1.45444726943969730000e+000) (26, -3.13634842634201050000e-001) (27, 5.45626892089843750000e+002) (28, 3.52737486362457280000e-001) (29, 5.45644287109375000000e+002) (30, -3.54450374841690060000e-001) (31, 5.45050781250000000000e+002) (32, -1.57702493667602540000e+000) (33, 2.24389672279357910000e+000) (34, 4.43588614463806150000e-001) (35, 5.09750723838806150000e-001) (36, -2.97961682081222530000e-001) (37, 4.58739429712295530000e-001) (38, -5.92919811606407170000e-002) (39, 5.44984619140625000000e+002) (40, -2.87984788417816160000e-001) (41, -1.99906206130981450000e+000) (42, -2.03743487596511840000e-001) (43, -1.50735229253768920000e-001) (44, -4.03879016637802120000e-001) (45, 5.02754002809524540000e-002) (46, 5.76554596424102780000e-001) (47, 5.45565307617187500000e+002) (48, 2.33002454042434690000e-001) (49, 5.45512023925781250000e+002) (50, 4.43516433238983150000e-001) (51, 2.37937182188034060000e-001) (52, 4.81558918952941890000e-001) (53, 2.70175397396087650000e-001) (54, 6.01043216884136200000e-002) (55, 1.07318413257598880000e+000) (56, 1.07704234123229980000e+000) (57, 5.45530273437500000000e+002) (58, 5.26928961277008060000e-001) (59, 5.45254882812500000000e+002) (60, 6.14807903766632080000e-001) (61, -5.99709749221801760000e-001) (62, -1.64029717445373540000e-001) (63, -4.54079322516918180000e-002) (64, -5.70500373840332030000e-001) (65, 1.63193404674530030000e-001) (66, 9.22748446464538570000e-001) (67, 6.37608528137207030000e-001) (68, -2.84239888191223140000e-001) (69, 5.45705444335937500000e+002) (70, -1.42296206951141360000e+000) (71, -1.37147212028503420000e+000) (72, 5.04785835742950440000e-001) (73, 1.37524867057800290000e+000) (74, 3.75700503587722780000e-001) (75, 7.73940682411193850000e-001) (76, 1.27916336059570310000e+000) (77, 5.44741699218750000000e+002) (78, -2.39010393619537350000e-001) (79, 5.45098510742187500000e+002) (80, 7.84053742885589600000e-001) (81, -2.95257151126861570000e-001) (82, -1.33220687508583070000e-001) (83, -6.74079537391662600000e-001) (84, 4.19130995869636540000e-002) (85, 4.64470952749252320000e-001) (86, 7.52709388732910160000e-001) (87, 5.45065246582031250000e+002) (88, -1.18609488010406490000e-001) (89, 5.45296813964843750000e+002) (90, 5.45458984375000000000e+002) (91, 5.45622741699218750000e+002) (92, 5.44835083007812500000e+002) (93, 5.45748901367187500000e+002) (94, 5.45444824218750000000e+002) (95, 5.45299804687500000000e+002) (96, 5.45368652343750000000e+002) (97, 5.44799926757812500000e+002) (98, -2.40035951137542720000e-001) (99, 5.45526855468750000000e+002) (100, -3.93993854522705080000e-001) (0, 5.57772636413574220000e-001) (1, 5.20522177219390870000e-001) (2, 1.13812625408172610000e-001) (3, 7.99726665019989010000e-001) (4, -1.94084048271179200000e+000) (5, -3.12532544136047360000e-001) (6, -8.14216911792755130000e-001) (7, 3.84828269481658940000e-001) (8, 3.42496573925018310000e-001) (9, 5.45497253417968750000e+002) (10, 2.74754196405410770000e-001) (11, 6.95573210716247560000e-001) (12, 1.81922078132629390000e+000) (13, -1.34856358170509340000e-001) (14, -2.37054467201232910000e-001) (15, -5.25232076644897460000e-001) (16, -8.19484174251556400000e-001) (17, 6.87866568565368650000e-001) (18, 3.11923623085021970000e-001) (19, 5.45093139648437500000e+002) (20, 1.16277873516082760000e+000) (21, 5.45138244628906250000e+002) (22, 3.82699698209762570000e-001) (23, -2.31892377138137820000e-001) (24, -9.56622898578643800000e-001) (25, 1.20151057839393620000e-001) (26, -1.15254968404769900000e-001) (27, 5.45492065429687500000e+002) (28, 2.36741125583648680000e-001) (29, 5.45251953125000000000e+002) (30, 7.56325781345367430000e-001) (31, 5.45488281250000000000e+002) (32, 1.08650827407836910000e+000) (33, 3.41361790895462040000e-001) (34, 1.95186901092529300000e+000) (35, 5.70964157581329350000e-001) (36, 3.21833491325378420000e-001) (37, 3.90949249267578130000e-001) (38, 3.64576995372772220000e-001) (39, 5.45768310546875000000e+002) (40, 2.25209414958953860000e-001) (41, 6.50248527526855470000e-001) (42, -3.78165334463119510000e-001) (43, 2.62125641107559200000e-001) (44, -1.69744348526000980000e+000) (45, -5.43647110462188720000e-001) (46, -2.04323783516883850000e-001) (47, 5.45114624023437500000e+002) (48, 6.76812708377838130000e-001) (49, 5.45134277343750000000e+002) (50, 1.34899520874023440000e+000) (51, -3.12245392799377440000e+000) (52, -1.24046877026557920000e-001) (53, 1.25792706012725830000e+000) (54, 4.49863821268081670000e-001) (55, -4.06914681196212770000e-001) (56, 2.46081277728080750000e-001) (57, 5.45398315429687500000e+002) (58, -9.69373211264610290000e-002) (59, 5.45599548339843750000e+002) (60, 1.07188379764556880000e+000) (61, -2.67203211784362790000e+000) (62, -8.56547117233276370000e-001) (63, 2.17479899525642400000e-001) (64, -7.24173367023468020000e-001) (65, -2.83026844263076780000e-001) (66, 1.63141861557960510000e-001) (67, 1.20062768459320070000e-001) (68, -1.01497501134872440000e-001) (69, 5.44999023437500000000e+002) (70, 5.34618794918060300000e-001) (71, -2.48546395450830460000e-002) (72, 5.13221681118011470000e-001) (73, -8.15320089459419250000e-002) (74, -3.12733203172683720000e-001) (75, 1.25296160578727720000e-001) (76, 3.87184560298919680000e-001) (77, 5.45322387695312500000e+002) (78, 6.72267913818359380000e-001) (79, 5.45153869628906250000e+002) (80, 1.21948099136352540000e+000) (81, -3.57920676469802860000e-001) (82, 6.03040121495723720000e-002) (83, 6.31223022937774660000e-001) (84, -2.11780452728271480000e+000) (85, -2.22463458776474000000e-001) (86, -5.71900941431522370000e-002) (87, 5.45314208984375000000e+002) (88, 5.86894392967224120000e-001) (89, 5.45285400390625000000e+002) (90, 5.44945800781250000000e+002) (91, 5.45103637695312500000e+002) (92, 5.45292968750000000000e+002) (93, 5.44822143554687500000e+002) (94, 5.45463134765625000000e+002) (95, 5.45720336914062500000e+002) (96, 5.45634643554687500000e+002) (97, 5.45780273437500000000e+002) (98, 7.11525619029998780000e-001) (99, 5.44950561523437500000e+002) (100, 9.34314846992492680000e-001) (0, 9.06275272369384770000e-001) (1, -1.25565081834793090000e-001) (2, -1.03772662580013280000e-001) (3, 7.10217177867889400000e-001) (4, 3.49250912666320800000e-001) (5, -4.73160296678543090000e-001) (6, -7.01965987682342530000e-001) (7, -2.90577113628387450000e-001) (8, 1.02983868122100830000e+000) (9, 5.45599975585937500000e+002) (10, -5.07178604602813720000e-002) (11, -1.55041679739952090000e-001) (12, -4.59357440471649170000e-001) (13, -1.50378811359405520000e+000) (14, 7.57576301693916320000e-002) (15, 4.22846734523773190000e-001) (16, 6.96611642837524410000e-001) (17, 2.27900102734565730000e-001) (18, 4.05561327934265140000e-001) (19, 5.44930480957031250000e+002) (20, 8.60733449459075930000e-001) (21, 5.45130432128906250000e+002) (22, 1.63307487964630130000e+000) (23, 2.36909344792366030000e-001) (24, 1.44872641563415530000e+000) (25, 7.90824890136718750000e-002) (26, 8.72172296047210690000e-001) (27, 5.44823852539062500000e+002) (28, 5.43524026870727540000e-001) (29, 5.44974121093750000000e+002) (30, 9.45914566516876220000e-001) (31, 5.45762084960937500000e+002) (32, 6.94416046142578130000e-001) (33, 4.35285717248916630000e-001) (34, -2.19044733047485350000e+000) (35, -1.90879374742507930000e-001) (36, 6.62111118435859680000e-002) (37, -6.64470374584198000000e-001) (38, 9.98785138130187990000e-001) (39, 5.45528198242187500000e+002) (40, -2.24522501230239870000e-002) (41, -4.67181771993637080000e-001) (42, -2.27074757218360900000e-001) (43, -1.34193867444992070000e-001) (44, -9.79564249515533450000e-001) (45, -5.46252071857452390000e-001) (46, 7.04589545726776120000e-001) (47, 5.45013732910156250000e+002) (48, 2.66966313123703000000e-001) (49, 5.44949462890625000000e+002) (50, -5.00636577606201170000e-001) (51, -3.26252102851867680000e-001) (52, 1.29242229461669920000e+000) (53, 5.87631404399871830000e-001) (54, 1.62080824375152590000e-001) (55, 1.73133957386016850000e+000) (56, 6.40653371810913090000e-002) (57, 5.45563903808593750000e+002) (58, 6.27261772751808170000e-002) (59, 5.45085266113281250000e+002) (60, -7.48937249183654790000e-001) (61, 4.17817145586013790000e-001) (62, 7.82360792160034180000e-001) (63, -4.57166165113449100000e-001) (64, 6.15679860115051270000e-001) (65, 2.18842715024948120000e-001) (66, 4.44043517112731930000e-001) (67, 6.75038516521453860000e-001) (68, 9.39726948738098140000e-001) (69, 5.45224731445312500000e+002) (70, -3.68953943252563480000e-001) (71, 2.72755455225706100000e-002) (72, 7.34436213970184330000e-001) (73, -1.00994265079498290000e+000) (74, -6.13990843296051030000e-001) (75, -6.13646465353667740000e-004) (76, 1.09668247401714320000e-001) (77, 5.44851684570312500000e+002) (78, -5.15453875064849850000e-001) (79, 5.45413574218750000000e+002) (80, 4.12717938423156740000e-001) (81, 2.57942378520965580000e-001) (82, -1.53067171573638920000e-001) (83, 3.53308826684951780000e-001) (84, 1.07383537292480470000e+000) (85, 2.19754561781883240000e-001) (86, 7.66399323940277100000e-001) (87, 5.45563964843750000000e+002) (88, -1.87900558114051820000e-001) (89, 5.45439819335937500000e+002) (90, 5.44931152343750000000e+002) (91, 5.44985534667968750000e+002) (92, 5.45210205078125000000e+002) (93, 5.45476562500000000000e+002) (94, 5.45520874023437500000e+002) (95, 5.44990051269531250000e+002) (96, 5.45054077148437500000e+002) (97, 5.45537658691406250000e+002) (98, -4.96033370494842530000e-001) (99, 5.45073303222656250000e+002) (100, 5.42343370616436000000e-002) (0, 1.86055183410644530000e-001) (1, 2.02399060130119320000e-001) (2, 2.86214388906955720000e-002) (3, -7.25868165493011470000e-001) (4, 1.14768850803375240000e+000) (5, 1.52961206436157230000e+000) (6, -1.09972882270812990000e+000) (7, 1.05481636524200440000e+000) (8, 5.81065773963928220000e-001) (9, 5.45163208007812500000e+002) (10, -1.59109070897102360000e-001) (11, 4.03253853321075440000e-001) (12, 4.23773974180221560000e-002) (13, 1.88035979866981510000e-001) (14, 4.65600863099098210000e-002) (15, 3.45618665218353270000e-001) (16, 5.03285288810729980000e-001) (17, 6.15035772323608400000e-001) (18, 2.03486770391464230000e-001) (19, 5.45771484375000000000e+002) (20, 2.46446937322616580000e-001) (21, 5.44860473632812500000e+002) (22, 1.28477263450622560000e+000) (23, 5.83081007003784180000e-001) (24, 2.03244471549987790000e+000) (25, 2.66944825649261470000e-001) (26, 4.49790924787521360000e-001) (27, 5.45300109863281250000e+002) (28, 6.04285076260566710000e-002) (29, 5.45500549316406250000e+002) (30, 3.14258515834808350000e-001) (31, 5.44928710937500000000e+002) (32, -1.48175805807113650000e-001) (33, 3.18339943885803220000e-001) (34, 2.26197123527526860000e+000) (35, -3.99760216474533080000e-001) (36, -2.92814522981643680000e-003) (37, 1.80311644077301030000e+000) (38, 1.14043273031711580000e-001) (39, 5.44929809570312500000e+002) (40, -4.01993960142135620000e-001) (41, -1.70331537723541260000e-001) (42, -4.04549777507781980000e-001) (43, -4.02523465454578400000e-002) (44, 1.64765810966491700000e+000) (45, -1.23363757133483890000e+000) (46, 6.35857164859771730000e-001) (47, 5.44795532226562500000e+002) (48, -4.20082062482833860000e-001) (49, 5.45241821289062500000e+002) (50, 2.35239005088806150000e+000) (51, 3.51813435554504390000e-002) (52, -9.17072892189025880000e-001) (53, 3.51769328117370610000e-001) (54, 2.13491654396057130000e+000) (55, 1.26173424720764160000e+000) (56, 8.71945500373840330000e-001) (57, 5.45255981445312500000e+002) (58, -4.39911842346191410000e-001) (59, 5.45180541992187500000e+002) (60, 2.00358963012695310000e+000) (61, -4.40461754798889160000e-001) (62, -1.31394386291503910000e+000) (63, 1.96568816900253300000e-001) (64, 3.27997136116027830000e+000) (65, 2.26119399070739750000e-001) (66, 5.33993363380432130000e-001) (67, -3.96853126585483550000e-002) (68, -4.92597341537475590000e-001) (69, 5.45451416015625000000e+002) (70, -2.57250607013702390000e-001) (71, -1.31556205451488490000e-003) (72, -9.40863609313964840000e-001) (73, -3.81528764963150020000e-001) (74, 2.36930117011070250000e-001) (75, -9.23954010009765630000e-001) (76, 1.29820370674133300000e+000) (77, 5.44769165039062500000e+002) (78, 1.27106159925460820000e-001) (79, 5.44952758789062500000e+002) (80, 1.01166302338242530000e-002) (81, 5.41171766817569730000e-002) (82, -7.08466470241546630000e-001) (83, -2.25613102316856380000e-001) (84, 1.09122133255004880000e+000) (85, 1.02812492847442630000e+000) (86, 2.11614036560058590000e+000) (87, 5.45323608398437500000e+002) (88, 6.00698173046112060000e-001) (89, 5.45666870117187500000e+002) (90, 5.44953002929687500000e+002) (91, 5.45783569335937500000e+002) (92, 5.45480957031250000000e+002) (93, 5.45578430175781250000e+002) (94, 5.45674072265625000000e+002) (95, 5.45626953125000000000e+002) (96, 5.45561035156250000000e+002) (97, 5.45369445800781250000e+002) (98, 2.40360602736473080000e-001) (99, 5.45075073242187500000e+002) (100, -4.71700370311737060000e-001) (0, -8.08240473270416260000e-001) (1, -1.22424805164337160000e+000) (2, -1.40274512767791750000e+000) (3, 2.51523166894912720000e-001) (4, -5.34153521060943600000e-001) (5, -3.53770464658737180000e-001) (6, 1.45242854952812190000e-001) (7, 4.01863753795623780000e-002) (8, -1.12525828182697300000e-001) (9, 5.45742431640625000000e+002) (10, -2.12705552577972410000e-001) (11, 2.98320800065994260000e-001) (12, -7.75266587734222410000e-001) (13, 9.46372509002685550000e-001) (14, 1.11263763904571530000e+000) (15, 2.50368618965148930000e+000) (16, 4.77675050497055050000e-001) (17, 3.49995762109756470000e-001) (18, -2.04148560762405400000e-001) (19, 5.45480834960937500000e+002) (20, 3.57123792171478270000e-001) (21, 5.44989562988281250000e+002) (22, -1.79537251591682430000e-001) (23, 2.92776048183441160000e-001) (24, 9.11287069320678710000e-001) (25, -4.09755259752273560000e-001) (26, 6.09224438667297360000e-001) (27, 5.45015014648437500000e+002) (28, 6.64250999689102170000e-002) (29, 5.45182800292968750000e+002) (30, 6.50547027587890630000e-001) (31, 5.45190063476562500000e+002) (32, 2.53764510154724120000e-001) (33, -2.44812741875648500000e-001) (34, 2.32538014650344850000e-001) (35, -8.51059481501579280000e-002) (36, -6.30725383758544920000e-001) (37, -7.53203332424163820000e-001) (38, 2.49157637357711790000e-001) (39, 5.45112609863281250000e+002) (40, 3.09790223836898800000e-001) (41, -9.85821187496185300000e-001) (42, -2.45489811897277830000e+000) (43, -1.56571626663208010000e+000) (44, 6.31819069385528560000e-001) (45, -3.39893400669097900000e-002) (46, 1.30139201879501340000e-001) (47, 5.45447143554687500000e+002) (48, 5.67390024662017820000e-001) (49, 5.45540893554687500000e+002) (50, 9.05991494655609130000e-001) (51, -3.07853221893310550000e+000) (52, -2.96641683578491210000e+000) (53, -1.46572208404541020000e+000) (54, -3.14341604709625240000e-001) (55, -6.74048721790313720000e-001) (56, 7.27625191211700440000e-001) (57, 5.45650207519531250000e+002) (58, -6.00958704948425290000e-001) (59, 5.44780395507812500000e+002) (60, 7.72034704685211180000e-001) (61, -3.83862495422363280000e+000) (62, -2.42956352233886720000e+000) (63, -1.53256535530090330000e-001) (64, 9.73894655704498290000e-001) (65, -2.28805124759674070000e-001) (66, -4.69061911106109620000e-001) (67, 3.78544896841049190000e-001) (68, -9.17457103729248050000e-001) (69, 5.45494018554687500000e+002) (70, 3.01240146160125730000e-001) (71, -1.18650734424591060000e+000) (72, -4.45083022117614750000e-001) (73, -6.97474479675292970000e-002) (74, 1.08687222003936770000e+000) (75, 1.17175769805908200000e+000) (76, 4.42790627479553220000e-001) (77, 5.45442871093750000000e+002) (78, 1.60537913441658020000e-001) (79, 5.45541625976562500000e+002) (80, -3.17439317703247070000e-001) (81, -6.43202185630798340000e-001) (82, 2.45977044105529790000e-002) (83, -2.24953070282936100000e-001) (84, -1.10036146640777590000e+000) (85, -1.87295526266098020000e-001) (86, 1.98405757546424870000e-001) (87, 5.45752807617187500000e+002) (88, 8.86436820030212400000e-001) (89, 5.45133850097656250000e+002) (90, 5.45140136718750000000e+002) (91, 5.45517822265625000000e+002) (92, 5.45137084960937500000e+002) (93, 5.45022399902343750000e+002) (94, 5.45610778808593750000e+002) (95, 5.44765686035156250000e+002) (96, 5.45358642578125000000e+002) (97, 5.45378051757812500000e+002) (98, 6.06088876724243160000e-001) (99, 5.45611572265625000000e+002) (100, -1.67233765125274660000e+000) (0, 1.28440785408020020000e+000) (1, -3.65708738565444950000e-001) (2, 7.79067516326904300000e-001) (3, -2.27370947599411010000e-001) (4, -7.16197371482849120000e-001) (5, 3.84501129388809200000e-001) (6, 9.38083708286285400000e-001) (7, 2.22974181175231930000e-001) (8, 2.03512102365493770000e-001) (9, 5.45210510253906250000e+002) (10, 1.05926871299743650000e+000) (11, 1.03214490413665770000e+000) (12, 1.80571787059307100000e-002) (13, 3.57467055320739750000e-001) (14, -7.65895485877990720000e-001) (15, 2.20698922872543330000e-001) (16, 3.09160351753234860000e-001) (17, 4.03240501880645750000e-001) (18, 1.05045282840728760000e+000) (19, 5.45160522460937500000e+002) (20, 7.91403874754905700000e-002) (21, 5.45650146484375000000e+002) (22, -1.59954935312271120000e-001) (23, 5.22668957710266110000e-001) (24, -6.14959836006164550000e-001) (25, -1.87404382228851320000e+000) (26, -2.58737087249755860000e-001) (27, 5.45576416015625000000e+002) (28, 1.40154972672462460000e-001) (29, 5.45050842285156250000e+002) (30, 8.09076845645904540000e-001) (31, 5.45618652343750000000e+002) (32, -3.34782481193542480000e-001) (33, 6.06828272342681880000e-001) (34, -7.50461220741271970000e-001) (35, 7.62749761343002320000e-002) (36, 1.31921827793121340000e+000) (37, -1.90774798393249510000e-002) (38, 9.51362907886505130000e-001) (39, 5.45049987792968750000e+002) (40, 3.97656440734863280000e-001) (41, -1.69027239084243770000e-001) (42, -4.27268519997596740000e-002) (43, 1.49575117975473400000e-002) (44, -1.02001674473285680000e-001) (45, -2.25449132919311520000e+000) (46, 5.26391446590423580000e-001) (47, 5.45412231445312500000e+002) (48, 1.14308863878250120000e-001) (49, 5.45421997070312500000e+002) (50, 1.93865454196929930000e+000) (51, 3.30329090356826780000e-002) (52, -3.64527702331542970000e-001) (53, 3.95102739334106450000e-001) (54, -3.17305237054824830000e-001) (55, -1.10387563705444340000e+000) (56, 8.64373803138732910000e-001) (57, 5.44883056640625000000e+002) (58, 2.20627442002296450000e-001) (59, 5.45088256835937500000e+002) (60, 1.52845180034637450000e+000) (61, 2.85051316022872920000e-001) (62, -3.98689925670623780000e-001) (63, 7.79605925083160400000e-001) (64, 1.58465504646301270000e-001) (65, 3.01053196191787720000e-001) (66, 1.46034613251686100000e-001) (67, 1.40199685096740720000e+000) (68, 6.05735242366790770000e-001) (69, 5.45138671875000000000e+002) (70, 1.38540893793106080000e-001) (71, 5.92104971408843990000e-001) (72, -1.97079747915267940000e-001) (73, 1.01313479244709010000e-001) (74, -3.52443814277648930000e-001) (75, -5.30749380588531490000e-001) (76, -4.10525463521480560000e-002) (77, 5.44884155273437500000e+002) (78, 4.07400608062744140000e-001) (79, 5.45439697265625000000e+002) (80, 1.14064466953277590000e+000) (81, 3.53588193655014040000e-001) (82, 5.11025905609130860000e-001) (83, 6.90297365188598630000e-001) (84, -1.07900285720825200000e+000) (85, 4.56917956471443180000e-002) (86, 7.69587934017181400000e-001) (87, 5.45610412597656250000e+002) (88, -1.51564776897430420000e-001) (89, 5.44904052734375000000e+002) (90, 5.44827026367187500000e+002) (91, 5.45165161132812500000e+002) (92, 5.45641723632812500000e+002) (93, 5.45328002929687500000e+002) (94, 5.45582885742187500000e+002) (95, 5.45717407226562500000e+002) (96, 5.45569458007812500000e+002) (97, 5.45313964843750000000e+002) (98, 3.78750443458557130000e-001) (99, 5.44879516601562500000e+002) (100, -5.07992506027221680000e-001) (0, 3.95882099866867070000e-001) (1, -1.91631361842155460000e-001) (2, -3.03530041128396990000e-002) (3, -5.50622940063476560000e-001) (4, 1.01229989528656010000e+000) (5, 6.24387264251708980000e-001) (6, 4.93240624666213990000e-001) (7, 2.07726788520812990000e+000) (8, 3.45994792878627780000e-002) (9, 5.45280273437500000000e+002) (10, 1.34398460388183590000e+000) (11, 6.03565871715545650000e-001) (12, 1.27659589052200320000e-001) (13, 6.50209724903106690000e-001) (14, -6.28430396318435670000e-002) (15, 2.87486910820007320000e-001) (16, 8.73971939086914060000e-001) (17, 4.92773205041885380000e-002) (18, -2.15592235326766970000e-001) (19, 5.45466430664062500000e+002) (20, 1.05623388290405270000e+000) (21, 5.45467834472656250000e+002) (22, 2.17601478099823000000e-001) (23, 1.85996696352958680000e-001) (24, 6.69364452362060550000e-001) (25, 3.28603386878967290000e-001) (26, -3.57047349214553830000e-001) (27, 5.44793823242187500000e+002) (28, 9.61298421025276180000e-002) (29, 5.45143432617187500000e+002) (30, 8.09118449687957760000e-001) (31, 5.44845825195312500000e+002) (32, -8.91599059104919430000e-002) (33, -1.08531840145587920000e-001) (34, 1.63367658853530880000e-001) (35, -5.75818359851837160000e-001) (36, 5.59770345687866210000e-001) (37, 2.23900961875915530000e+000) (38, 4.00769472122192380000e-001) (39, 5.45273681640625000000e+002) (40, 8.02869319915771480000e-001) (41, 1.01540637016296390000e+000) (42, -1.36166125535964970000e-001) (43, -4.93722498416900630000e-001) (44, -4.31529194116592410000e-001) (45, 9.82301756739616390000e-002) (46, 6.59744620323181150000e-001) (47, 5.45279846191406250000e+002) (48, -1.03234708309173580000e+000) (49, 5.45363281250000000000e+002) (50, 1.53336000442504880000e+000) (51, -1.27591416239738460000e-001) (52, -3.09679687023162840000e-001) (53, 1.52294531464576720000e-001) (54, 3.34638714790344240000e-001) (55, 6.37638688087463380000e-001) (56, -1.62755011115223170000e-003) (57, 5.45195312500000000000e+002) (58, -2.78593087196350100000e+000) (59, 5.45675720214843750000e+002) (60, 1.56168961524963380000e+000) (61, 1.40290215611457820000e-001) (62, -3.70088458061218260000e-001) (63, 2.00205564498901370000e-001) (64, 9.34422492980957030000e-001) (65, -6.73465788364410400000e-001) (66, 9.08109605312347410000e-001) (67, -7.81508758664131160000e-002) (68, -3.08889567852020260000e-001) (69, 5.44903198242187500000e+002) (70, 4.82416599988937380000e-002) (71, 8.01992118358612060000e-001) (72, -2.95335859060287480000e-001) (73, -1.95380710065364840000e-002) (74, 3.80825363099575040000e-002) (75, 3.85617613792419430000e-001) (76, 5.06543278694152830000e-001) (77, 5.45439270019531250000e+002) (78, -1.13498795032501220000e+000) (79, 5.45046997070312500000e+002) (80, 4.50778782367706300000e-001) (81, 4.55111026763916020000e-001) (82, -6.42053186893463130000e-001) (83, -1.88976041972637180000e-002) (84, 4.38496500253677370000e-001) (85, 1.06765401363372800000e+000) (86, 5.16743138432502750000e-002) (87, 5.45383300781250000000e+002) (88, -1.42219388484954830000e+000) (89, 5.45584960937500000000e+002) (90, 5.45672973632812500000e+002) (91, 5.45210449218750000000e+002) (92, 5.45488586425781250000e+002) (93, 5.45221435546875000000e+002) (94, 5.45779235839843750000e+002) (95, 5.45188903808593750000e+002) (96, 5.45279052734375000000e+002) (97, 5.44820678710937500000e+002) (98, -1.14610826969146730000e+000) (99, 5.45506347656250000000e+002) (100, 5.12042403221130370000e-001) (0, 6.13707125186920170000e-001) (1, 2.11516308784484860000e+000) (2, -1.50615155696868900000e-001) (3, 7.64582574367523190000e-001) (4, 2.48928591609001160000e-001) (5, 4.63240221142768860000e-002) (6, 2.86258935928344730000e-001) (7, 4.96173173189163210000e-001) (8, 9.23921585083007810000e-001) (9, 5.45369812011718750000e+002) (10, 1.76781976222991940000e+000) (11, 7.96855866909027100000e-001) (12, 4.33131784200668330000e-001) (13, 1.00831411778926850000e-001) (14, 3.13077196478843690000e-002) (15, -4.42888110876083370000e-001) (16, -3.10077399015426640000e-001) (17, -9.86974500119686130000e-003) (18, 8.91586065292358400000e-001) (19, 5.45511718750000000000e+002) (20, 1.22487783432006840000e+000) (21, 5.45712036132812500000e+002) (22, 1.26086556911468510000e+000) (23, 3.66668939590454100000e-001) (24, 2.55952000617980960000e+000) (25, 3.72827738523483280000e-001) (26, 1.00356765091419220000e-001) (27, 5.44923217773437500000e+002) (28, 8.82580876350402830000e-001) (29, 5.45350036621093750000e+002) (30, 1.54682302474975590000e+000) (31, 5.45322387695312500000e+002) (32, 5.73864281177520750000e-001) (33, 1.32116183638572690000e-001) (34, 5.75602650642395020000e-001) (35, 2.43192285299301150000e-001) (36, 9.69730317592620850000e-002) (37, -3.62656831741333010000e-001) (38, 1.45737779140472410000e+000) (39, 5.45179931640625000000e+002) (40, 1.75955164432525630000e+000) (41, -1.92093670368194580000e-001) (42, 8.56818854808807370000e-001) (43, 6.76399171352386470000e-001) (44, 1.55671522021293640000e-001) (45, 1.13921964168548580000e+000) (46, -4.84104067087173460000e-001) (47, 5.45133789062500000000e+002) (48, 2.30043077468872070000e+000) (49, 5.45670532226562500000e+002) (50, 3.35065484046936040000e+000) (51, -6.91611945629119870000e-001) (52, -8.07846188545227050000e-001) (53, -6.36897310614585880000e-002) (54, 1.53074717521667480000e+000) (55, 3.12863874435424800000e+000) (56, -1.10579061508178710000e+000) (57, 5.45714843750000000000e+002) (58, 1.41573166847229000000e+000) (59, 5.45266784667968750000e+002) (60, 3.37379288673400880000e+000) (61, 2.72682197391986850000e-002) (62, -1.51329457759857180000e-001) (63, 2.04815328121185300000e-001) (64, 1.84493243694305420000e+000) (65, -3.10581594705581670000e-001) (66, 7.32744038105010990000e-001) (67, 1.14998447895050050000e+000) (68, 1.27900147438049320000e+000) (69, 5.45579528808593750000e+002) (70, 2.58500003814697270000e+000) (71, -1.25966161489486690000e-001) (72, 1.52649843692779540000e+000) (73, 6.25337243080139160000e-001) (74, -3.61848831176757810000e-001) (75, 3.32325726747512820000e-001) (76, -4.86448705196380620000e-001) (77, 5.45062988281250000000e+002) (78, 7.04640626907348630000e-001) (79, 5.45070129394531250000e+002) (80, 8.48612189292907710000e-001) (81, 1.80353772640228270000e+000) (82, 9.49266552925109860000e-002) (83, 5.32177209854125980000e-001) (84, 6.93357646465301510000e-001) (85, -2.08370387554168700000e-001) (86, 2.51922678947448730000e+000) (87, 5.44927612304687500000e+002) (88, 7.21625566482543950000e-001) (89, 5.45362915039062500000e+002) (90, 5.45536010742187500000e+002) (91, 5.45351196289062500000e+002) (92, 5.44988464355468750000e+002) (93, 5.44896240234375000000e+002) (94, 5.45284301757812500000e+002) (95, 5.45149291992187500000e+002) (96, 5.45202209472656250000e+002) (97, 5.45769165039062500000e+002) (98, 8.66093873977661130000e-001) (99, 5.45295654296875000000e+002) (100, 2.13514041900634770000e+000) (0, -4.58197861909866330000e-001) (1, -1.61205017566680910000e+000) (2, -6.59905791282653810000e-001) (3, -2.21791654825210570000e-001) (4, 1.29415780305862430000e-001) (5, -2.78829395771026610000e-001) (6, -1.11431431770324710000e+000) (7, -7.60627761483192440000e-002) (8, 9.42994356155395510000e-001) (9, 5.44744506835937500000e+002) (10, 3.69792342185974120000e-001) (11, -2.28188559412956240000e-002) (12, 1.05738198757171630000e+000) (13, -1.93574458360672000000e-001) (14, 3.55128765106201170000e-001) (15, -1.34996724128723140000e+000) (16, -9.40296947956085210000e-001) (17, 3.23797321319580080000e+000) (18, 1.05224311351776120000e+000) (19, 5.44966125488281250000e+002) (20, 5.15061855316162110000e-001) (21, 5.45110961914062500000e+002) (22, -2.44771361351013180000e-001) (23, 7.12544858455657960000e-001) (24, 5.73640942573547360000e-001) (25, 6.11982464790344240000e-001) (26, 5.40795147418975830000e-001) (27, 5.45219482421875000000e+002) (28, 4.82926756143569950000e-001) (29, 5.45109985351562500000e+002) (30, 6.78726434707641600000e-001) (31, 5.45673583984375000000e+002) (32, -4.28595870733261110000e-001) (33, 5.65186917781829830000e-001) (34, -2.70124316215515140000e-001) (35, -9.21810030937194820000e-001) (36, -8.78599166870117190000e-001) (37, -5.47283172607421880000e-001) (38, 1.00574254989624020000e+000) (39, 5.44895507812500000000e+002) (40, 5.88001132011413570000e-001) (41, 6.31409883499145510000e-001) (42, -4.22552615404129030000e-001) (43, -2.88266628980636600000e-001) (44, -1.82249099016189580000e-001) (45, -1.44440889358520510000e+000) (46, 4.20458525419235230000e-001) (47, 5.45141296386718750000e+002) (48, 2.42182898521423340000e+000) (49, 5.45570922851562500000e+002) (50, 2.91584432125091550000e-001) (51, -4.81762662529945370000e-002) (52, 6.52422070503234860000e-001) (53, -9.11358669400215150000e-002) (54, -1.86572775244712830000e-001) (55, 4.10298228263854980000e-001) (56, 4.54909175634384160000e-001) (57, 5.45458007812500000000e+002) (58, 4.22855436801910400000e-001) (59, 5.45220825195312500000e+002) (60, 2.30855226516723630000e-001) (61, 5.88311076164245610000e-001) (62, -2.84699082374572750000e-001) (63, 1.55911579728126530000e-001) (64, 1.06027030944824220000e+000) (65, -8.05222868919372560000e-001) (66, 9.27918404340744020000e-002) (67, 1.32321253418922420000e-001) (68, 3.63794922828674320000e-001) (69, 5.44786132812500000000e+002) (70, 5.45081675052642820000e-001) (71, 8.50005805492401120000e-001) (72, 1.77570015192031860000e-001) (73, 3.68225425481796260000e-002) (74, -7.03738808631896970000e-001) (75, -1.34041976928710940000e+000) (76, -9.72943082451820370000e-002) (77, 5.45583862304687500000e+002) (78, 3.80919814109802250000e-001) (79, 5.45233093261718750000e+002) (80, -4.71753746271133420000e-001) (81, -1.28776562213897710000e+000) (82, -7.14010559022426610000e-003) (83, -3.44531804323196410000e-001) (84, 4.77767705917358400000e-001) (85, 1.84229955077171330000e-001) (86, 3.72213721275329590000e-002) (87, 5.45123413085937500000e+002) (88, -2.03587204217910770000e-001) (89, 5.44935363769531250000e+002) (90, 5.45760864257812500000e+002) (91, 5.44984985351562500000e+002) (92, 5.44833251953125000000e+002) (93, 5.45383361816406250000e+002) (94, 5.45000732421875000000e+002) (95, 5.45565063476562500000e+002) (96, 5.44890380859375000000e+002) (97, 5.45532226562500000000e+002) (98, 6.71787708997726440000e-002) (99, 5.45178771972656250000e+002) (100, -7.84922957420349120000e-001) (0, -6.85165822505950930000e-001) (1, -3.64907741546630860000e-001) (2, 4.83387470245361330000e-001) (3, 1.46008074283599850000e-001) (4, 6.76198542118072510000e-001) (5, -5.29932677745819090000e-002) (6, 3.20690959692001340000e-001) (7, -1.33071947097778320000e+000) (8, 4.21529084444046020000e-001) (9, 5.44751525878906250000e+002) (10, -5.32414466142654420000e-002) (11, -1.54789075255393980000e-001) (12, -4.33211214840412140000e-003) (13, 4.12876158952713010000e-001) (14, 3.80130290985107420000e-001) (15, -7.62029647827148440000e-001) (16, -8.61762091517448430000e-002) (17, 6.45542204380035400000e-001) (18, -1.54010169208049770000e-002) (19, 5.44892944335937500000e+002) (20, -6.13173395395278930000e-002) (21, 5.44919067382812500000e+002) (22, 1.71667933464050290000e-001) (23, -1.04024074971675870000e-001) (24, 1.05213677883148190000e+000) (25, 5.54656744003295900000e-001) (26, 8.92693281173706050000e-001) (27, 5.45709228515625000000e+002) (28, 4.12267476320266720000e-001) (29, 5.45486083984375000000e+002) (30, -2.15592041611671450000e-001) (31, 5.44999450683593750000e+002) (32, 6.48421049118041990000e-001) (33, -4.17128264904022220000e-001) (34, 4.31052505970001220000e-001) (35, -5.97344577312469480000e-001) (36, -3.11651051044464110000e-001) (37, -7.30701923370361330000e-001) (38, -1.20387367904186250000e-001) (39, 5.45128601074218750000e+002) (40, 2.34637632966041560000e-001) (41, -6.43009603023529050000e-001) (42, 4.00510609149932860000e-001) (43, -1.39402937889099120000e+000) (44, 6.49958372116088870000e-001) (45, -2.28521317243576050000e-001) (46, 4.33920651674270630000e-001) (47, 5.45035644531250000000e+002) (48, -3.23695868253707890000e-001) (49, 5.45285766601562500000e+002) (50, -3.13346982002258300000e-001) (51, -7.74361312389373780000e-001) (52, -5.90730547904968260000e-001) (53, -5.74184000492095950000e-001) (54, 8.16478967666625980000e-001) (55, 5.96963703632354740000e-001) (56, 6.87220931053161620000e-001) (57, 5.45164916992187500000e+002) (58, -6.67996942996978760000e-001) (59, 5.44771789550781250000e+002) (60, -1.88619554042816160000e-001) (61, -5.83360612392425540000e-001) (62, -2.00012356042861940000e-001) (63, -5.41954457759857180000e-001) (64, 1.78105428814888000000e-001) (65, 1.81047439575195310000e-001) (66, 2.71107703447341920000e-002) (67, 1.41001746058464050000e-001) (68, -4.20517832040786740000e-001) (69, 5.44964233398437500000e+002) (70, 3.08466124534606930000e+000) (71, -1.02465116977691650000e+000) (72, -8.22182774543762210000e-001) (73, -4.93344426155090330000e-001) (74, 5.48390746116638180000e-001) (75, -7.52185404300689700000e-001) (76, 4.74812835454940800000e-001) (77, 5.45429443359375000000e+002) (78, 2.24845990538597110000e-001) (79, 5.45651611328125000000e+002) (80, -2.11670041084289550000e-001) (81, -3.36866497993469240000e-001) (82, -4.84486341476440430000e-001) (83, 3.73029589653015140000e-001) (84, 3.24064910411834720000e-001) (85, 1.74114510416984560000e-001) (86, 8.13910722732543950000e-001) (87, 5.45570434570312500000e+002) (88, 4.86254274845123290000e-001) (89, 5.45674072265625000000e+002) (90, 5.45735473632812500000e+002) (91, 5.45010375976562500000e+002) (92, 5.44771423339843750000e+002) (93, 5.45415039062500000000e+002) (94, 5.45175781250000000000e+002) (95, 5.45328735351562500000e+002) (96, 5.45111755371093750000e+002) (97, 5.45719482421875000000e+002) (98, 4.02130484580993650000e-001) (99, 5.45671386718750000000e+002) (100, -1.19914484024047850000e+000) (0, 1.06074437499046330000e-001) (1, -1.44499719142913820000e-001) (2, 1.42459243535995480000e-001) (3, 1.26713588833808900000e-001) (4, 5.98055064678192140000e-001) (5, 8.68188917636871340000e-001) (6, 1.99492311477661130000e+000) (7, 2.80664041638374330000e-002) (8, 1.14875245094299320000e+000) (9, 5.45029724121093750000e+002) (10, 7.42159843444824220000e-001) (11, -4.08273562788963320000e-002) (12, -4.60929274559021000000e-001) (13, -8.03856004495173690000e-004) (14, -1.00322961807250980000e-002) (15, 1.16409778594970700000e+000) (16, 1.11512267589569090000e+000) (17, 5.60188055038452150000e-001) (18, 8.10303032398223880000e-001) (19, 5.45351440429687500000e+002) (20, 6.48998916149139400000e-001) (21, 5.45045471191406250000e+002) (22, -7.94675946235656740000e-001) (23, -1.55873075127601620000e-002) (24, 1.45828700065612790000e+000) (25, -1.30097717046737670000e-001) (26, 2.09861469268798830000e+000) (27, 5.45119506835937500000e+002) (28, 1.28274130821228030000e+000) (29, 5.44975036621093750000e+002) (30, 6.70598685741424560000e-001) (31, 5.45408569335937500000e+002) (32, 9.55000638961791990000e-001) (33, -5.32531380653381350000e-001) (34, -4.20330762863159180000e-001) (35, 7.54885561764240260000e-003) (36, 1.83894908428192140000e+000) (37, 8.31553936004638670000e-002) (38, 6.93331182003021240000e-001) (39, 5.45317077636718750000e+002) (40, 5.64458668231964110000e-001) (41, 7.48059391975402830000e-001) (42, 3.49827826023101810000e-001) (43, -2.97371447086334230000e-001) (44, -5.05965709686279300000e-001) (45, 5.06308674812316890000e-001) (46, 1.18876576423645020000e+000) (47, 5.45212646484375000000e+002) (48, 7.87672281265258790000e-001) (49, 5.45565368652343750000e+002) (50, 1.58588194847106930000e+000) (51, 1.91320508718490600000e-001) (52, -5.18773496150970460000e-003) (53, -2.16303050518035890000e-001) (54, -2.07333832979202270000e-001) (55, -4.47513401508331300000e-001) (56, 7.90253996849060060000e-001) (57, 5.45022888183593750000e+002) (58, 8.33078563213348390000e-001) (59, 5.44849731445312500000e+002) (60, 1.72733783721923830000e+000) (61, -5.32238841056823730000e-001) (62, -4.08241301774978640000e-002) (63, 6.51745572686195370000e-002) (64, -3.52535903453826900000e-001) (65, -2.12486445903778080000e-001) (66, 1.35782361030578610000e+000) (67, -1.60447865724563600000e-001) (68, 1.97978973388671880000e-001) (69, 5.44775512695312500000e+002) (70, 7.09651172161102290000e-001) (71, -1.62560582160949710000e-001) (72, 4.32380810379981990000e-002) (73, -4.02167797088623050000e-001) (74, 1.35997459292411800000e-001) (75, -5.43592832982540130000e-002) (76, 8.21019291877746580000e-001) (77, 5.45601684570312500000e+002) (78, -7.72215247154235840000e-001) (79, 5.45566162109375000000e+002) (80, 4.43658560514450070000e-001) (81, 2.52179116010665890000e-001) (82, 6.20783567428588870000e-001) (83, 6.39723420143127440000e-001) (84, 8.00778716802597050000e-002) (85, 6.59841239452362060000e-001) (86, 2.59600186347961430000e+000) (87, 5.45176452636718750000e+002) (88, -7.32360333204269410000e-002) (89, 5.45233398437500000000e+002) (90, 5.45196289062500000000e+002) (91, 5.45568115234375000000e+002) (92, 5.45731628417968750000e+002) (93, 5.45198364257812500000e+002) (94, 5.45520751953125000000e+002) (95, 5.45776733398437500000e+002) (96, 5.45491882324218750000e+002) (97, 5.45565002441406250000e+002) (98, -3.75119566917419430000e-001) (99, 5.45591186523437500000e+002) (100, -2.55564332008361820000e-001) (0, 1.18910364806652070000e-001) (1, 1.38737952709198000000e+000) (2, 9.05637860298156740000e-001) (3, 9.89940106868743900000e-001) (4, 1.88382005691528320000e+000) (5, 2.35504079610109330000e-002) (6, 2.58993208408355710000e-001) (7, 6.99491560459136960000e-001) (8, 2.65729635953903200000e-001) (9, 5.45054931640625000000e+002) (10, 8.62799584865570070000e-001) (11, 3.01104694604873660000e-001) (12, 8.30921292304992680000e-001) (13, 3.82197690010070800000e+000) (14, 2.63419771194458010000e+000) (15, 4.60846722126007080000e-001) (16, 5.65218746662139890000e-001) (17, 7.18719065189361570000e-001) (18, -2.77180045843124390000e-001) (19, 5.44746704101562500000e+002) (20, 9.37917947769165040000e-001) (21, 5.45172485351562500000e+002) (22, 1.59457480907440190000e+000) (23, 7.98189103603363040000e-001) (24, 1.05851125717163090000e+000) (25, 1.09703212976455690000e-001) (26, 1.31660699844360350000e+000) (27, 5.44842712402343750000e+002) (28, 5.27907013893127440000e-001) (29, 5.45068481445312500000e+002) (30, 7.62171685695648190000e-001) (31, 5.45731445312500000000e+002) (32, 6.14874601364135740000e-001) (33, 8.61161649227142330000e-001) (34, 4.48342025279998780000e-001) (35, -4.06059101223945620000e-002) (36, 1.77193367481231690000e+000) (37, 5.55375814437866210000e-001) (38, 2.46693730354309080000e-001) (39, 5.45669494628906250000e+002) (40, 7.87553012371063230000e-001) (41, -8.45163941383361820000e-001) (42, -1.11720800399780270000e+000) (43, -3.10282349586486820000e-001) (44, 1.08081412315368650000e+000) (45, -4.62969839572906490000e-001) (46, 3.19117903709411620000e-001) (47, 5.45651123046875000000e+002) (48, 5.67605257034301760000e-001) (49, 5.45377136230468750000e+002) (50, 5.90805482864379880000e+000) (51, -1.57381618022918700000e+000) (52, -4.23761248588562010000e-001) (53, 1.79275080561637880000e-001) (54, 4.15374994277954100000e-001) (55, 7.45716691017150880000e-001) (56, 3.04356247186660770000e-001) (57, 5.45007629394531250000e+002) (58, -2.70508348941802980000e-001) (59, 5.45552429199218750000e+002) (60, 5.91728448867797850000e+000) (61, -1.17524647712707520000e+000) (62, -5.91752052307128910000e-001) (63, 2.52329766750335690000e-001) (64, 6.22261703014373780000e-001) (65, 7.64032602310180660000e-001) (66, 6.13834440708160400000e-001) (67, 5.02247273921966550000e-001) (68, -2.70870000123977660000e-001) (69, 5.45185546875000000000e+002) (70, 9.05770421028137210000e-001) (71, -7.83946871757507320000e-001) (72, -1.50656908750534060000e-001) (73, 6.96969687938690190000e-001) (74, 2.95543670654296870000e+000) (75, -4.67338860034942630000e-001) (76, 8.69827270507812500000e-001) (77, 5.44893188476562500000e+002) (78, 5.81245422363281250000e-001) (79, 5.45240173339843750000e+002) (80, 8.78746747970581050000e-001) (81, 1.64692890644073490000e+000) (82, 1.21077656745910640000e+000) (83, 8.14930915832519530000e-001) (84, 1.83930659294128420000e+000) (85, -1.47051155567169190000e-001) (86, 9.31954205036163330000e-001) (87, 5.45607971191406250000e+002) (88, 9.47864174842834470000e-001) (89, 5.45579101562500000000e+002) (90, 5.44771484375000000000e+002) (91, 5.44943603515625000000e+002) (92, 5.45612426757812500000e+002) (93, 5.45724731445312500000e+002) (94, 5.45635009765625000000e+002) (95, 5.44778564453125000000e+002) (96, 5.45051513671875000000e+002) (97, 5.45565185546875000000e+002) (98, 1.00638222694396970000e+000) (99, 5.45011108398437500000e+002) (100, 1.28312528133392330000e+000) (0, -1.06130659580230710000e+000) (1, -2.94547766447067260000e-001) (2, -4.68796566128730770000e-002) (3, 6.50517106056213380000e-001) (4, 5.45478582382202150000e-001) (5, 6.34775578975677490000e-001) (6, 3.54740470647811890000e-001) (7, 1.14506907761096950000e-001) (8, 7.02413082122802730000e-001) (9, 5.45774414062500000000e+002) (10, -5.37489175796508790000e-001) (11, -2.51873588562011720000e+000) (12, -1.11493372917175290000e+000) (13, -4.34219509363174440000e-001) (14, 6.21631979942321780000e-001) (15, -9.69842314720153810000e-001) (16, -1.75342679023742680000e+000) (17, 5.82453489303588870000e-001) (18, 9.29466664791107180000e-001) (19, 5.45624267578125000000e+002) (20, -9.77495729923248290000e-001) (21, 5.44801391601562500000e+002) (22, 1.28043258190155030000e+000) (23, -1.01598389446735380000e-002) (24, 1.39268469810485840000e+000) (25, -4.46539223194122310000e-001) (26, 1.22867214679718020000e+000) (27, 5.44891296386718750000e+002) (28, 1.01576960086822510000e+000) (29, 5.45576660156250000000e+002) (30, -8.89141976833343510000e-001) (31, 5.45061706542968750000e+002) (32, 4.50385510921478270000e-001) (33, -4.54295605421066280000e-001) (34, 1.54290270805358890000e+000) (35, 8.73657464981079100000e-002) (36, 1.44562691450119020000e-001) (37, 6.02680265903472900000e-001) (38, 8.87388885021209720000e-001) (39, 5.45532714843750000000e+002) (40, -7.85822033882141110000e-001) (41, -4.00920659303665160000e-002) (42, -5.30946493148803710000e-001) (43, 4.70583111047744750000e-001) (44, 1.00526794791221620000e-001) (45, 5.91755390167236330000e-001) (46, 9.13580179214477540000e-001) (47, 5.45555786132812500000e+002) (48, 3.75650405883789060000e-001) (49, 5.45210876464843750000e+002) (50, 1.04255259037017820000e+000) (51, 6.88087940216064450000e-001) (52, 3.06924486160278320000e+000) (53, -2.88342051208019260000e-002) (54, 7.94711351394653320000e-001) (55, 1.12951898574829100000e+000) (56, -1.09727881848812100000e-001) (57, 5.45677001953125000000e+002) (58, 7.76431113481521610000e-002) (59, 5.44956542968750000000e+002) (60, 7.91271209716796880000e-001) (61, 4.74024005234241490000e-002) (62, 3.58488321304321290000e+000) (63, -7.22198903560638430000e-001) (64, 2.40213489532470700000e+000) (65, -3.75201880931854250000e-001) (66, -1.49096801877021790000e-001) (67, -4.27739247679710390000e-002) (68, 3.72799754142761230000e-001) (69, 5.45107788085937500000e+002) (70, -9.08274233341217040000e-001) (71, -4.97288733720779420000e-001) (72, 2.06965044140815730000e-001) (73, -2.53560471534729000000e+000) (74, 4.00042176246643070000e-001) (75, -6.05223178863525390000e+000) (76, -3.60516570508480070000e-002) (77, 5.45384887695312500000e+002) (78, 1.48438048362731930000e+000) (79, 5.45394042968750000000e+002) (80, -3.96393477916717530000e-001) (81, -1.60264205187559130000e-002) (82, 4.90473955869674680000e-001) (83, 9.34424698352813720000e-002) (84, 1.37697243690490720000e+000) (85, 7.10848689079284670000e-001) (86, 3.51777672767639160000e+000) (87, 5.45321655273437500000e+002) (88, 1.42195296287536620000e+000) (89, 5.44968750000000000000e+002) (90, 5.45401367187500000000e+002) (91, 5.45259887695312500000e+002) (92, 5.44862854003906250000e+002) (93, 5.45301940917968750000e+002) (94, 5.44863769531250000000e+002) (95, 5.45045898437500000000e+002) (96, 5.44956909179687500000e+002) (97, 5.44794677734375000000e+002) (98, 1.57286262512207030000e+000) (99, 5.44787353515625000000e+002) (100, 5.38784682750701900000e-001) (0, -1.07590794563293460000e+000) (1, -3.20438981056213380000e-001) (2, -9.27859425544738770000e-001) (3, -1.10040116310119630000e+000) (4, 1.02891993522644040000e+000) (5, 8.28924626111984250000e-002) (6, 3.88408243656158450000e-001) (7, -9.58507716655731200000e-001) (8, -1.62583529949188230000e-001) (9, 5.45043579101562500000e+002) (10, -3.01323056221008300000e-001) (11, 6.84142261743545530000e-002) (12, -2.44620516896247860000e-001) (13, 1.10983073711395260000e+000) (14, 7.40853846073150630000e-001) (15, -3.69999796152114870000e-001) (16, -1.89602136611938480000e-001) (17, 1.23012495040893550000e+000) (18, -4.48603749275207520000e-001) (19, 5.45520874023437500000e+002) (20, -2.53861308097839360000e-001) (21, 5.45091552734375000000e+002) (22, 4.33878064155578610000e-001) (23, -1.50635349750518800000e+000) (24, 7.18100368976593020000e-002) (25, -3.49075615406036380000e-001) (26, 2.18280404806137080000e-001) (27, 5.45136840820312500000e+002) (28, -3.33586812019348140000e-001) (29, 5.45316528320312500000e+002) (30, -2.74627804756164550000e-001) (31, 5.45592651367187500000e+002) (32, -9.93474572896957400000e-002) (33, -1.69179964065551760000e+000) (34, 5.33926308155059810000e-001) (35, -9.04308706521987920000e-002) (36, -3.67714047431945800000e-001) (37, -1.80217474699020390000e-002) (38, 2.69122898578643800000e-001) (39, 5.45030761718750000000e+002) (40, -4.80242073535919190000e-001) (41, -1.79183691740036010000e-001) (42, -4.28765892982482910000e-001) (43, -1.42272901535034180000e+000) (44, 6.05160832405090330000e-001) (45, -9.96107864379882810000e+000) (46, -5.67889213562011720000e-001) (47, 5.44839233398437500000e+002) (48, 2.67034268379211430000e+000) (49, 5.45175292968750000000e+002) (50, 9.02901887893676760000e-001) (51, 8.59646722674369810000e-002) (52, -2.47013568878173830000e-001) (53, -6.54200255870819090000e-001) (54, 1.34283053874969480000e+000) (55, -1.07798469066619870000e+000) (56, -1.21283698081970210000e+000) (57, 5.44822998046875000000e+002) (58, 6.89469039440155030000e-001) (59, 5.44980102539062500000e+002) (60, 1.46138656139373780000e+000) (61, 7.94589996337890630000e-001) (62, -6.79905831813812260000e-001) (63, -8.66680204868316650000e-001) (64, 1.05130243301391600000e+000) (65, -3.65362882614135740000e-001) (66, 1.39751136302948000000e-001) (67, -3.47913265228271480000e-001) (68, 2.15905219316482540000e-001) (69, 5.45452270507812500000e+002) (70, -1.12265743315219880000e-001) (71, -1.61292150616645810000e-001) (72, -7.62273430824279790000e-001) (73, 1.66982442140579220000e-001) (74, 1.09480714797973630000e+000) (75, -1.82686924934387210000e+000) (76, -8.43205928802490230000e-001) (77, 5.45616577148437500000e+002) (78, 4.19769957661628720000e-002) (79, 5.44943481445312500000e+002) (80, -1.21092247962951660000e+000) (81, -6.76321864128112790000e-001) (82, -5.55632472038269040000e-001) (83, -6.47703766822814940000e-001) (84, 7.13672280311584470000e-001) (85, -8.79489481449127200000e-001) (86, 5.61926960945129390000e-001) (87, 5.45230773925781250000e+002) (88, 7.65279889106750490000e-001) (89, 5.45311767578125000000e+002) (90, 5.45051269531250000000e+002) (91, 5.45732910156250000000e+002) (92, 5.45521362304687500000e+002) (93, 5.44980895996093750000e+002) (94, 5.45028442382812500000e+002) (95, 5.45478027343750000000e+002) (96, 5.44764160156250000000e+002) (97, 5.45643066406250000000e+002) (98, 4.81278419494628910000e-001) (99, 5.44745849609375000000e+002) (100, 2.52892941236495970000e-001) (0, 1.43984878063201900000e+000) (1, 6.06693662703037260000e-002) (2, -8.08503329753875730000e-002) (3, 1.09129190444946290000e-001) (4, 2.14082330465316770000e-001) (5, 1.58091843128204350000e-001) (6, 7.68424570560455320000e-001) (7, -2.67539948225021360000e-001) (8, 2.64582276344299320000e-001) (9, 5.45290710449218750000e+002) (10, 1.36787593364715580000e+000) (11, 4.17467832565307620000e-001) (12, -1.40775129199028020000e-001) (13, 1.56350836157798770000e-001) (14, 1.77233338356018070000e-001) (15, 1.23570811748504640000e+000) (16, 8.41161191463470460000e-001) (17, -3.56228411197662350000e-001) (18, 2.41380155086517330000e-001) (19, 5.45437011718750000000e+002) (20, 1.01577436923980710000e+000) (21, 5.45317810058593750000e+002) (22, 7.14906230568885800000e-002) (23, 8.90059351921081540000e-001) (24, 8.70022892951965330000e-001) (25, -4.15883451700210570000e-001) (26, 5.14995694160461430000e-001) (27, 5.45625061035156250000e+002) (28, -2.00068563222885130000e-001) (29, 5.45243957519531250000e+002) (30, 1.41851031780242920000e+000) (31, 5.45173339843750000000e+002) (32, 7.51652121543884280000e-001) (33, 1.85356223583221440000e+000) (34, -2.38526672124862670000e-001) (35, -4.72519963979721070000e-001) (36, 1.19634914398193360000e+000) (37, 4.84028577804565430000e-001) (38, 1.06750302016735080000e-001) (39, 5.45317993164062500000e+002) (40, 8.43265473842620850000e-001) (41, 8.30764323472976680000e-002) (42, -4.29662875831127170000e-002) (43, 2.26052373647689820000e-001) (44, 5.48655927181243900000e-001) (45, 4.37830954790115360000e-001) (46, 7.02804148197174070000e-001) (47, 5.44859924316406250000e+002) (48, -7.06016302108764650000e-001) (49, 5.44945678710937500000e+002) (50, 7.66970396041870120000e-001) (51, -6.15425169467926030000e-001) (52, -5.51555156707763670000e-001) (53, 8.74639868736267090000e-001) (54, 7.88303136825561520000e-001) (55, -2.82253086566925050000e-001) (56, 1.02607929706573490000e+000) (57, 5.45074584960937500000e+002) (58, -3.75828534364700320000e-001) (59, 5.44944702148437500000e+002) (60, 9.78321015834808350000e-001) (61, -6.92145764827728270000e-001) (62, -2.90050953626632690000e-001) (63, 1.16868484020233150000e+000) (64, 7.62674152851104740000e-001) (65, -7.14475512504577640000e-001) (66, 6.67058467864990230000e-001) (67, -6.96528911590576170000e-001) (68, -2.57574412971735000000e-002) (69, 5.45453735351562500000e+002) (70, 7.96330988407135010000e-001) (71, -3.75256389379501340000e-001) (72, -7.74810850620269780000e-001) (73, 1.23039817810058590000e+000) (74, -3.16890746355056760000e-001) (75, -4.87248748540878300000e-001) (76, 5.95975697040557860000e-001) (77, 5.44868774414062500000e+002) (78, 3.71147811412811280000e-001) (79, 5.45496459960937500000e+002) (80, 1.08704197406768800000e+000) (81, 5.36119997501373290000e-001) (82, 3.80792349576950070000e-001) (83, -1.03102764114737510000e-002) (84, 1.26529663801193240000e-001) (85, -2.44033515453338620000e-001) (86, 5.76404333114624020000e-001) (87, 5.45026916503906250000e+002) (88, 1.29737019538879390000e-001) (89, 5.45440612792968750000e+002) (90, 5.44865295410156250000e+002) (91, 5.45699279785156250000e+002) (92, 5.44742431640625000000e+002) (93, 5.44794067382812500000e+002) (94, 5.45020629882812500000e+002) (95, 5.44845153808593750000e+002) (96, 5.45739196777343750000e+002) (97, 5.45239990234375000000e+002) (98, 2.90100634098052980000e-001) (99, 5.45146240234375000000e+002) (100, -1.49667072296142580000e+000) (0, -1.58984452486038210000e-001) (1, -4.03806865215301510000e-002) (2, -6.09048128128051760000e-001) (3, -9.09919068217277530000e-002) (4, -6.21631085872650150000e-001) (5, 2.17565968632698060000e-001) (6, -1.41066014766693120000e-001) (7, -2.72482097148895260000e-001) (8, 4.62361246347427370000e-001) (9, 5.44941528320312500000e+002) (10, 5.18723249435424800000e-001) (11, -3.93723160028457640000e-001) (12, -1.42103463411331180000e-001) (13, 6.51641264557838440000e-002) (14, -6.40603780746459960000e-001) (15, 2.46262073516845700000e-001) (16, -3.39748978614807130000e-001) (17, -1.88716407865285870000e-002) (18, 3.89133661985397340000e-001) (19, 5.45750732421875000000e+002) (20, 4.82718646526336670000e-002) (21, 5.45075317382812500000e+002) (22, 6.73501789569854740000e-001) (23, 1.15631914138793950000e+000) (24, -5.33098995685577390000e-001) (25, 2.19471484422683720000e-001) (26, -2.04941686242818830000e-002) (27, 5.45418334960937500000e+002) (28, 2.12105572223663330000e-001) (29, 5.45043212890625000000e+002) (30, -3.22897553443908690000e-001) (31, 5.44995483398437500000e+002) (32, 4.75280940532684330000e-001) (33, 3.11426311731338500000e-001) (34, -8.98914217948913570000e-001) (35, -1.29573118686676030000e+000) (36, -8.83740246295928960000e-001) (37, -1.20322518050670620000e-001) (38, 3.84871393442153930000e-001) (39, 5.44798950195312500000e+002) (40, -2.14418143033981320000e-001) (41, -1.31167995929718020000e+000) (42, -1.20298099517822270000e+000) (43, -5.25233685970306400000e-001) (44, -1.51788577437400820000e-001) (45, -4.18284416198730470000e+000) (46, -3.12987625598907470000e-001) (47, 5.45515502929687500000e+002) (48, 1.42592564225196840000e-001) (49, 5.45525268554687500000e+002) (50, 1.04123878479003910000e+000) (51, -1.07164549827575680000e+000) (52, -1.17446742951869960000e-001) (53, 8.52063357830047610000e-001) (54, -2.56131947040557860000e-001) (55, -6.90941512584686280000e-001) (56, -4.85727339982986450000e-001) (57, 5.45376159667968750000e+002) (58, -5.46641767024993900000e-001) (59, 5.45143249511718750000e+002) (60, 1.00335919857025150000e+000) (61, -8.05334091186523440000e-001) (62, -6.26803278923034670000e-001) (63, 7.67972599714994430000e-003) (64, 8.42735648155212400000e-001) (65, -1.33880245685577390000e+000) (66, -2.04221987724304200000e+000) (67, -3.63045841455459590000e-001) (68, -2.97552794218063350000e-001) (69, 5.45009643554687500000e+002) (70, 9.64743494987487790000e-001) (71, 4.86314237117767330000e-001) (72, -1.25367176532745360000e+000) (73, 2.79369294643402100000e-001) (74, 4.45149391889572140000e-001) (75, -5.78366816043853760000e-001) (76, -1.25453963875770570000e-001) (77, 5.45533630371093750000e+002) (78, -2.41542696952819820000e-001) (79, 5.45654602050781250000e+002) (80, 4.17094051837921140000e-001) (81, -4.31047379970550540000e-002) (82, 1.95156604051589970000e-001) (83, -7.56093338131904600000e-002) (84, -4.03454482555389400000e-001) (85, -1.48806184530258180000e-001) (86, 2.84583568572998050000e-001) (87, 5.45216918945312500000e+002) (88, 4.09269481897354130000e-001) (89, 5.45778808593750000000e+002) (90, 5.45745849609375000000e+002) (91, 5.45046386718750000000e+002) (92, 5.45540283203125000000e+002) (93, 5.45645324707031250000e+002) (94, 5.45524780273437500000e+002) (95, 5.45664611816406250000e+002) (96, 5.45348022460937500000e+002) (97, 5.45051574707031250000e+002) (98, 5.26081323623657230000e-001) (99, 5.45651916503906250000e+002) (100, -1.29189598560333250000e+000) (0, 6.67235136032104490000e-001) (1, 1.95879399776458740000e-001) (2, -7.58257746696472170000e-001) (3, -3.68682622909545900000e-001) (4, 6.14696145057678220000e-001) (5, 3.65129560232162480000e-001) (6, 7.50883877277374270000e-001) (7, 1.06829857826232910000e+000) (8, 1.35097289085388180000e+000) (9, 5.45560546875000000000e+002) (10, 2.11655068397521970000e+000) (11, 1.42870092391967770000e+000) (12, 3.39245766401290890000e-001) (13, 5.10645985603332520000e-001) (14, -4.78121452033519740000e-002) (15, 6.19072094559669490000e-002) (16, 7.22590014338493350000e-002) (17, -1.66760325431823730000e-001) (18, 1.53870463371276860000e+000) (19, 5.45345092773437500000e+002) (20, 1.97909998893737790000e+000) (21, 5.44956542968750000000e+002) (22, 9.53047648072242740000e-002) (23, -2.30588510632514950000e-001) (24, 8.74802052974700930000e-001) (25, 1.76059603691101070000e-001) (26, 1.88622832298278810000e-001) (27, 5.45230529785156250000e+002) (28, 1.51345157623291020000e+000) (29, 5.45144531250000000000e+002) (30, 2.62760543823242190000e+000) (31, 5.45218383789062500000e+002) (32, -6.14788420498371120000e-002) (33, -4.40463721752166750000e-001) (34, 6.03776752948760990000e-001) (35, 3.29689919948577880000e-001) (36, 1.13525688648223880000e-001) (37, 2.47444182634353640000e-001) (38, 1.42314291000366210000e+000) (39, 5.45487426757812500000e+002) (40, 1.98682332038879390000e+000) (41, 9.29326564073562620000e-002) (42, 6.29790365695953370000e-001) (43, 3.54576706886291500000e-001) (44, -2.82205939292907710000e-001) (45, -1.09848213195800780000e+000) (46, 1.92492389678955080000e+000) (47, 5.44901977539062500000e+002) (48, 9.74152565002441410000e-001) (49, 5.44886108398437500000e+002) (50, 2.24216556549072270000e+000) (51, 3.87348800897598270000e-001) (52, -1.28471612930297850000e+000) (53, -2.21852406859397890000e-001) (54, 4.72726851701736450000e-001) (55, -1.90292634069919590000e-002) (56, 3.48869621753692630000e-001) (57, 5.44893676757812500000e+002) (58, 1.86462402343750000000e-001) (59, 5.45730224609375000000e+002) (60, 2.24844694137573240000e+000) (61, -3.79442065954208370000e-001) (62, -1.59201574325561520000e+000) (63, 3.55602800846099850000e-001) (64, 6.11458420753479000000e-001) (65, 5.75715661048889160000e-001) (66, 1.24900722503662110000e+000) (67, 1.11431729793548580000e+000) (68, 4.59539592266082760000e-001) (69, 5.45244262695312500000e+002) (70, 1.96048116683959960000e+000) (71, -5.76005578041076660000e-001) (72, 6.64559721946716310000e-001) (73, 8.90352070331573490000e-001) (74, 2.90371447801589970000e-001) (75, -5.96246123313903810000e-001) (76, 4.41261410713195800000e-001) (77, 5.45382080078125000000e+002) (78, -2.43047490715980530000e-001) (79, 5.45640686035156250000e+002) (80, 1.04965293407440190000e+000) (81, -2.47043490409851070000e-001) (82, 4.55408394336700440000e-001) (83, -8.61553549766540530000e-002) (84, -3.23322355747222900000e-001) (85, 1.86034455895423890000e-001) (86, 4.45050716400146480000e-001) (87, 5.45556274414062500000e+002) (88, 3.90427321195602420000e-001) (89, 5.45744995117187500000e+002) (90, 5.44996948242187500000e+002) (91, 5.45058837890625000000e+002) (92, 5.45034545898437500000e+002) (93, 5.45402099609375000000e+002) (94, 5.44753845214843750000e+002) (95, 5.44994506835937500000e+002) (96, 5.45682250976562500000e+002) (97, 5.45771728515625000000e+002) (98, 3.58668684959411620000e-001) (99, 5.45375610351562500000e+002) (100, -4.66533601284027100000e-001) (0, 4.17910993099212650000e-001) (1, 1.65098857879638670000e+000) (2, 5.38367629051208500000e-001) (3, 1.85311710834503170000e+000) (4, 9.01137828826904300000e-001) (5, -3.35202306509017940000e-001) (6, 6.18254005908966060000e-001) (7, 3.45188289880752560000e-001) (8, -3.05419147014617920000e-001) (9, 5.44820678710937500000e+002) (10, 7.31143295764923100000e-001) (11, 7.09761679172515870000e-002) (12, -6.43806457519531250000e-001) (13, 5.79745471477508540000e-001) (14, 1.44317352771759030000e+000) (15, 7.34040379524230960000e-001) (16, 1.04304230213165280000e+000) (17, 7.22153127193450930000e-001) (18, 1.98745727539062500000e-001) (19, 5.45149963378906250000e+002) (20, 3.47283035516738890000e-001) (21, 5.45210021972656250000e+002) (22, 7.07481324672698970000e-001) (23, 8.23709726333618160000e-001) (24, 4.08165550231933590000e+000) (25, -5.66376745700836180000e-001) (26, 2.59715169668197630000e-001) (27, 5.45457763671875000000e+002) (28, -1.33739793673157690000e-002) (29, 5.44864379882812500000e+002) (30, 7.54922270774841310000e-001) (31, 5.45528320312500000000e+002) (32, 1.26101225614547730000e-001) (33, -7.95302331447601320000e-001) (34, 5.24089813232421880000e-001) (35, 4.47964407503604890000e-002) (36, 1.51417553424835210000e+000) (37, 6.59940168261528020000e-002) (38, -3.23814153671264650000e-001) (39, 5.45736328125000000000e+002) (40, 5.25433003902435300000e-001) (41, 8.04308950901031490000e-001) (42, 1.13933920860290530000e+000) (43, 8.76651942729949950000e-001) (44, 9.01335716247558590000e-001) (45, -7.84887790679931640000e-001) (46, 1.47137105464935300000e+000) (47, 5.45285400390625000000e+002) (48, 9.76279556751251220000e-001) (49, 5.45771362304687500000e+002) (50, 1.47971415519714360000e+000) (51, -6.11693263053894040000e-001) (52, -3.89050960540771480000e-001) (53, 2.69039452075958250000e-001) (54, 6.08696997165679930000e-001) (55, -2.71648496389389040000e-001) (56, 9.59941923618316650000e-001) (57, 5.44738952636718750000e+002) (58, 7.78813064098358150000e-001) (59, 5.45447143554687500000e+002) (60, 1.26112079620361330000e+000) (61, -4.29089009761810300000e-001) (62, -1.02589082717895510000e+000) (63, 6.90061092376708980000e-001) (64, 1.41191709041595460000e+000) (65, -6.68988287448883060000e-001) (66, 6.35587453842163090000e-001) (67, -1.16474248468875890000e-001) (68, -6.11345291137695310000e-001) (69, 5.44839599609375000000e+002) (70, 1.02834546566009520000e+000) (71, 1.19053220748901370000e+000) (72, 2.62380361557006840000e-001) (73, 2.37071931362152100000e-001) (74, 1.67785251140594480000e+000) (75, 4.80269491672515870000e-002) (76, 8.46334993839263920000e-001) (77, 5.45424682617187500000e+002) (78, 2.71975189447402950000e-001) (79, 5.44855468750000000000e+002) (80, 3.80672276020050050000e-001) (81, 1.09990680217742920000e+000) (82, 2.37526011466979980000e+000) (83, 1.65779030323028560000e+000) (84, 8.01086664199829100000e-001) (85, -8.29818770289421080000e-002) (86, 1.13000977039337160000e+000) (87, 5.45760131835937500000e+002) (88, -7.10716605186462400000e-001) (89, 5.45506103515625000000e+002) (90, 5.45440673828125000000e+002) (91, 5.45013671875000000000e+002) (92, 5.45685913085937500000e+002) (93, 5.45054077148437500000e+002) (94, 5.45694946289062500000e+002) (95, 5.45663085937500000000e+002) (96, 5.45180725097656250000e+002) (97, 5.45155395507812500000e+002) (98, -4.18511480093002320000e-001) (99, 5.45205322265625000000e+002) (100, 3.01967769861221310000e-001) (0, 4.62485074996948240000e-001) (1, 1.52137637138366700000e-001) (2, 2.66350835561752320000e-001) (3, -5.51128387451171880000e-002) (4, 4.08387221395969390000e-002) (5, -9.52365621924400330000e-002) (6, -6.39486730098724370000e-001) (7, -4.93391841650009160000e-001) (8, 8.18303942680358890000e-001) (9, 5.44907104492187500000e+002) (10, 1.90559953451156620000e-001) (11, 1.57505422830581670000e-001) (12, 3.83356660604476930000e-001) (13, 1.47490203380584720000e+000) (14, -1.13718152046203610000e+000) (15, -3.93489748239517210000e-001) (16, -1.73386409878730770000e-001) (17, 1.35756656527519230000e-001) (18, 1.01814985275268550000e+000) (19, 5.45188720703125000000e+002) (20, -1.42217099666595460000e-001) (21, 5.45520019531250000000e+002) (22, 7.12597131729125980000e-001) (23, 1.40769755840301510000e+000) (24, -3.22832375764846800000e-001) (25, 2.83861279487609860000e-001) (26, -1.40816688537597660000e-001) (27, 5.45762451171875000000e+002) (28, 1.24067716300487520000e-001) (29, 5.45751159667968750000e+002) (30, -3.79397422075271610000e-001) (31, 5.45056640625000000000e+002) (32, 3.62125635147094730000e-001) (33, 5.48713684082031250000e-001) (34, 1.95714080333709720000e+000) (35, 6.37224972248077390000e-001) (36, 